%YAML:1.0
---
opencv_ml_svm:
   format: 3
   svmType: C_SVC
   kernel:
      type: RBF
      gamma: 5.3830000000000000e+00
   C: 2.6699999999999999e+00
   term_criteria: { epsilon:1.1920928955078125e-07, iterations:1000 }
   var_count: 128
   class_count: 3
   class_labels: !!opencv-matrix
      rows: 3
      cols: 1
      dt: i
      data: [ 0, 1, 2 ]
   sv_total: 383
   support_vectors:
      - [ 4.20222357e-02, 2.72220261e-02, 4.00471352e-02, 7.08848536e-02,
          6.77611604e-02, 7.88962469e-02, 7.98624381e-02, 1.15451559e-01,
          1.44184515e-01, 1.29323065e-01, 1.38863981e-01, 8.76523927e-02,
          6.09111413e-02, 5.03835641e-02, 4.10723016e-02, 3.29455025e-02,
          7.77140334e-02, 4.49803956e-02, 8.57665166e-02, 9.76306722e-02,
          9.36742276e-02, 1.27511531e-01, 1.13045931e-01, 1.10291265e-01,
          1.27274230e-01, 7.79753625e-02, 3.01944409e-02, 3.04130297e-02,
          3.77311409e-02, 2.03471519e-02, 2.69796532e-02, 4.31062058e-02,
          2.96650622e-02, 2.87794713e-02, 2.26018019e-02, 2.29094345e-02,
          2.03253198e-02, 2.99353320e-02, 2.04151664e-02, 1.00801587e-01,
          9.15409252e-02, 7.91543946e-02, 5.65095171e-02, 4.65297028e-02,
          3.83410640e-02, 2.78437342e-02, 3.77430655e-02, 3.86829041e-02,
          4.55029383e-02, 5.42382486e-02, 9.30436552e-02, 1.10039003e-01,
          9.17720348e-02, 7.25488365e-02, 8.17395076e-02, 1.23716995e-01,
          1.36732385e-01, 1.19692899e-01, 5.49660921e-02, 3.99275944e-02,
          2.14707255e-02, 0., 0., 1.70600899e-02, 1.97391361e-01,
          1.80246383e-01, 1.63001269e-01, 1.35762870e-01, 1.04644366e-01,
          1.07730135e-01, 9.51089039e-02, 7.31854588e-02, 1.34648114e-01,
          8.43416154e-02, 6.80793896e-02, 3.61287296e-02, 6.37961924e-02,
          9.16820914e-02, 1.45692974e-01, 6.54384568e-02, 5.21536395e-02,
          4.56746072e-02, 3.07840370e-02, 4.53895703e-02, 5.86345531e-02,
          5.31174876e-02, 7.87359923e-02, 9.54988822e-02, 2.13473856e-01,
          1.33778095e-01, 1.17351696e-01, 7.61659145e-02, 1.02060698e-01,
          7.69614652e-02, 9.55499932e-02, 1.45130321e-01, 1.69223979e-01,
          2.08887488e-01, 1.43566832e-01, 1.34949967e-01, 1.04892462e-01,
          6.25169650e-02, 7.16033056e-02, 1.08916163e-01, 1.61123976e-01,
          8.34131390e-02, 6.29698634e-02, 2.93822102e-02, 3.06098890e-02,
          2.83238292e-02, 8.50953069e-03, 1.60061549e-02, 3.80016789e-02,
          4.89495024e-02, 3.70385982e-02, 2.98095401e-02, 1.17832040e-02,
          3.61827165e-02, 4.25814949e-02, 8.01268369e-02, 1.27291232e-01,
          1.24700628e-01, 1.00770541e-01, 7.59016052e-02, 6.21029325e-02,
          5.10764308e-02, 6.49526864e-02, 7.24084005e-02 ]
      - [ 9.91524234e-02, 1.35032028e-01, 1.30805016e-01, 1.15937501e-01,
          8.97920355e-02, 8.98364112e-02, 9.19092000e-02, 8.33340883e-02,
          1.26709297e-01, 1.30063638e-01, 1.16998464e-01, 1.19016565e-01,
          8.97861272e-02, 6.75336048e-02, 7.13499486e-02, 7.05771744e-02,
          1.09044209e-01, 1.19014785e-01, 1.32870972e-01, 1.04127064e-01,
          1.05772279e-01, 8.79822597e-02, 1.17982656e-01, 1.16515711e-01,
          1.38517365e-01, 6.98812157e-02, 5.43388762e-02, 3.82880718e-02,
          2.89303977e-02, 5.67637682e-02, 5.03742807e-02, 2.40633246e-02,
          3.13393883e-02, 2.70528216e-02, 3.01930569e-02, 3.22736576e-02,
          2.28697751e-02, 5.63131720e-02, 7.91243538e-02, 1.11214601e-01,
          1.47417113e-01, 7.53204748e-02, 4.07364629e-02, 3.78251933e-02,
          2.68035736e-02, 3.89069319e-02, 6.38259202e-02, 1.93157971e-01,
          1.56048924e-01, 1.29951745e-01, 1.31042570e-01, 1.01899795e-01,
          6.28158227e-02, 9.53165889e-02, 1.25938222e-01, 1.26799166e-01,
          1.18935727e-01, 7.36560449e-02, 3.40010710e-02, 2.80183442e-02,
          3.42542492e-02, 1.95751097e-02, 3.91207784e-02, 1.70783121e-02,
          7.95260146e-02, 5.35217822e-02, 5.46995327e-02, 7.48905540e-02,
          9.60814953e-02, 1.18206792e-01, 1.53414965e-01, 1.26945734e-01,
          1.19956590e-01, 8.30341652e-02, 7.99916089e-02, 8.01285431e-02,
          7.60752484e-02, 9.84142125e-02, 1.03752866e-01, 1.08718656e-01,
          8.88879225e-02, 4.10413742e-02, 5.28865717e-02, 4.29192930e-02,
          3.89510058e-02, 5.50804064e-02, 7.24183023e-02, 1.33078367e-01,
          9.13513303e-02, 8.91244635e-02, 8.63703191e-02, 8.96693543e-02,
          1.04821570e-01, 8.57266486e-02, 6.75812364e-02, 7.12753013e-02,
          1.36065245e-01, 1.18657559e-01, 5.31876199e-02, 5.17646484e-02,
          4.72880937e-02, 2.12491136e-02, 7.68119842e-02, 9.95980352e-02,
          1.20017819e-01, 4.71527055e-02, 2.44770907e-02, 2.70601306e-02,
          3.08446083e-02, 2.25644857e-02, 9.59319901e-03, 1.12464391e-02,
          2.15786081e-02, 1.48731740e-02, 3.13522927e-02, 4.73462604e-02,
          3.86359841e-02, 3.28175835e-02, 6.56667948e-02, 1.01602025e-01,
          1.33842498e-01, 1.19884916e-01, 8.97899270e-02, 8.39392990e-02,
          1.02305785e-01, 8.28744620e-02, 1.22106545e-01, 1.40104428e-01 ]
      - [ 5.86963408e-02, 1.22220524e-01, 1.71915725e-01, 1.06056318e-01,
          7.53637627e-02, 8.04674774e-02, 9.35932547e-02, 4.66288216e-02,
          1.48409724e-01, 1.15851671e-01, 9.51724797e-02, 1.12169646e-01,
          1.23123392e-01, 1.57252952e-01, 1.67109460e-01, 1.94398180e-01,
          1.66493103e-01, 1.16251700e-01, 1.14502102e-01, 5.58614284e-02,
          1.28300309e-01, 1.19114049e-01, 1.50170684e-01, 1.22332275e-01,
          1.08552322e-01, 6.87102973e-02, 7.70948827e-02, 4.25116643e-02,
          6.87049329e-02, 3.13527919e-02, 4.09825556e-02, 5.24468422e-02,
          2.50352826e-02, 2.50592977e-02, 1.29845832e-02, 5.18323816e-02,
          4.66628596e-02, 6.30063415e-02, 5.98344058e-02, 1.25953585e-01,
          1.34379029e-01, 9.95700508e-02, 9.00105610e-02, 7.44090304e-02,
          1.08513705e-01, 1.29801437e-01, 1.96930498e-01, 1.86063185e-01,
          1.57142684e-01, 9.85670388e-02, 6.64818361e-02, 8.04856122e-02,
          7.14689121e-02, 1.08711466e-01, 1.20219767e-01, 1.03672773e-01,
          9.80987325e-02, 9.90596116e-02, 5.09918667e-02, 4.31225821e-02,
          2.74507832e-02, 1.90712400e-02, 2.82721035e-02, 1.45915896e-02,
          7.15207979e-02, 4.18021530e-02, 5.61001673e-02, 7.12450743e-02,
          8.50991830e-02, 1.37301162e-01, 1.51893497e-01, 1.34918019e-01,
          1.35541543e-01, 6.55421093e-02, 6.47570863e-02, 6.49519488e-02,
          6.57149777e-02, 4.55687903e-02, 4.78555001e-02, 4.68997471e-02,
          6.49610236e-02, 4.57270443e-02, 4.28572781e-02, 4.69836406e-02,
          9.10553802e-03, 7.02552572e-02, 5.44106513e-02, 2.33167838e-02,
          8.67677405e-02, 5.48476428e-02, 6.95130602e-02, 7.54139125e-02,
          9.37425271e-02, 6.59941211e-02, 6.16675168e-02, 5.00547960e-02,
          4.69844416e-02, 2.59378906e-02, 3.46499719e-02, 2.66482774e-02,
          2.89122984e-02, 6.57951757e-02, 7.33449683e-02, 6.20739758e-02,
          8.58712643e-02, 4.87913340e-02, 3.14287096e-02, 1.74053553e-02,
          2.74133589e-02, 2.00317595e-02, 1.81617811e-02, 9.34224296e-03,
          3.12072765e-02, 2.25067064e-02, 1.42352963e-02, 7.38388905e-03,
          3.93267870e-02, 1.00356467e-01, 1.03934795e-01, 1.28926501e-01,
          1.34737790e-01, 7.78161883e-02, 6.24537542e-02, 6.10755384e-02,
          6.81612417e-02, 9.51073766e-02, 6.50098920e-02, 4.55228537e-02 ]
      - [ 1.00566834e-01, 1.18972547e-01, 1.20106362e-01, 9.19086263e-02,
          7.76100904e-02, 7.40140676e-02, 9.97478813e-02, 7.89425224e-02,
          1.14062749e-01, 1.05074801e-01, 9.66884792e-02, 9.20988470e-02,
          1.21432148e-01, 8.95425528e-02, 8.55627880e-02, 8.82001221e-02,
          1.22011818e-01, 1.00745633e-01, 9.89161134e-02, 9.10730883e-02,
          5.90519719e-02, 1.29723385e-01, 1.06426828e-01, 1.22809164e-01,
          1.09211333e-01, 8.45281854e-02, 6.83787838e-02, 4.54065613e-02,
          3.44375856e-02, 6.80656359e-02, 3.62553522e-02, 6.90812469e-02,
          2.90321000e-02, 1.14016663e-02, 2.67645307e-02, 1.92886889e-02,
          1.70579664e-02, 3.17474604e-02, 4.66804467e-02, 6.47977069e-02,
          1.30796924e-01, 8.02838653e-02, 7.41811171e-02, 5.75976595e-02,
          6.46554455e-02, 1.61925182e-01, 1.90658271e-01, 1.91114038e-01,
          1.71438783e-01, 1.01810053e-01, 8.51065964e-02, 5.08761965e-02,
          4.60224450e-02, 7.13263974e-02, 1.10009842e-01, 8.66826102e-02,
          1.25622198e-01, 6.80386275e-02, 2.02504024e-02, 1.44404154e-02,
          2.91073639e-02, 0., 0., 0., 1.06925137e-01, 8.37796330e-02,
          7.09962994e-02, 1.01079024e-01, 1.21099018e-01, 1.26283303e-01,
          9.62524638e-02, 1.18431993e-01, 1.17329024e-01, 8.62197503e-02,
          7.45407715e-02, 9.81851667e-02, 1.06301032e-01, 9.37184244e-02,
          1.02072775e-01, 9.94894281e-02, 9.07745361e-02, 4.72335331e-02,
          4.85636070e-02, 5.89402951e-02, 5.21890447e-02, 5.34438826e-02,
          7.85836056e-02, 8.27513710e-02, 8.94063339e-02, 5.35692163e-02,
          8.42356235e-02, 8.46723467e-02, 9.24360007e-02, 5.88963777e-02,
          6.37884140e-02, 7.29866996e-02, 1.65700316e-01, 1.49529085e-01,
          1.04240075e-01, 6.38374612e-02, 6.19323775e-02, 5.82825541e-02,
          1.10759549e-01, 1.27641723e-01, 8.69603083e-02, 0.,
          4.11421508e-02, 2.04222221e-02, 2.00536977e-02, 0.,
          1.51440054e-02, 0., 3.34824175e-02, 1.94018818e-02,
          1.12713398e-02, 2.46786326e-02, 4.88187075e-02, 6.01780191e-02,
          1.06301785e-01, 1.43685162e-01, 1.45574570e-01, 1.19656056e-01,
          8.12141150e-02, 7.15282485e-02, 6.74609020e-02, 7.50115961e-02,
          9.69426408e-02, 1.02550305e-01 ]
      - [ 9.05331746e-02, 1.63660243e-01, 1.41035363e-01, 7.00886697e-02,
          6.61595985e-02, 8.37848559e-02, 7.86471367e-02, 6.93955049e-02,
          1.38677776e-01, 1.08418234e-01, 1.00004941e-01, 9.19665173e-02,
          1.33474112e-01, 1.35490403e-01, 1.65105209e-01, 1.54269382e-01,
          1.10909291e-01, 9.76581872e-02, 1.36175334e-01, 6.45029098e-02,
          5.87115400e-02, 1.25621840e-01, 1.65434673e-01, 9.56147164e-02,
          8.92735049e-02, 7.55109191e-02, 6.08190335e-02, 4.27071601e-02,
          4.55491617e-02, 3.16812396e-02, 2.58263238e-02, 6.09399639e-02,
          3.08423098e-02, 1.60701051e-02, 2.50474140e-02, 2.64957808e-02,
          3.23081054e-02, 4.44158092e-02, 8.71060193e-02, 1.17319770e-01,
          1.38845891e-01, 7.05365688e-02, 8.41895491e-02, 7.31008947e-02,
          1.33984104e-01, 1.45714238e-01, 1.92008197e-01, 1.81155413e-01,
          1.44099146e-01, 6.44171536e-02, 3.06574088e-02, 6.26358539e-02,
          8.25375989e-02, 1.07632942e-01, 1.17410481e-01, 1.18870832e-01,
          9.77820233e-02, 3.00513040e-02, 4.47831489e-02, 1.83972195e-02,
          3.30838226e-02, 3.27755436e-02, 4.75397632e-02, 3.83161753e-02,
          7.53685534e-02, 4.31139283e-02, 4.84100431e-02, 6.63299039e-02,
          9.70110148e-02, 1.28758892e-01, 1.45777762e-01, 1.38478011e-01,
          1.15321450e-01, 6.62614405e-02, 7.57516176e-02, 8.95936713e-02,
          7.33989775e-02, 7.52969757e-02, 6.84426129e-02, 8.74761865e-02,
          8.95901620e-02, 4.52698320e-02, 3.74363773e-02, 2.74335761e-02,
          5.70451580e-02, 3.81929241e-02, 3.48423757e-02, 5.17303683e-02,
          8.60582292e-02, 5.97622357e-02, 1.00192219e-01, 1.11100450e-01,
          1.18284650e-01, 9.86116827e-02, 6.39860630e-02, 5.00324108e-02,
          7.66200721e-02, 3.94312404e-02, 6.64896965e-02, 6.97090849e-02,
          5.43461032e-02, 8.40215236e-02, 9.93438363e-02, 1.03472270e-01,
          8.60320553e-02, 4.06413265e-02, 2.69272868e-02, 2.97541246e-02,
          2.92391721e-02, 1.03455167e-02, 3.43638472e-02, 2.75985263e-02,
          3.86350937e-02, 3.45615521e-02, 3.13014351e-02, 5.04113622e-02,
          6.18591644e-02, 9.30442214e-02, 1.40791550e-01, 1.36545360e-01,
          1.49563849e-01, 8.08834732e-02, 3.87424938e-02, 4.05355170e-02,
          5.69356829e-02, 6.67757094e-02, 6.83583990e-02, 6.66774437e-02 ]
      - [ 8.11956599e-02, 6.28246516e-02, 1.43481508e-01, 1.22225344e-01,
          1.09022103e-01, 9.93756056e-02, 7.89625868e-02, 7.84069747e-02,
          1.14826478e-01, 1.24239966e-01, 9.87837464e-02, 1.26232043e-01,
          1.03386059e-01, 7.47523680e-02, 6.27418980e-02, 5.47652803e-02,
          1.01810150e-01, 1.00348502e-01, 8.77956152e-02, 1.32909626e-01,
          1.21560574e-01, 8.35873708e-02, 9.47708637e-02, 1.59949914e-01,
          1.61666408e-01, 7.64491558e-02, 7.81841949e-02, 6.34345561e-02,
          4.88362424e-02, 3.31879705e-02, 5.54604642e-02, 5.78079298e-02,
          3.52142714e-02, 1.33531364e-02, 3.09808720e-02, 2.82710865e-02,
          4.80018221e-02, 4.39487174e-02, 5.83218560e-02, 1.00719765e-01,
          1.34808511e-01, 1.12571307e-01, 8.19041878e-02, 3.74227166e-02,
          6.01427630e-02, 4.24096547e-02, 5.06800562e-02, 6.50811493e-02,
          7.86987171e-02, 9.96803045e-02, 1.28660172e-01, 9.99332219e-02,
          6.68712035e-02, 7.90919736e-02, 9.51819867e-02, 1.23456694e-01,
          1.45187661e-01, 8.41349810e-02, 7.38409907e-02, 4.27506454e-02,
          5.18896393e-02, 3.99447232e-02, 3.43766622e-02, 1.63253006e-02,
          7.54595771e-02, 7.37970993e-02, 7.77089149e-02, 7.49581754e-02,
          7.76752606e-02, 1.05060570e-01, 1.28874451e-01, 1.13238774e-01,
          1.25051096e-01, 8.55044201e-02, 5.60977608e-02, 6.23383038e-02,
          7.08699003e-02, 7.98260942e-02, 8.39410499e-02, 8.67799893e-02,
          1.10678650e-01, 7.36715719e-02, 5.96859343e-02, 5.23742065e-02,
          4.01795991e-02, 5.77558577e-02, 8.64369720e-02, 9.58907753e-02,
          1.75800472e-01, 1.27369866e-01, 1.00912310e-01, 8.49175006e-02,
          9.12466049e-02, 6.34079054e-02, 6.15701303e-02, 7.42720142e-02,
          1.66593894e-01, 1.95446208e-01, 1.63489327e-01, 6.72334284e-02,
          4.92142327e-02, 3.77377383e-02, 4.36335243e-02, 3.50450128e-02,
          9.13678259e-02, 6.57244772e-02, 3.62461694e-02, 1.77079029e-02,
          3.36062424e-02, 5.01409359e-02, 2.44365148e-02, 4.67041098e-02,
          7.28551894e-02, 1.18284993e-01, 1.06476992e-01, 1.14586718e-01,
          6.78118393e-02, 5.48821129e-02, 6.27600551e-02, 4.72783260e-02,
          7.96711668e-02, 7.90100768e-02, 7.82625750e-02, 6.56834766e-02,
          8.48967656e-02, 1.00515880e-01, 7.77228326e-02, 1.06019139e-01 ]
      - [ 8.29161033e-02, 1.04148835e-01, 1.26863733e-01, 1.29037067e-01,
          1.15479484e-01, 7.56920427e-02, 1.13690153e-01, 6.31329343e-02,
          1.30609512e-01, 1.39763042e-01, 1.16148576e-01, 9.02580395e-02,
          1.09291434e-01, 6.84085935e-02, 5.79752102e-02, 8.08482170e-02,
          1.04054689e-01, 1.12594694e-01, 9.66512486e-02, 1.31008819e-01,
          1.33921027e-01, 1.21589772e-01, 1.34162545e-01, 1.48824781e-01,
          1.17995284e-01, 7.01534003e-02, 7.62530416e-02, 5.82997613e-02,
          4.80303206e-02, 5.04131764e-02, 5.86398467e-02, 4.83945794e-02,
          3.33982147e-02, 1.62400212e-02, 2.99810544e-02, 4.35845293e-02,
          5.02350889e-02, 5.71098365e-02, 8.33201855e-02, 8.41793045e-02,
          1.71648964e-01, 1.34434834e-01, 6.56777993e-02, 5.83535172e-02,
          6.43500313e-02, 3.90533693e-02, 6.29589483e-02, 8.30448717e-02,
          1.08294360e-01, 1.16791785e-01, 1.22591682e-01, 6.76914677e-02,
          7.99171701e-02, 7.64653981e-02, 9.80809182e-02, 1.49927571e-01,
          1.53710142e-01, 1.07240938e-01, 5.69718815e-02, 3.67979072e-02,
          3.85273546e-02, 4.64968458e-02, 2.99581196e-02, 1.41284931e-02,
          7.56490529e-02, 6.10867552e-02, 4.66078818e-02, 6.61777332e-02,
          6.88215569e-02, 1.14175178e-01, 1.29783675e-01, 1.18562989e-01,
          1.30064771e-01, 1.07030012e-01, 4.33836877e-02, 6.29593357e-02,
          8.35441723e-02, 8.24976340e-02, 6.61870539e-02, 9.07662511e-02,
          9.96906608e-02, 4.63556983e-02, 5.94870523e-02, 4.00409549e-02,
          6.28599301e-02, 7.31965750e-02, 4.56811674e-02, 1.30642548e-01,
          1.47790030e-01, 1.21474020e-01, 1.01414852e-01, 1.09028503e-01,
          9.73935723e-02, 9.18805003e-02, 4.35461998e-02, 4.52978536e-02,
          1.37074977e-01, 1.56517237e-01, 1.18699394e-01, 2.42994148e-02,
          5.03444821e-02, 4.77959253e-02, 7.20787495e-02, 6.89019039e-02,
          7.69274607e-02, 4.20302153e-02, 3.51639278e-02, 4.36145030e-02,
          2.85020173e-02, 2.19305716e-02, 1.04726572e-02, 1.58618893e-02,
          5.77142052e-02, 6.88901916e-02, 4.38835844e-02, 3.20998207e-02,
          2.91881561e-02, 7.34228492e-02, 8.54035467e-02, 6.80183247e-02,
          9.46488753e-02, 9.64256451e-02, 9.91686806e-02, 6.64616674e-02,
          8.47845525e-02, 1.00175932e-01, 8.90853703e-02, 1.18221961e-01 ]
      - [ 7.43721426e-02, 7.56288990e-02, 1.67910680e-01, 1.13437839e-01,
          1.17954783e-01, 9.47487652e-02, 8.89583007e-02, 8.54122639e-02,
          1.15738273e-01, 1.23996682e-01, 1.03702933e-01, 9.42511037e-02,
          1.24797314e-01, 1.09696895e-01, 1.18141025e-01, 1.15958460e-01,
          1.27917558e-01, 1.17690161e-01, 1.29619017e-01, 1.15068644e-01,
          1.14633664e-01, 8.11045095e-02, 1.36281624e-01, 1.44675136e-01,
          1.06437236e-01, 8.72869492e-02, 9.12251323e-02, 4.55708578e-02,
          5.10763936e-02, 5.51987775e-02, 5.48157245e-02, 5.00117093e-02,
          3.97210792e-02, 1.59123950e-02, 3.28977294e-02, 5.64676076e-02,
          6.32335842e-02, 5.59691601e-02, 7.63243288e-02, 1.34055421e-01,
          1.82459190e-01, 1.17086865e-01, 8.05234015e-02, 7.04762414e-02,
          9.05972570e-02, 1.05240181e-01, 1.12834886e-01, 1.02328271e-01,
          1.43582180e-01, 1.37881875e-01, 1.08232386e-01, 7.24707618e-02,
          6.03865124e-02, 8.37837011e-02, 1.44199535e-01, 1.50802135e-01,
          1.43765822e-01, 1.17939606e-01, 5.27069755e-02, 3.46516520e-02,
          3.42253111e-02, 3.10583003e-02, 3.65840383e-02, 2.67646387e-02,
          6.05296418e-02, 3.54990438e-02, 3.87181193e-02, 7.01840967e-02,
          6.25206530e-02, 9.25523564e-02, 1.76955715e-01, 1.38687551e-01,
          1.12102516e-01, 7.23259524e-02, 6.66909888e-02, 5.42708300e-02,
          8.39135945e-02, 5.30025847e-02, 4.29545045e-02, 3.98799181e-02,
          5.26201986e-02, 6.26683384e-02, 5.11324406e-02, 5.08484691e-02,
          2.78485175e-02, 5.27981296e-02, 7.93464333e-02, 1.25298411e-01,
          1.43396765e-01, 9.22522172e-02, 1.16932623e-01, 9.53781530e-02,
          1.04924351e-01, 7.49006942e-02, 5.63408881e-02, 4.64085899e-02,
          8.16171467e-02, 4.51961309e-02, 5.06243818e-02, 3.51007283e-02,
          4.41101082e-02, 5.29195406e-02, 5.59650362e-02, 7.36339763e-02,
          7.12436885e-02, 5.38348220e-02, 5.48647456e-02, 3.81869301e-02,
          3.07339914e-02, 1.50017608e-02, 1.53202089e-02, 1.07368678e-02,
          2.85470597e-02, 1.44830886e-02, 2.85626557e-02, 1.90288387e-02,
          3.43225189e-02, 7.22847059e-02, 1.04814246e-01, 1.02373138e-01,
          1.05965450e-01, 8.58640596e-02, 7.41569623e-02, 6.19597249e-02,
          9.39563736e-02, 9.07562524e-02, 1.00869618e-01, 7.46057183e-02 ]
      - [ 4.78440151e-02, 3.35669108e-02, 4.28430662e-02, 3.85487117e-02,
          5.17623052e-02, 5.81810176e-02, 6.25948757e-02, 1.14923485e-01,
          1.59779176e-01, 1.88761458e-01, 1.14346154e-01, 6.28566891e-02,
          6.14537969e-02, 4.56736684e-02, 5.36310151e-02, 4.31547202e-02,
          7.51704276e-02, 4.89115044e-02, 4.22069505e-02, 6.58782050e-02,
          9.08250287e-02, 1.37397587e-01, 1.33767441e-01, 1.02256395e-01,
          1.30985856e-01, 3.63706499e-02, 2.07923483e-02, 0.,
          2.51839943e-02, 1.96807086e-02, 1.18968897e-02, 2.04874277e-02,
          4.45181765e-02, 1.16451755e-02, 1.10808024e-02, 2.87039056e-02,
          1.61952879e-02, 2.21789815e-02, 2.40538549e-02, 9.42151770e-02,
          1.07464619e-01, 7.12763667e-02, 7.63568506e-02, 6.35301471e-02,
          4.62096296e-02, 3.89387235e-02, 2.75885705e-02, 2.45320797e-02,
          4.27511409e-02, 5.01006804e-02, 5.78831919e-02, 7.56257772e-02,
          8.19145516e-02, 1.16989486e-01, 1.01212844e-01, 1.13315828e-01,
          1.42769471e-01, 1.34495080e-01, 9.50993225e-02, 3.92310545e-02,
          3.43479104e-02, 2.18619015e-02, 2.25713328e-02, 0.,
          1.27264783e-01, 7.88425207e-02, 1.63007796e-01, 1.69319168e-01,
          1.15837574e-01, 1.61258325e-01, 1.18733458e-01, 1.01803802e-01,
          1.01546600e-01, 5.91407642e-02, 4.20207232e-02, 4.56918366e-02,
          4.37784940e-02, 1.17665000e-01, 9.59588662e-02, 0.,
          4.35920097e-02, 0., 4.81666811e-02, 1.56873520e-02,
          1.32222669e-02, 6.71744570e-02, 7.03187585e-02, 9.14822221e-02,
          1.53285280e-01, 2.20270619e-01, 1.62340105e-01, 1.12267472e-01,
          1.07005574e-01, 8.63461345e-02, 1.34905323e-01, 1.14833094e-01,
          1.71778515e-01, 1.69438511e-01, 1.74567446e-01, 1.63829535e-01,
          1.53980225e-01, 1.10735752e-01, 1.11324400e-01, 1.18169323e-01,
          1.25250429e-01, 1.01226076e-01, 4.10457253e-02, 5.49877547e-02,
          3.60042974e-02, 1.55420415e-02, 2.67826933e-02, 1.94331594e-02,
          1.35244383e-02, 3.59752774e-02, 8.56019836e-03, 3.12419534e-02,
          1.97585281e-02, 2.99997330e-02, 4.25555445e-02, 9.24673602e-02,
          9.77968499e-02, 7.50776306e-02, 5.70259020e-02, 4.11165282e-02,
          6.70259744e-02, 6.66341782e-02, 8.00489485e-02, 9.77398083e-02 ]
      - [ 7.85132274e-02, 9.17667821e-02, 1.42016217e-01, 1.35026649e-01,
          8.26052129e-02, 9.01806504e-02, 6.78288117e-02, 7.83810318e-02,
          9.66389701e-02, 1.40365466e-01, 1.13413975e-01, 1.00657225e-01,
          9.43137631e-02, 6.68779314e-02, 7.09159970e-02, 5.93529716e-02,
          1.16017543e-01, 1.01649337e-01, 1.17652692e-01, 1.26985580e-01,
          7.40451589e-02, 9.58769992e-02, 8.41826051e-02, 1.37932569e-01,
          1.29331112e-01, 1.20784014e-01, 4.15086299e-02, 5.51070310e-02,
          6.89119697e-02, 0., 3.30968238e-02, 2.97636073e-02,
          3.62526216e-02, 1.74143631e-02, 1.77294854e-02, 4.17441353e-02,
          3.74213271e-02, 4.58078198e-02, 4.19880301e-02, 1.08078182e-01,
          1.20828159e-01, 1.12369202e-01, 6.14706948e-02, 4.95872758e-02,
          4.55384105e-02, 6.83624446e-02, 6.11574873e-02, 6.40976205e-02,
          9.43370759e-02, 1.26552746e-01, 1.26257673e-01, 6.76345155e-02,
          4.93353009e-02, 7.73211643e-02, 8.02296996e-02, 1.31950289e-01,
          1.43690243e-01, 9.16953012e-02, 7.24137351e-02, 4.76787463e-02,
          2.84184627e-02, 3.53204608e-02, 2.81538684e-02, 2.89030690e-02,
          8.65569264e-02, 1.12866707e-01, 7.53909349e-02, 4.62344997e-02,
          6.61901459e-02, 9.61066261e-02, 1.42376304e-01, 1.45893946e-01,
          1.01221837e-01, 4.42595109e-02, 6.48375228e-02, 7.34863505e-02,
          4.51371595e-02, 9.17196646e-02, 1.00394629e-01, 9.45529118e-02,
          1.09642111e-01, 5.02399653e-02, 2.85142083e-02, 5.81753664e-02,
          6.11091815e-02, 6.49451166e-02, 8.33039135e-02, 1.34887576e-01,
          1.48061991e-01, 8.42757523e-02, 1.07007369e-01, 8.91215801e-02,
          1.07163057e-01, 9.86582860e-02, 8.32003877e-02, 7.66372085e-02,
          1.70612633e-01, 2.34298363e-01, 1.10238686e-01, 6.60245791e-02,
          5.78420945e-02, 6.16205819e-02, 4.25362363e-02, 6.35369718e-02,
          8.86475742e-02, 5.24589233e-02, 2.81183962e-02, 3.35111953e-02,
          4.68613766e-02, 2.98744291e-02, 2.08045617e-02, 1.74239371e-02,
          6.20718487e-02, 1.60522044e-01, 1.23515084e-01, 7.79426545e-02,
          4.92374115e-02, 7.39305690e-02, 6.61224723e-02, 6.39077723e-02,
          9.51116756e-02, 9.09654424e-02, 7.46628642e-02, 4.19461802e-02,
          7.87244737e-02, 6.76650107e-02, 1.08288020e-01, 1.01530753e-01 ]
      - [ 6.46901429e-02, 5.92089556e-02, 6.71696663e-02, 7.02290758e-02,
          7.49860331e-02, 8.23481679e-02, 8.88566598e-02, 1.06256410e-01,
          1.32918552e-01, 1.35321900e-01, 1.30571336e-01, 8.99579450e-02,
          8.05138350e-02, 4.15553525e-02, 3.90004925e-02, 4.67322655e-02,
          8.61857831e-02, 6.36443570e-02, 8.36140960e-02, 1.09954596e-01,
          1.05006665e-01, 1.28196448e-01, 1.09020106e-01, 1.10935718e-01,
          1.09311230e-01, 6.89518526e-02, 6.51870295e-02, 2.20953487e-02,
          1.84800439e-02, 3.54311317e-02, 5.92814386e-02, 2.46362966e-02,
          4.69675362e-02, 2.65468527e-02, 3.80291231e-02, 3.70396115e-02,
          2.11954117e-02, 2.61058956e-02, 5.89812808e-02, 8.79884064e-02,
          7.53229856e-02, 7.88813233e-02, 6.60272911e-02, 3.21628265e-02,
          4.21731919e-02, 3.85353006e-02, 4.51787151e-02, 4.26383056e-02,
          5.92809916e-02, 6.66561276e-02, 1.00365385e-01, 1.12875961e-01,
          6.75050095e-02, 7.28074759e-02, 1.21556804e-01, 1.04768604e-01,
          1.19790256e-01, 1.07375741e-01, 6.66572750e-02, 2.59154383e-02,
          1.77903771e-02, 2.49590985e-02, 1.45439291e-02, 1.55527834e-02,
          1.71516433e-01, 2.03531325e-01, 1.38906300e-01, 1.23979852e-01,
          1.25803232e-01, 8.94582868e-02, 9.28974450e-02, 8.39323029e-02,
          1.23687215e-01, 1.05944671e-01, 7.31841028e-02, 5.92899472e-02,
          9.15385112e-02, 7.00415671e-02, 1.42247453e-01, 6.62630424e-02,
          5.79052903e-02, 5.52119128e-02, 4.54281308e-02, 6.44071251e-02,
          4.81194332e-02, 6.67284802e-02, 7.83069879e-02, 1.14531554e-01,
          2.24298149e-01, 1.08476989e-01, 1.10232547e-01, 9.59398448e-02,
          7.80958757e-02, 4.50540595e-02, 7.22341388e-02, 8.47520232e-02,
          1.57754242e-01, 2.27943689e-01, 2.00734586e-01, 8.65490884e-02,
          6.74822256e-02, 5.00402898e-02, 8.20427984e-02, 1.33523881e-01,
          1.23181313e-01, 7.12228939e-02, 4.62018140e-02, 3.16792317e-02,
          3.00064608e-02, 2.06775162e-02, 2.73277741e-02, 2.04936527e-02,
          2.42516901e-02, 6.95111603e-02, 5.69389574e-02, 2.76849940e-02,
          3.95321511e-02, 3.06374189e-02, 5.04439436e-02, 8.24026763e-02,
          1.31703243e-01, 1.00308634e-01, 1.10484637e-01, 7.44592771e-02,
          4.79957759e-02, 7.50424415e-02, 7.08921477e-02, 7.20166937e-02 ]
      - [ 8.08353201e-02, 7.02793300e-02, 1.46699116e-01, 1.30929947e-01,
          7.68354535e-02, 1.14094123e-01, 7.13244602e-02, 8.78229737e-02,
          1.00379311e-01, 1.16875581e-01, 1.32483214e-01, 1.05300426e-01,
          9.74099264e-02, 8.17419961e-02, 4.54134718e-02, 5.57493158e-02,
          1.06739163e-01, 7.32330158e-02, 9.46308374e-02, 1.53596118e-01,
          1.05647564e-01, 9.61476490e-02, 8.50822330e-02, 1.63287386e-01,
          1.41181126e-01, 1.10359609e-01, 6.31202310e-02, 5.00019118e-02,
          4.41823192e-02, 1.50328735e-02, 4.62668873e-02, 1.96511373e-02,
          3.67285274e-02, 9.50762350e-03, 1.64323859e-02, 3.77305746e-02,
          4.34120409e-02, 3.95463072e-02, 6.19874373e-02, 1.05908722e-01,
          1.35145381e-01, 1.01141788e-01, 6.28994256e-02, 4.79972698e-02,
          5.52806184e-02, 4.65743653e-02, 6.42747208e-02, 6.15661107e-02,
          9.64785293e-02, 1.09168887e-01, 1.30984724e-01, 9.50834155e-02,
          6.67822510e-02, 6.23992085e-02, 1.00128472e-01, 1.26299083e-01,
          1.25906989e-01, 9.54061598e-02, 7.57766142e-02, 4.62195314e-02,
          4.91946712e-02, 3.26443203e-02, 1.44048519e-02, 1.74205918e-02,
          8.27896148e-02, 8.48395601e-02, 6.89209402e-02, 6.73879385e-02,
          7.94854090e-02, 1.14839010e-01, 1.35405853e-01, 1.23784587e-01,
          1.02899656e-01, 7.55402818e-02, 6.02408014e-02, 6.13401234e-02,
          6.57078698e-02, 8.31437930e-02, 1.01529017e-01, 1.02937914e-01,
          1.04913235e-01, 5.38483039e-02, 3.91556174e-02, 4.66907807e-02,
          6.53041080e-02, 5.84624000e-02, 5.80526441e-02, 1.39779389e-01,
          1.44058615e-01, 1.07513539e-01, 1.04828484e-01, 9.07519683e-02,
          1.10746376e-01, 9.27344561e-02, 5.35719432e-02, 7.61683136e-02,
          1.65851250e-01, 2.26493061e-01, 1.25276372e-01, 5.56946173e-02,
          6.13887534e-02, 4.89996485e-02, 5.29228114e-02, 5.93582764e-02,
          7.77082294e-02, 6.07476681e-02, 4.75292243e-02, 4.07973006e-02,
          3.54765467e-02, 2.31519602e-02, 1.86594967e-02, 1.86231080e-02,
          6.77500591e-02, 1.44453675e-01, 1.32099569e-01, 7.69719183e-02,
          4.93192971e-02, 4.93336022e-02, 5.91968596e-02, 6.05429001e-02,
          9.64843035e-02, 8.30553398e-02, 6.80177286e-02, 7.42336735e-02,
          9.03636217e-02, 8.08466226e-02, 1.06645830e-01, 9.08422396e-02 ]
      - [ 1.35437191e-01, 1.35371134e-01, 1.03906818e-01, 1.23439580e-01,
          7.30878860e-02, 8.40527043e-02, 9.51634869e-02, 8.90089571e-02,
          1.31506920e-01, 1.05126157e-01, 1.16248287e-01, 1.04984589e-01,
          1.00856490e-01, 7.63504058e-02, 6.06632866e-02, 6.59134760e-02,
          1.04538895e-01, 1.00104362e-01, 1.20856643e-01, 7.31145665e-02,
          8.42508823e-02, 1.20842941e-01, 1.21894903e-01, 1.13927186e-01,
          1.03331909e-01, 2.77035162e-02, 4.98926491e-02, 4.90392447e-02,
          5.39813824e-02, 7.08366036e-02, 6.79943562e-02, 7.12598786e-02,
          3.25992890e-02, 2.83699334e-02, 3.22210118e-02, 3.95372249e-02,
          3.22945975e-02, 6.44611940e-02, 9.68200266e-02, 1.16169535e-01,
          1.05733119e-01, 6.49959743e-02, 4.10896279e-02, 6.02297448e-02,
          6.36129156e-02, 6.04898930e-02, 1.37452245e-01, 1.68936223e-01,
          1.16457149e-01, 1.40757918e-01, 1.12788163e-01, 7.85338581e-02,
          7.79460445e-02, 1.10749923e-01, 1.29078925e-01, 1.04513921e-01,
          1.18048906e-01, 5.01560941e-02, 3.53560969e-02, 1.65126473e-02,
          1.65765770e-02, 1.52537394e-02, 2.98582446e-02, 2.18339469e-02,
          1.05916210e-01, 6.63454160e-02, 9.09634307e-02, 8.88056904e-02,
          8.45375657e-02, 1.05180256e-01, 1.37773633e-01, 1.27954245e-01,
          1.25752404e-01, 8.31456035e-02, 8.00135210e-02, 6.78084716e-02,
          1.13645665e-01, 8.50722194e-02, 1.21762410e-01, 1.15020663e-01,
          1.00060977e-01, 6.28236830e-02, 6.20607808e-02, 6.03899471e-02,
          6.67079836e-02, 3.26583646e-02, 5.86457439e-02, 9.29027423e-02,
          9.62799788e-02, 8.44824687e-02, 7.29594156e-02, 8.33348110e-02,
          7.64969587e-02, 8.85267854e-02, 7.60892555e-02, 7.72854909e-02,
          1.27565533e-01, 1.13706551e-01, 9.86294523e-02, 7.27509782e-02,
          5.58107905e-02, 6.49840534e-02, 1.02094963e-01, 1.27069578e-01,
          1.04223020e-01, 5.45693710e-02, 3.82274687e-02, 3.04096546e-02,
          3.18202414e-02, 2.61898674e-02, 1.67592280e-02, 0.,
          3.21124829e-02, 7.80347595e-03, 1.62169989e-02, 2.60924939e-02,
          3.65324132e-02, 3.30240428e-02, 4.82402630e-02, 1.32835418e-01,
          1.50305822e-01, 1.35304764e-01, 9.05241445e-02, 7.15959370e-02,
          9.99028683e-02, 7.48582706e-02, 1.32331401e-01, 1.07810572e-01 ]
      - [ 1.11391313e-01, 1.32066771e-01, 1.20385036e-01, 9.12894905e-02,
          1.01366535e-01, 6.93589896e-02, 8.03453997e-02, 8.81012604e-02,
          1.55657277e-01, 1.19320586e-01, 1.05968192e-01, 1.08428791e-01,
          8.65619928e-02, 5.20161316e-02, 7.69239739e-02, 5.45046479e-02,
          1.07465595e-01, 7.97174424e-02, 1.01545766e-01, 1.00403279e-01,
          8.89359862e-02, 1.36351332e-01, 1.42409459e-01, 1.14227235e-01,
          1.25866935e-01, 7.95108676e-02, 5.70079200e-02, 4.37181443e-02,
          4.72688824e-02, 5.98374829e-02, 6.53500184e-02, 6.85885027e-02,
          1.86050534e-02, 2.91241854e-02, 3.07815876e-02, 2.88886409e-02,
          9.09468345e-03, 5.44648580e-02, 6.97042197e-02, 9.60346907e-02,
          1.30295262e-01, 6.12461753e-02, 4.61131819e-02, 5.60184307e-02,
          6.05574027e-02, 5.99132478e-02, 8.50355178e-02, 1.52248502e-01,
          1.38497442e-01, 1.25822529e-01, 1.27209261e-01, 8.75485986e-02,
          7.11239800e-02, 7.05864877e-02, 1.18590117e-01, 1.12758748e-01,
          1.30655229e-01, 6.53474629e-02, 3.74177992e-02, 2.53893659e-02,
          2.36347876e-02, 2.76965294e-02, 2.00423766e-02, 8.24559852e-03,
          9.57043469e-02, 6.99725598e-02, 7.55522102e-02, 9.30405334e-02,
          1.07610300e-01, 1.00043781e-01, 1.42033145e-01, 1.26987293e-01,
          1.15784079e-01, 1.02225237e-01, 5.26220649e-02, 9.46032405e-02,
          8.32645595e-02, 7.53192753e-02, 9.79105160e-02, 1.20230727e-01,
          1.03685282e-01, 5.86011969e-02, 6.36283308e-02, 7.22778514e-02,
          5.46787083e-02, 5.99677041e-02, 7.18626902e-02, 8.72765183e-02,
          9.91110206e-02, 9.78222638e-02, 6.78638667e-02, 9.44419950e-02,
          8.60692933e-02, 6.38091862e-02, 6.84209839e-02, 5.62065281e-02,
          1.73576534e-01, 1.87212676e-01, 1.01506449e-01, 7.82704502e-02,
          5.08173630e-02, 6.89122826e-02, 7.59263784e-02, 1.20466404e-01,
          1.09487772e-01, 5.03632315e-02, 2.57638060e-02, 2.69419756e-02,
          3.85031849e-02, 2.83947475e-02, 0., 3.47735621e-02,
          3.78539413e-02, 3.88532877e-02, 1.84377190e-02, 3.26305293e-02,
          3.26945372e-02, 4.18041572e-02, 5.77175319e-02, 1.23306841e-01,
          1.50593221e-01, 1.15840137e-01, 8.32828209e-02, 6.74365759e-02,
          8.72014388e-02, 1.04909815e-01, 1.11036979e-01, 7.85716251e-02 ]
      - [ 7.51030520e-02, 1.37156978e-01, 1.23935610e-01, 1.27994403e-01,
          9.52609181e-02, 8.51586163e-02, 9.47971717e-02, 1.10254541e-01,
          1.33514062e-01, 1.16603829e-01, 1.15840927e-01, 1.32672697e-01,
          9.23156738e-02, 7.08469078e-02, 6.09359257e-02, 4.98404689e-02,
          1.09741978e-01, 7.91777819e-02, 9.73437205e-02, 9.62717906e-02,
          1.25317976e-01, 1.26882389e-01, 1.35215178e-01, 1.20408759e-01,
          1.13320582e-01, 5.69802299e-02, 5.49608059e-02, 6.65447563e-02,
          4.77582626e-02, 5.83218485e-02, 5.59487380e-02, 5.57017028e-02,
          2.88351793e-02, 2.68100910e-02, 3.45553085e-02, 3.50125693e-02,
          2.10966952e-02, 6.05009682e-02, 7.82408789e-02, 1.01111695e-01,
          1.34573475e-01, 9.48301703e-02, 3.92137617e-02, 4.35115136e-02,
          4.17777002e-02, 4.18058708e-02, 9.08482447e-02, 9.75630656e-02,
          9.37828198e-02, 1.03891701e-01, 1.18565999e-01, 1.23712845e-01,
          7.35426918e-02, 7.99714029e-02, 1.00278199e-01, 1.40800223e-01,
          1.41235381e-01, 9.73725468e-02, 7.07769021e-02, 3.76375504e-02,
          2.83629391e-02, 2.67874245e-02, 1.60414893e-02, 1.27713075e-02,
          6.85194433e-02, 4.15227897e-02, 5.33129387e-02, 7.64938518e-02,
          8.42924416e-02, 1.05836943e-01, 1.36695445e-01, 1.12148181e-01,
          1.23044968e-01, 9.79523808e-02, 9.25163403e-02, 8.98317993e-02,
          7.76552111e-02, 9.23892483e-02, 8.44499096e-02, 9.10393447e-02,
          1.10704087e-01, 8.66115168e-02, 6.08378686e-02, 5.24331294e-02,
          4.25654948e-02, 7.13759661e-02, 7.97466859e-02, 1.33306682e-01,
          1.26147762e-01, 1.30481124e-01, 1.08552769e-01, 7.99625665e-02,
          6.94507062e-02, 6.21921085e-02, 6.18432835e-02, 4.47686538e-02,
          1.83969021e-01, 2.12744221e-01, 8.61461461e-02, 3.47654484e-02,
          6.21395074e-02, 5.38273007e-02, 4.90309633e-02, 9.97904837e-02,
          1.25700131e-01, 4.88680117e-02, 2.91170143e-02, 1.51284244e-02,
          2.10384429e-02, 9.19292681e-03, 2.35987566e-02, 1.30833089e-02,
          3.78793292e-02, 2.48249806e-02, 3.98675613e-02, 4.36246991e-02,
          3.19979563e-02, 4.57019843e-02, 6.88162148e-02, 7.99157247e-02,
          1.16261356e-01, 1.29125878e-01, 7.31109008e-02, 7.86617994e-02,
          1.02518722e-01, 9.77758616e-02, 8.60433057e-02, 8.45162272e-02 ]
      - [ 1.35371849e-01, 1.12292349e-01, 1.11804187e-01, 1.07002966e-01,
          8.36633891e-02, 5.91057502e-02, 9.93650779e-02, 9.16341916e-02,
          1.02878638e-01, 1.19240835e-01, 1.31909937e-01, 1.32837519e-01,
          6.92261308e-02, 6.57730550e-02, 6.41706139e-02, 6.20820411e-02,
          1.06219202e-01, 7.66445100e-02, 8.72597322e-02, 1.28474519e-01,
          1.18625402e-01, 1.24183178e-01, 1.17329001e-01, 9.93477330e-02,
          9.34618115e-02, 5.70014268e-02, 3.49991396e-02, 4.04936634e-02,
          7.13354126e-02, 6.77154958e-02, 4.44493555e-02, 9.29264501e-02,
          2.58999951e-02, 0., 3.04108560e-02, 2.56728772e-02,
          1.79543402e-02, 2.63988134e-02, 5.35497107e-02, 1.12679817e-01,
          1.13524728e-01, 7.59872273e-02, 6.19502701e-02, 4.90203537e-02,
          6.74476847e-02, 7.57410973e-02, 1.77872330e-01, 1.99405313e-01,
          1.29531041e-01, 8.04534629e-02, 8.36691558e-02, 8.31847787e-02,
          7.10693374e-02, 6.24760129e-02, 8.15126225e-02, 1.14843972e-01,
          1.06923193e-01, 9.57942829e-02, 5.58469482e-02, 4.79391702e-02,
          5.07648624e-02, 2.44737025e-02, 3.99963371e-02, 1.91968437e-02,
          1.04562774e-01, 6.67004362e-02, 9.75062996e-02, 9.49611664e-02,
          7.25433901e-02, 1.23921886e-01, 1.29432321e-01, 1.05062351e-01,
          1.35912746e-01, 7.94546232e-02, 8.41048881e-02, 8.91012624e-02,
          8.56888592e-02, 7.99423233e-02, 1.09594069e-01, 1.01934098e-01,
          1.15190163e-01, 5.13955392e-02, 8.15398470e-02, 3.27252559e-02,
          2.39905026e-02, 3.69628109e-02, 5.56086674e-02, 7.38212392e-02,
          1.07425384e-01, 8.32451209e-02, 1.13926657e-01, 7.29295015e-02,
          8.07503164e-02, 6.95449337e-02, 6.30559847e-02, 6.63824230e-02,
          1.65093079e-01, 1.74208269e-01, 1.11262798e-01, 9.00489911e-02,
          6.74753264e-02, 5.36933206e-02, 7.85027742e-02, 1.21815495e-01,
          1.06122613e-01, 7.03114942e-02, 2.30010636e-02, 2.22438984e-02,
          3.64986598e-03, 2.14422196e-02, 1.03665320e-02, 1.15418900e-02,
          3.13243046e-02, 5.74450940e-02, 4.24882881e-02, 5.65609150e-02,
          4.62866202e-02, 6.81063309e-02, 9.39311087e-02, 1.18785284e-01,
          1.42913520e-01, 1.10115796e-01, 8.57751518e-02, 5.68113886e-02,
          8.22841749e-02, 7.76854232e-02, 9.93418396e-02, 9.57149416e-02 ]
      - [ 5.41171841e-02, 6.27989992e-02, 1.13264389e-01, 1.44907415e-01,
          1.25554889e-01, 8.96044970e-02, 7.37688169e-02, 9.77213457e-02,
          1.12220787e-01, 1.02025017e-01, 1.04921140e-01, 9.51300412e-02,
          1.38830498e-01, 1.10377856e-01, 1.39045000e-01, 1.27393514e-01,
          1.41910315e-01, 1.08695760e-01, 1.40571803e-01, 1.30267650e-01,
          8.05027783e-02, 1.02647752e-01, 1.37890413e-01, 1.42324656e-01,
          1.32789373e-01, 1.14375830e-01, 8.65950808e-02, 6.57710359e-02,
          8.10986161e-02, 6.76805824e-02, 3.63727212e-02, 5.85059337e-02,
          4.28961366e-02, 4.20683473e-02, 3.66008021e-02, 5.65756448e-02,
          2.83446107e-02, 6.26086369e-02, 7.85796642e-02, 1.05324693e-01,
          1.55734479e-01, 1.42603830e-01, 9.81336534e-02, 8.60499069e-02,
          8.48762095e-02, 1.18879028e-01, 1.14825003e-01, 1.17050610e-01,
          1.27554014e-01, 1.12603553e-01, 1.08039252e-01, 1.07172146e-01,
          6.62943274e-02, 9.88602415e-02, 1.56952590e-01, 1.42703310e-01,
          1.22824073e-01, 1.12377562e-01, 5.92508465e-02, 1.11440411e-02,
          2.87852511e-02, 3.18655185e-02, 3.35605815e-02, 3.21785100e-02,
          4.83699143e-02, 3.58311310e-02, 4.44052778e-02, 5.01426533e-02,
          5.44417463e-02, 8.42649117e-02, 1.41712636e-01, 1.41969010e-01,
          1.47073641e-01, 8.77647623e-02, 4.82155941e-02, 2.57079024e-02,
          6.96911663e-02, 3.55655849e-02, 5.53924367e-02, 6.78918734e-02,
          7.21825436e-02, 6.03632592e-02, 4.67062593e-02, 6.49799183e-02,
          6.16152026e-02, 7.18806908e-02, 8.29569027e-02, 1.01777688e-01,
          1.66254401e-01, 1.11823447e-01, 1.10916823e-01, 8.36305767e-02,
          1.05015934e-01, 1.13457382e-01, 6.29117191e-02, 3.38998660e-02,
          8.77685472e-02, 5.99063151e-02, 5.18125892e-02, 6.53087571e-02,
          6.06570616e-02, 6.00342937e-02, 3.10500208e-02, 2.53523029e-02,
          5.41094877e-02, 3.69691737e-02, 4.42356355e-02, 2.56874207e-02,
          2.91906185e-02, 3.44975069e-02, 4.60475534e-02, 2.51542684e-02,
          3.09908539e-02, 1.26523878e-02, 0., 3.65201458e-02,
          2.31959503e-02, 7.93624520e-02, 1.00068301e-01, 8.12338740e-02,
          6.81464374e-02, 6.76350072e-02, 5.87797351e-02, 4.61826473e-02,
          7.92316869e-02, 6.63319826e-02, 1.02077678e-01, 7.29235038e-02 ]
      - [ 8.20944086e-02, 1.13895603e-01, 1.04789995e-01, 1.10900201e-01,
          1.03114024e-01, 1.15051508e-01, 8.50272477e-02, 7.90414959e-02,
          1.01895809e-01, 9.79640558e-02, 1.04383841e-01, 1.02916621e-01,
          1.12036683e-01, 9.36745554e-02, 9.08143893e-02, 7.21269175e-02,
          1.27293989e-01, 7.65244141e-02, 1.25811055e-01, 9.61511135e-02,
          7.89066479e-02, 1.09534495e-01, 1.32712543e-01, 1.35564461e-01,
          1.44595966e-01, 8.39291587e-02, 7.41476193e-02, 4.69443314e-02,
          4.83966954e-02, 4.46013100e-02, 5.53492159e-02, 6.27747029e-02,
          3.82076912e-02, 2.89383065e-02, 3.03084943e-02, 2.81533543e-02,
          2.62514427e-02, 2.53809020e-02, 7.29882866e-02, 9.39799845e-02,
          1.07497670e-01, 8.98506120e-02, 5.34360036e-02, 5.47379442e-02,
          5.79763800e-02, 6.86099008e-02, 1.01550639e-01, 1.42690614e-01,
          1.40590593e-01, 1.24469124e-01, 1.27723336e-01, 9.82335806e-02,
          5.20256571e-02, 4.94036525e-02, 7.40932524e-02, 1.10597447e-01,
          1.43960118e-01, 1.00869879e-01, 7.29039013e-02, 1.44102778e-02,
          2.38177851e-02, 2.41399780e-02, 0., 2.08040103e-02,
          1.03709221e-01, 8.08283538e-02, 9.06032324e-02, 9.04464647e-02,
          1.03083491e-01, 9.92198363e-02, 9.20798481e-02, 8.97964761e-02,
          1.27559036e-01, 9.15509388e-02, 7.23282099e-02, 8.05533752e-02,
          1.00252979e-01, 6.36665449e-02, 8.36834013e-02, 9.77133662e-02,
          9.67889875e-02, 5.61539121e-02, 8.20456892e-02, 4.93471324e-02,
          4.47062254e-02, 5.52945621e-02, 7.63308629e-02, 1.31975189e-01,
          1.41997129e-01, 1.24349870e-01, 1.09779008e-01, 9.45225358e-02,
          9.52067301e-02, 5.25788926e-02, 7.83159137e-02, 7.74372146e-02,
          1.92194924e-01, 1.83662280e-01, 1.68587759e-01, 8.78531262e-02,
          5.26676401e-02, 5.55963591e-02, 5.22870161e-02, 6.55078590e-02,
          9.19226930e-02, 5.74008636e-02, 3.63982767e-02, 4.17580828e-02,
          4.00020257e-02, 1.66741572e-02, 1.76436882e-02, 2.24387329e-02,
          2.69908477e-02, 2.74802707e-02, 2.05890313e-02, 2.78192870e-02,
          3.63419428e-02, 6.63166866e-02, 8.41564164e-02, 8.36102143e-02,
          9.50718820e-02, 7.20060244e-02, 8.40943232e-02, 6.60610944e-02,
          5.89187853e-02, 8.99010077e-02, 1.02087691e-01, 1.16913632e-01 ]
      - [ 7.33429715e-02, 9.60687697e-02, 1.37631983e-01, 8.49562734e-02,
          9.02125835e-02, 6.78947270e-02, 9.94105712e-02, 1.03150487e-01,
          1.31983891e-01, 1.25242680e-01, 1.08268388e-01, 1.15839265e-01,
          6.01307340e-02, 7.49107078e-02, 6.00969419e-02, 3.46712954e-02,
          7.63703585e-02, 6.34475648e-02, 9.88101736e-02, 1.13538213e-01,
          9.76540819e-02, 1.12271763e-01, 1.09108776e-01, 1.39288232e-01,
          1.43428683e-01, 1.08451195e-01, 5.57163954e-02, 2.81046201e-02,
          2.34362930e-02, 3.49941663e-02, 4.28553112e-02, 2.72816215e-02,
          4.36165035e-02, 3.87711264e-02, 2.96737291e-02, 3.31478380e-02,
          2.02086829e-02, 2.48867366e-02, 5.74749857e-02, 1.00438818e-01,
          1.04712576e-01, 7.66404271e-02, 5.48472293e-02, 3.53722088e-02,
          4.97614108e-02, 4.62276600e-02, 5.53064682e-02, 4.88406010e-02,
          6.91130981e-02, 9.08846483e-02, 1.16692372e-01, 9.52375606e-02,
          6.43904731e-02, 8.22725594e-02, 1.21030882e-01, 1.21433705e-01,
          1.18491158e-01, 8.02779272e-02, 5.75504936e-02, 3.71471792e-02,
          2.07648892e-02, 1.61330160e-02, 2.11053714e-02, 3.39147374e-02,
          1.24420367e-01, 1.18864790e-01, 1.15016192e-01, 1.33840472e-01,
          1.11931697e-01, 1.07578762e-01, 8.63780677e-02, 1.04463480e-01,
          1.37352780e-01, 9.95474532e-02, 7.05328733e-02, 3.03007737e-02,
          8.36889371e-02, 1.08255029e-01, 1.22018822e-01, 9.35007632e-02,
          6.47117347e-02, 5.99843524e-02, 4.66570631e-02, 5.34526631e-02,
          8.70732963e-02, 5.66872805e-02, 1.21430881e-01, 1.23660877e-01,
          1.57621756e-01, 1.16111875e-01, 1.13706179e-01, 7.98453242e-02,
          1.00987703e-01, 1.10700727e-01, 8.97482857e-02, 8.98988843e-02,
          1.58681557e-01, 2.28458077e-01, 1.38802186e-01, 1.09456077e-01,
          7.74132013e-02, 6.46333173e-02, 7.33836293e-02, 1.16778113e-01,
          9.64009166e-02, 4.63147722e-02, 5.33923320e-02, 4.03558761e-02,
          1.65532771e-02, 1.80658586e-02, 2.98291929e-02, 4.04837765e-02,
          5.09568453e-02, 6.01863340e-02, 5.03265969e-02, 3.25892866e-02,
          2.82123592e-02, 1.80742592e-02, 2.47620624e-02, 5.80268316e-02,
          1.16291955e-01, 9.48291868e-02, 1.21490128e-01, 6.17236458e-02,
          6.52847812e-02, 8.08764845e-02, 8.69686902e-02, 1.06415153e-01 ]
      - [ 1.25432566e-01, 1.20556660e-01, 1.29047856e-01, 9.86174792e-02,
          7.91635215e-02, 7.54594281e-02, 9.75505710e-02, 8.14234465e-02,
          1.38875246e-01, 1.07295461e-01, 1.29945219e-01, 1.26270473e-01,
          5.87031506e-02, 6.99077919e-02, 6.15153275e-02, 8.09044242e-02,
          1.13282956e-01, 6.24881014e-02, 7.04798922e-02, 1.20615661e-01,
          1.32487297e-01, 1.43178314e-01, 1.07534893e-01, 1.02117449e-01,
          8.53396207e-02, 5.86495586e-02, 5.24203964e-02, 4.75898571e-02,
          4.88842614e-02, 6.71083033e-02, 7.26979673e-02, 6.73621744e-02,
          2.64398716e-02, 2.22284719e-02, 2.23082062e-02, 2.11416204e-02,
          2.26776209e-02, 1.86985470e-02, 4.83900569e-02, 1.02946132e-01,
          1.26441881e-01, 7.01374114e-02, 5.23868203e-02, 3.81874517e-02,
          7.47436881e-02, 8.15489665e-02, 1.88034877e-01, 1.92489266e-01,
          1.32004559e-01, 8.62335861e-02, 7.37776831e-02, 9.25598741e-02,
          8.67163092e-02, 4.97718230e-02, 7.90224671e-02, 1.23469830e-01,
          1.03151053e-01, 8.35592002e-02, 6.73590973e-02, 4.41674963e-02,
          4.04346548e-02, 4.94310521e-02, 2.39295904e-02, 1.85617115e-02,
          6.40713945e-02, 6.19164258e-02, 9.48671773e-02, 9.71721560e-02,
          9.30366442e-02, 1.10764630e-01, 1.49300858e-01, 9.61678326e-02,
          1.35180727e-01, 1.01436362e-01, 6.01290613e-02, 1.04637370e-01,
          8.01680461e-02, 9.80881751e-02, 8.89137760e-02, 1.11970998e-01,
          1.05606608e-01, 6.66297898e-02, 7.23300874e-02, 4.51762229e-02,
          4.33583893e-02, 3.80370691e-02, 4.95032929e-02, 8.20664689e-02,
          1.15789987e-01, 1.00059867e-01, 1.10242121e-01, 8.48530680e-02,
          6.77865818e-02, 6.52665794e-02, 4.11097333e-02, 4.38167937e-02,
          1.44418389e-01, 1.49632052e-01, 1.18501775e-01, 8.49277824e-02,
          5.52079640e-02, 6.70895576e-02, 9.67097580e-02, 1.21894933e-01,
          1.04115285e-01, 6.71430603e-02, 2.65033729e-02, 1.98385175e-02,
          2.84182299e-02, 1.84446424e-02, 1.88490022e-02, 1.48492930e-02,
          3.01063079e-02, 4.62436825e-02, 5.31425364e-02, 4.69885245e-02,
          5.19396178e-02, 6.53351918e-02, 1.11446202e-01, 1.16027005e-01,
          1.34451136e-01, 1.17920175e-01, 8.91079158e-02, 6.86795637e-02,
          7.34156519e-02, 9.53706130e-02, 8.69785771e-02, 8.90049040e-02 ]
      - [ 9.19099450e-02, 9.76348147e-02, 1.24843776e-01, 9.92751271e-02,
          8.67767408e-02, 6.68837428e-02, 8.38543698e-02, 8.70884210e-02,
          9.87587050e-02, 8.85709077e-02, 9.68451947e-02, 9.29941386e-02,
          1.36103064e-01, 1.57681257e-01, 1.79871440e-01, 1.78273410e-01,
          1.39477253e-01, 1.09514005e-01, 1.15800478e-01, 8.56115818e-02,
          4.97277901e-02, 7.16778710e-02, 9.74535495e-02, 1.06796689e-01,
          1.16086796e-01, 7.87652880e-02, 6.89258203e-02, 6.21272326e-02,
          6.58553243e-02, 4.64951135e-02, 5.52418679e-02, 5.82546443e-02,
          7.31839538e-02, 2.28763577e-02, 1.35047017e-02, 4.22994867e-02,
          1.14190802e-02, 4.55063656e-02, 4.53078933e-02, 7.33035207e-02,
          1.35529667e-01, 9.65218097e-02, 7.16561303e-02, 4.02881652e-02,
          9.45686549e-02, 1.33464873e-01, 2.16025189e-01, 2.14496151e-01,
          1.66580260e-01, 1.24135189e-01, 7.63609111e-02, 5.95355406e-02,
          5.47690988e-02, 1.00994915e-01, 1.22599579e-01, 1.42138571e-01,
          1.27832368e-01, 7.72691667e-02, 5.54187149e-02, 4.00705896e-02,
          1.36819929e-02, 4.02240381e-02, 2.27198023e-02, 2.55876370e-02,
          9.63207707e-02, 7.10573569e-02, 7.38525763e-02, 9.94078964e-02,
          9.90640670e-02, 9.54823866e-02, 1.01267107e-01, 1.07760370e-01,
          1.11973934e-01, 9.70314667e-02, 6.36446401e-02, 8.55754092e-02,
          8.33985656e-02, 6.11938126e-02, 6.45698458e-02, 5.99685125e-02,
          9.84540954e-02, 8.06016326e-02, 3.94616872e-02, 4.18285765e-02,
          5.16365841e-02, 6.63224012e-02, 8.00171196e-02, 1.34588391e-01,
          1.13828108e-01, 7.46103302e-02, 8.00930187e-02, 8.10864419e-02,
          9.05346423e-02, 6.86461255e-02, 6.46369681e-02, 4.20867205e-02,
          8.47744867e-02, 8.24484602e-02, 1.01463981e-01, 4.90837768e-02,
          3.74390930e-02, 5.26435301e-02, 7.88116455e-02, 6.61460534e-02,
          9.12820548e-02, 4.75032926e-02, 2.52577271e-02, 2.22501345e-02,
          2.86764037e-02, 2.45307107e-02, 3.23346145e-02, 1.53732616e-02,
          2.88952924e-02, 1.98444799e-02, 1.02387434e-02, 1.93853118e-02,
          1.00906743e-02, 6.04657978e-02, 7.04446211e-02, 8.17640051e-02,
          1.23715535e-01, 1.07004784e-01, 8.40451792e-02, 7.01413155e-02,
          8.74654576e-02, 1.00251287e-01, 8.22437182e-02, 5.19049130e-02 ]
      - [ 1.49478883e-01, 1.09958746e-01, 1.21178530e-01, 1.15418330e-01,
          5.26435897e-02, 9.47996676e-02, 1.00082539e-01, 1.26375645e-01,
          1.33640781e-01, 1.16574831e-01, 1.01553947e-01, 1.06489703e-01,
          7.49160871e-02, 6.55843019e-02, 7.51906931e-02, 5.87513857e-02,
          1.11391805e-01, 7.08443597e-02, 6.82375133e-02, 1.51806980e-01,
          1.43610299e-01, 1.39530525e-01, 1.15285017e-01, 8.38936567e-02,
          8.15553218e-02, 4.48921621e-02, 3.72912139e-02, 4.50321138e-02,
          5.91516048e-02, 6.05004765e-02, 7.28748143e-02, 7.43786693e-02,
          2.59497818e-02, 1.39499344e-02, 1.40695944e-02, 1.91523582e-02,
          1.73684005e-02, 4.69759181e-02, 6.60002008e-02, 1.09737553e-01,
          1.13779873e-01, 5.82840033e-02, 7.99226239e-02, 5.37645146e-02,
          9.02891681e-02, 1.37313187e-01, 2.28340074e-01, 1.30563989e-01,
          1.12231813e-01, 6.97477758e-02, 8.48726407e-02, 9.94681269e-02,
          4.92350608e-02, 4.84544300e-02, 1.00411378e-01, 9.54190493e-02,
          9.24584791e-02, 8.07574913e-02, 3.68147157e-02, 2.91072894e-02,
          4.92830165e-02, 3.04987337e-02, 3.96921784e-02, 2.93957777e-02,
          7.05171153e-02, 5.83917908e-02, 7.87930861e-02, 1.04434453e-01,
          9.98688936e-02, 1.18007511e-01, 8.36804882e-02, 8.40291306e-02,
          1.42831907e-01, 1.07095979e-01, 1.11628033e-01, 8.18329826e-02,
          7.93889761e-02, 9.50724408e-02, 1.11303419e-01, 1.02145083e-01,
          9.54092890e-02, 5.54286353e-02, 3.13207321e-02, 5.04839569e-02,
          4.29593027e-02, 5.72268963e-02, 6.38689697e-02, 1.17458314e-01,
          1.27636120e-01, 1.33931190e-01, 1.27267510e-01, 1.15706101e-01,
          5.74459583e-02, 5.38716763e-02, 4.91082817e-02, 5.25809340e-02,
          8.29927921e-02, 6.11894503e-02, 8.91821533e-02, 6.28891662e-02,
          7.06484467e-02, 9.46544409e-02, 1.23989172e-01, 1.32315800e-01,
          1.13184214e-01, 7.49463886e-02, 4.21891958e-02, 2.49222368e-02,
          2.76882742e-02, 2.79132444e-02, 3.02054342e-02, 2.56130733e-02,
          3.92799936e-02, 3.56415585e-02, 2.63240654e-02, 5.61631136e-02,
          5.96955642e-02, 6.18090145e-02, 1.32307529e-01, 1.49678975e-01,
          1.51514143e-01, 1.00449294e-01, 5.74539751e-02, 6.01408221e-02,
          6.23065345e-02, 5.98271675e-02, 5.46876863e-02, 6.38939366e-02 ]
      - [ 1.06363162e-01, 1.68075651e-01, 1.24432996e-01, 1.01821840e-01,
          8.73407125e-02, 8.07193369e-02, 9.45833251e-02, 1.02715544e-01,
          1.25085607e-01, 1.15687877e-01, 1.07014351e-01, 1.07561782e-01,
          1.14483885e-01, 9.59083959e-02, 5.82240820e-02, 9.48284939e-02,
          1.35192141e-01, 1.41396254e-01, 1.25331864e-01, 8.57471377e-02,
          9.65386778e-02, 8.58934298e-02, 1.25503466e-01, 1.36724219e-01,
          1.20419830e-01, 8.15905333e-02, 4.19295095e-02, 3.32566015e-02,
          3.54666114e-02, 5.18010706e-02, 5.01168929e-02, 3.31378542e-02,
          4.35549766e-02, 4.16486338e-02, 2.61882227e-02, 2.80575510e-02,
          0., 4.02522609e-02, 7.40912482e-02, 1.13250852e-01,
          1.31826594e-01, 6.60191178e-02, 3.48865464e-02, 4.09697369e-02,
          2.59184316e-02, 5.24772964e-02, 1.42929971e-01, 1.81849793e-01,
          1.77201539e-01, 1.35905743e-01, 1.11742087e-01, 8.96952674e-02,
          6.24335594e-02, 9.71729457e-02, 1.11657672e-01, 1.19607106e-01,
          1.11589760e-01, 7.78808296e-02, 4.29319441e-02, 3.33198532e-02,
          2.33837496e-02, 2.63691563e-02, 1.39316758e-02, 2.63866950e-02,
          8.40671808e-02, 7.89631680e-02, 6.40847608e-02, 9.64604914e-02,
          8.76434222e-02, 1.34937450e-01, 1.24890536e-01, 1.09426394e-01,
          1.29548758e-01, 1.06321439e-01, 8.14968720e-02, 8.52547362e-02,
          7.75154307e-02, 9.13910493e-02, 1.14857979e-01, 1.07034147e-01,
          9.64334905e-02, 2.21151616e-02, 4.69229706e-02, 4.98002917e-02,
          4.87103499e-02, 4.35651056e-02, 9.76740047e-02, 9.91362259e-02,
          8.41505006e-02, 8.16264600e-02, 6.33611530e-02, 7.72976801e-02,
          9.49187800e-02, 1.07866585e-01, 8.18522274e-02, 4.48968932e-02,
          1.08889446e-01, 9.34009552e-02, 6.56589642e-02, 5.77753559e-02,
          5.36254048e-02, 4.57095318e-02, 7.00055212e-02, 1.06461167e-01,
          9.97980908e-02, 3.98045331e-02, 3.07738706e-02, 2.54053324e-02,
          2.11878661e-02, 3.12695689e-02, 1.73290037e-02, 1.04459142e-02,
          2.86444463e-02, 0., 2.11619865e-02, 3.94510925e-02,
          2.01846454e-02, 5.26418239e-02, 7.72964954e-02, 1.08898014e-01,
          1.50825992e-01, 9.41445157e-02, 1.00245103e-01, 6.69295192e-02,
          1.16091758e-01, 1.05958454e-01, 1.08540773e-01, 7.87041783e-02 ]
      - [ 5.33648245e-02, 4.15660180e-02, 4.71786112e-02, 7.38742203e-02,
          5.86244985e-02, 9.65026170e-02, 8.51019174e-02, 1.10823378e-01,
          1.26316264e-01, 1.52287796e-01, 1.33563012e-01, 9.67956260e-02,
          5.55524081e-02, 4.34940085e-02, 4.44940552e-02, 4.12562340e-02,
          7.29437396e-02, 4.45026085e-02, 9.31321606e-02, 9.86729190e-02,
          9.19782519e-02, 1.38839468e-01, 1.23665705e-01, 1.23329140e-01,
          1.23197429e-01, 8.40596110e-02, 1.27911996e-02, 2.85333265e-02,
          4.45298888e-02, 2.73578819e-02, 3.75796705e-02, 3.37457657e-02,
          3.30076106e-02, 2.12285090e-02, 1.93150584e-02, 2.49596722e-02,
          2.31011808e-02, 2.98727173e-02, 4.54158708e-02, 1.00689784e-01,
          9.40852836e-02, 7.77155310e-02, 5.18942103e-02, 4.30219620e-02,
          5.25553711e-02, 4.07746360e-02, 5.03729917e-02, 3.24958153e-02,
          4.87338454e-02, 5.38644120e-02, 1.05519474e-01, 1.21072680e-01,
          7.12668821e-02, 7.34213814e-02, 9.23905969e-02, 1.26063630e-01,
          1.41225785e-01, 1.15792304e-01, 3.98279577e-02, 2.80365013e-02,
          2.85776444e-02, 1.74370501e-02, 1.79914832e-02, 1.74602289e-02,
          1.67283282e-01, 1.66540697e-01, 1.52681351e-01, 1.24301963e-01,
          1.03898786e-01, 1.11409195e-01, 9.48632509e-02, 9.36207548e-02,
          1.22923844e-01, 9.18851644e-02, 5.48553467e-02, 6.75150678e-02,
          4.98900861e-02, 1.13591611e-01, 1.30930856e-01, 6.14966154e-02,
          5.62332794e-02, 4.68698516e-02, 4.24352549e-02, 6.29069880e-02,
          5.48624471e-02, 6.22506589e-02, 9.06208903e-02, 1.13291569e-01,
          2.04146236e-01, 1.57693624e-01, 8.80405754e-02, 8.86787325e-02,
          8.14449191e-02, 5.39020337e-02, 6.95573241e-02, 7.12135583e-02,
          1.58805981e-01, 2.06589431e-01, 1.69647470e-01, 1.12102121e-01,
          9.85706970e-02, 6.54917136e-02, 7.01383725e-02, 1.40374586e-01,
          1.50645688e-01, 7.29345679e-02, 5.63069321e-02, 3.80970389e-02,
          3.78949530e-02, 2.63575334e-02, 1.36486078e-02, 4.04687896e-02,
          3.90152894e-02, 3.91352437e-02, 3.29050049e-02, 4.33589481e-02,
          1.76380575e-02, 2.11063009e-02, 5.52361980e-02, 7.05677494e-02,
          1.58900589e-01, 1.17449708e-01, 1.04502559e-01, 7.86366016e-02,
          5.49323298e-02, 6.06672950e-02, 7.38345459e-02, 9.91248786e-02 ]
      - [ 9.42035839e-02, 7.01068863e-02, 7.77813122e-02, 1.08988561e-01,
          7.94269517e-02, 6.51650503e-02, 8.66042227e-02, 1.10905975e-01,
          1.84753373e-01, 1.56149521e-01, 1.04471430e-01, 8.72070342e-02,
          4.94994856e-02, 5.40483817e-02, 2.91534010e-02, 5.00041172e-02,
          1.02342792e-01, 7.58777335e-02, 1.15297683e-01, 1.00619167e-01,
          1.08906515e-01, 1.33083194e-01, 1.46621376e-01, 6.96139634e-02,
          7.88385272e-02, 6.26388490e-02, 2.36351825e-02, 4.42004874e-02,
          3.66920456e-02, 5.24696298e-02, 4.75753248e-02, 5.13834506e-02,
          3.93139124e-02, 2.95495875e-02, 2.24864166e-02, 2.46118046e-02,
          2.43969373e-02, 3.62042338e-02, 7.68593550e-02, 9.63112786e-02,
          8.84160697e-02, 2.94916127e-02, 4.41129841e-02, 2.01129094e-02,
          4.69138622e-02, 5.93075342e-02, 3.65352593e-02, 4.37167995e-02,
          6.90698996e-02, 5.65909557e-02, 7.97525719e-02, 1.23720154e-01,
          8.76499340e-02, 1.03242777e-01, 1.48479566e-01, 1.24332413e-01,
          1.06413886e-01, 6.70446754e-02, 5.35214581e-02, 3.30244154e-02,
          3.89088206e-02, 2.73625348e-02, 2.37588026e-02, 2.13257466e-02,
          1.31922185e-01, 1.30445316e-01, 1.07907273e-01, 9.72561240e-02,
          1.17084168e-01, 1.20417073e-01, 1.22964732e-01, 1.08840294e-01,
          1.39676437e-01, 9.23554376e-02, 7.13096410e-02, 7.63662010e-02,
          8.52931738e-02, 9.42491218e-02, 1.49732053e-01, 7.63392374e-02,
          8.67767259e-02, 5.96780889e-02, 4.87997755e-02, 6.30013645e-02,
          5.02297767e-02, 6.47576526e-02, 9.04759169e-02, 1.47973076e-01,
          1.35551497e-01, 1.32898882e-01, 1.01715744e-01, 8.63092616e-02,
          8.38178322e-02, 8.15827027e-02, 5.52521385e-02, 4.69426364e-02,
          1.27857506e-01, 1.46322623e-01, 1.33202106e-01, 9.02367011e-02,
          3.08742113e-02, 3.93683091e-02, 9.46180671e-02, 1.62040293e-01,
          1.12135984e-01, 8.90836045e-02, 5.50913028e-02, 4.40778807e-02,
          3.08018047e-02, 0., 2.37372648e-02, 6.60719275e-02,
          7.26359412e-02, 7.24562183e-02, 4.73175161e-02, 6.06884509e-02,
          5.51314838e-02, 5.10782301e-02, 5.28541207e-02, 9.87438112e-02,
          1.69615328e-01, 1.11194551e-01, 1.23955324e-01, 7.99152851e-02,
          8.87738764e-02, 8.99822637e-02, 8.70568752e-02, 1.04465708e-01 ]
      - [ 4.78149019e-02, 3.29891294e-02, 3.74677964e-02, 6.14643581e-02,
          5.43777570e-02, 8.67105424e-02, 5.98141290e-02, 1.23989463e-01,
          1.12820767e-01, 1.26118302e-01, 1.38923481e-01, 9.33751464e-02,
          6.04352541e-02, 5.90115748e-02, 3.59682292e-02, 3.35662477e-02,
          6.41492382e-02, 5.52327745e-02, 7.92865455e-02, 8.52486640e-02,
          9.32799056e-02, 1.15240753e-01, 1.31458193e-01, 1.29273325e-01,
          1.30845815e-01, 8.06305110e-02, 4.33756784e-02, 2.54966766e-02,
          3.16871926e-02, 3.03471889e-02, 1.86020155e-02, 2.64709797e-02,
          3.11179850e-02, 8.32478330e-03, 2.18418837e-02, 3.21676768e-02,
          1.80007610e-02, 2.38259118e-02, 5.21544777e-02, 8.91745687e-02,
          9.53068435e-02, 7.57277608e-02, 5.84130734e-02, 3.15757357e-02,
          3.54985707e-02, 4.15090024e-02, 4.36692685e-02, 3.13310474e-02,
          5.49136959e-02, 5.90550043e-02, 8.06984603e-02, 9.92451161e-02,
          9.57873985e-02, 6.86831921e-02, 8.64392892e-02, 1.22194037e-01,
          1.25140682e-01, 1.20078430e-01, 5.36932796e-02, 3.20887566e-02,
          2.36584954e-02, 1.35796666e-02, 2.53618695e-02, 0.,
          1.96063101e-01, 1.63161218e-01, 1.72539711e-01, 1.57119870e-01,
          1.14569061e-01, 1.40282393e-01, 8.86457115e-02, 7.43849799e-02,
          1.36960432e-01, 7.33957365e-02, 7.11908489e-02, 1.61637366e-02,
          6.08190671e-02, 8.52032155e-02, 1.42489731e-01, 8.08570012e-02,
          6.20110519e-02, 5.26687130e-02, 4.16521877e-02, 1.72609277e-02,
          5.63903861e-02, 6.57147318e-02, 5.74309602e-02, 1.08276136e-01,
          1.93636283e-01, 1.50843486e-01, 1.39209002e-01, 1.11650571e-01,
          7.76993558e-02, 1.07079647e-01, 1.05879195e-01, 1.76198244e-01,
          1.67854145e-01, 2.03182012e-01, 1.39147401e-01, 1.22416042e-01,
          1.11038774e-01, 4.95284945e-02, 5.96976914e-02, 1.08239099e-01,
          1.55988425e-01, 7.99589530e-02, 4.99125049e-02, 3.05595901e-02,
          3.10486015e-02, 1.99628845e-02, 2.75963824e-02, 8.71570036e-03,
          4.97969016e-02, 3.41104679e-02, 1.60979517e-02, 2.46075541e-02,
          1.79570653e-02, 4.56090085e-02, 4.72316369e-02, 6.53128698e-02,
          1.03781231e-01, 1.21038139e-01, 7.45913908e-02, 9.67788696e-02,
          6.29837513e-02, 5.46318293e-02, 4.66530398e-02, 8.43639076e-02 ]
      - [ 8.33685473e-02, 8.30351859e-02, 1.35056481e-01, 1.18035883e-01,
          1.00944661e-01, 1.19701914e-01, 7.53312334e-02, 7.19069391e-02,
          1.03963703e-01, 1.34711772e-01, 8.90239626e-02, 1.18374221e-01,
          1.11351050e-01, 7.92767778e-02, 5.44860736e-02, 5.79207577e-02,
          1.08303033e-01, 8.59051645e-02, 9.13847834e-02, 1.32339254e-01,
          1.15257666e-01, 9.35008824e-02, 1.12133138e-01, 1.37900084e-01,
          1.46313906e-01, 8.77213404e-02, 6.51739240e-02, 6.04267195e-02,
          3.97685170e-02, 5.11757880e-02, 2.69819163e-02, 5.26500382e-02,
          2.56768093e-02, 3.06640342e-02, 2.63350755e-02, 2.99615767e-02,
          4.08002883e-02, 4.96851988e-02, 4.08743508e-02, 9.33084935e-02,
          1.36786371e-01, 1.18093424e-01, 5.90030067e-02, 5.04817627e-02,
          6.26769289e-02, 5.98308481e-02, 4.42614332e-02, 5.03382012e-02,
          8.30691159e-02, 1.07658133e-01, 1.28294677e-01, 9.43279564e-02,
          8.13813284e-02, 7.52424002e-02, 7.54052699e-02, 1.39155760e-01,
          1.41884789e-01, 8.47618133e-02, 7.19521940e-02, 4.99709062e-02,
          4.92703356e-02, 4.27366644e-02, 2.14932393e-02, 1.62514541e-02,
          1.02613904e-01, 9.56656262e-02, 8.28799680e-02, 7.66474456e-02,
          7.47050866e-02, 1.15698770e-01, 1.16455801e-01, 1.00152686e-01,
          1.32754385e-01, 8.84786099e-02, 3.34333554e-02, 6.66615963e-02,
          6.55147284e-02, 8.80666301e-02, 8.41465965e-02, 9.81772691e-02,
          1.05636679e-01, 7.16791600e-02, 5.09518720e-02, 5.05796522e-02,
          5.19691035e-02, 5.71599007e-02, 6.07524104e-02, 1.07597411e-01,
          1.64599150e-01, 1.26650751e-01, 8.98449570e-02, 9.26389545e-02,
          9.50992554e-02, 8.78318474e-02, 3.54159512e-02, 6.48122430e-02,
          1.54950559e-01, 2.27562383e-01, 1.46201566e-01, 7.35888332e-02,
          4.44432050e-02, 2.87398733e-02, 5.46756163e-02, 5.31939752e-02,
          8.91468301e-02, 5.34397364e-02, 4.22868840e-02, 3.51882838e-02,
          3.50508615e-02, 4.77832519e-02, 1.94405355e-02, 4.83199582e-02,
          6.34485260e-02, 1.26072049e-01, 1.33467719e-01, 9.38861221e-02,
          7.27525949e-02, 5.85779436e-02, 4.49290536e-02, 5.34488894e-02,
          1.02364622e-01, 7.95687288e-02, 8.11443552e-02, 6.13706298e-02,
          7.15710074e-02, 1.02665037e-01, 9.00352001e-02, 8.99570882e-02 ]
      - [ 4.84017320e-02, 3.64527032e-02, 4.47849557e-02, 6.72287568e-02,
          7.10980371e-02, 8.58960152e-02, 7.89522231e-02, 1.03975393e-01,
          1.04318313e-01, 1.28637716e-01, 1.28643885e-01, 7.36711174e-02,
          6.32718429e-02, 4.55825515e-02, 4.22811620e-02, 1.99950151e-02,
          7.32198507e-02, 4.40565161e-02, 7.19633475e-02, 9.42641273e-02,
          8.90207440e-02, 1.19087473e-01, 1.11452885e-01, 1.13119490e-01,
          1.26393065e-01, 8.71831775e-02, 3.35956700e-02, 1.84975397e-02,
          2.57172771e-02, 3.52529697e-02, 2.35563572e-02, 3.03182881e-02,
          3.34494635e-02, 2.41337344e-02, 2.08325516e-02, 1.82172079e-02,
          8.19163583e-03, 1.71584189e-02, 4.41336855e-02, 8.23174417e-02,
          1.08493380e-01, 6.06510080e-02, 7.50754848e-02, 3.09503507e-02,
          3.67547683e-02, 2.82241162e-02, 3.40288058e-02, 3.85702737e-02,
          4.72722016e-02, 5.60460463e-02, 8.01254287e-02, 9.50776935e-02,
          9.24606174e-02, 7.61971548e-02, 8.27272013e-02, 1.25837311e-01,
          1.21707924e-01, 1.11034773e-01, 5.27487248e-02, 3.28885801e-02,
          1.97181143e-02, 1.12151746e-02, 1.43997259e-02, 2.11695582e-02,
          1.88057303e-01, 1.40226170e-01, 1.93075210e-01, 1.52434871e-01,
          1.27720565e-01, 1.19141951e-01, 9.00756493e-02, 7.21796602e-02,
          1.46641836e-01, 8.29671249e-02, 6.04710914e-02, 6.65723085e-02,
          6.17369674e-02, 8.62643942e-02, 1.36544123e-01, 8.23940188e-02,
          8.26868862e-02, 1.47410408e-02, 4.66624349e-02, 5.19706160e-02,
          3.49843092e-02, 6.79171383e-02, 6.38097525e-02, 7.92989433e-02,
          1.96587801e-01, 1.66418180e-01, 1.25953212e-01, 9.63611156e-02,
          1.07609101e-01, 7.09894523e-02, 9.58688334e-02, 1.57669112e-01,
          1.55524209e-01, 1.85150400e-01, 1.40154794e-01, 1.42192155e-01,
          8.39366242e-02, 6.71326444e-02, 5.51241711e-02, 1.10680588e-01,
          1.19186006e-01, 6.62507191e-02, 4.27899808e-02, 3.41766551e-02,
          4.88013662e-02, 5.64848334e-02, 4.46407199e-02, 1.59484580e-01,
          1.18350945e-01, 4.49957550e-02, 4.14543115e-02, 5.95811643e-02,
          2.93644983e-02, 5.61627708e-02, 6.68855160e-02, 8.70262980e-02,
          1.26982629e-01, 9.98762846e-02, 8.41295570e-02, 8.94238427e-02,
          8.66203159e-02, 3.79893668e-02, 6.49521723e-02, 5.29594123e-02 ]
      - [ 1.17668241e-01, 1.39409021e-01, 1.14792027e-01, 1.06064297e-01,
          7.12550655e-02, 9.42904055e-02, 7.14266077e-02, 1.06859170e-01,
          1.20448031e-01, 1.01887733e-01, 1.20162256e-01, 1.22808665e-01,
          7.73183554e-02, 8.10621902e-02, 8.12076181e-02, 6.88498393e-02,
          1.23322472e-01, 6.66061044e-02, 1.25071317e-01, 1.04175977e-01,
          8.70508999e-02, 1.29818246e-01, 1.14468463e-01, 1.19198591e-01,
          9.27767381e-02, 2.78374404e-02, 5.48579842e-02, 5.50759360e-02,
          5.67252524e-02, 6.04725964e-02, 6.69992715e-02, 8.64592940e-02,
          2.92406492e-02, 3.28871831e-02, 2.78040692e-02, 2.34243814e-02,
          2.31994260e-02, 4.72438708e-02, 7.97768906e-02, 1.11127622e-01,
          1.19473927e-01, 6.97358698e-02, 5.08413315e-02, 3.20975445e-02,
          7.37239197e-02, 7.30806291e-02, 1.42969117e-01, 1.88947394e-01,
          1.43821046e-01, 1.15687840e-01, 1.09118558e-01, 9.38779861e-02,
          5.14980108e-02, 6.12948053e-02, 1.14474475e-01, 1.06614225e-01,
          1.06780447e-01, 7.58851171e-02, 4.60303873e-02, 3.56063582e-02,
          3.09379697e-02, 2.14839336e-02, 1.26224579e-02, 2.02347115e-02,
          7.07179010e-02, 6.44057617e-02, 8.69683772e-02, 8.27916786e-02,
          9.66583490e-02, 1.19107239e-01, 1.34724140e-01, 1.14418030e-01,
          1.28446519e-01, 9.49868113e-02, 7.73791969e-02, 8.45246688e-02,
          9.08898190e-02, 8.67632329e-02, 1.02925621e-01, 1.07757799e-01,
          1.12471908e-01, 8.14028680e-02, 5.80290630e-02, 7.08965734e-02,
          4.63327393e-02, 1.98407825e-02, 5.69937862e-02, 8.03624764e-02,
          9.57327113e-02, 9.25632492e-02, 9.58468989e-02, 8.35809410e-02,
          8.24787095e-02, 7.27632046e-02, 7.67868683e-02, 5.97943179e-02,
          1.76155925e-01, 1.54211983e-01, 1.05559029e-01, 8.03330466e-02,
          5.88349290e-02, 7.13360533e-02, 8.87561142e-02, 1.05415881e-01,
          1.15769334e-01, 3.96261066e-02, 4.33745719e-02, 1.52391866e-02,
          1.69650335e-02, 3.00084483e-02, 2.46267859e-02, 1.97032224e-02,
          2.91496441e-02, 1.56340748e-02, 2.33419947e-02, 4.90955263e-02,
          4.65434305e-02, 3.76488380e-02, 7.37117082e-02, 1.19126059e-01,
          1.64126873e-01, 1.08389720e-01, 5.19425347e-02, 6.94966540e-02,
          7.69644901e-02, 8.34451616e-02, 1.11858502e-01, 1.01409122e-01 ]
      - [ 6.24309406e-02, 1.45448819e-01, 1.30215824e-01, 1.18882805e-01,
          8.72996226e-02, 7.08435848e-02, 9.48657319e-02, 8.53885114e-02,
          1.11814186e-01, 1.17657959e-01, 1.34364739e-01, 1.12864241e-01,
          9.62274000e-02, 7.59510845e-02, 8.50529075e-02, 6.12774752e-02,
          1.15641527e-01, 1.04824856e-01, 1.19468264e-01, 1.29980713e-01,
          8.65314230e-02, 1.26939490e-01, 1.40804082e-01, 1.51622400e-01,
          9.55476463e-02, 8.57167095e-02, 6.63878247e-02, 5.35497665e-02,
          5.90632893e-02, 3.18235829e-02, 6.46285936e-02, 5.65943085e-02,
          3.05780228e-02, 8.71854741e-03, 2.09058300e-02, 5.00253551e-02,
          3.41557674e-02, 4.80858721e-02, 6.65623248e-02, 1.08734660e-01,
          1.23308375e-01, 1.10473596e-01, 6.57443628e-02, 5.08151837e-02,
          5.44220507e-02, 4.85851355e-02, 1.26180440e-01, 1.64029300e-01,
          1.75894931e-01, 1.20794907e-01, 1.01482242e-01, 9.42550898e-02,
          6.02887645e-02, 5.03949374e-02, 1.24470696e-01, 1.17509618e-01,
          1.00455329e-01, 8.28533694e-02, 6.69966340e-02, 5.09199835e-02,
          2.65320800e-02, 3.32179144e-02, 3.27764675e-02, 1.29206805e-02,
          6.33450449e-02, 5.40944189e-02, 3.95662487e-02, 9.24398601e-02,
          8.04571807e-02, 1.27313867e-01, 1.48112714e-01, 1.31125808e-01,
          1.10621020e-01, 6.57850802e-02, 7.00121894e-02, 6.06159419e-02,
          9.80682075e-02, 9.17587131e-02, 9.19175819e-02, 1.11585766e-01,
          8.43138546e-02, 5.06964922e-02, 6.04571588e-02, 4.27446514e-02,
          6.36241883e-02, 5.42321056e-02, 6.87697679e-02, 1.26610413e-01,
          1.36905804e-01, 9.74645764e-02, 9.38576907e-02, 1.03146374e-01,
          9.91671160e-02, 7.63058290e-02, 5.89651093e-02, 5.96578009e-02,
          1.26489073e-01, 1.25356749e-01, 8.45676064e-02, 6.62435442e-02,
          8.29318985e-02, 5.80211580e-02, 7.57100731e-02, 6.61613494e-02,
          1.15133770e-01, 5.08783050e-02, 4.20738943e-02, 0.,
          2.77796108e-02, 2.55590081e-02, 2.87972745e-02, 2.15113815e-02,
          4.02078032e-02, 3.95860523e-02, 3.48382667e-02, 4.50247787e-02,
          2.80448347e-02, 3.86500619e-02, 9.92109254e-02, 1.08441606e-01,
          1.23689197e-01, 1.11044958e-01, 7.90695623e-02, 7.96394944e-02,
          8.13973546e-02, 8.41330364e-02, 1.05718203e-01, 7.20211640e-02 ]
      - [ 7.39837512e-02, 6.54508695e-02, 7.87570775e-02, 8.52961615e-02,
          8.54263231e-02, 9.32328328e-02, 9.43961814e-02, 8.61199051e-02,
          1.17495462e-01, 1.23263307e-01, 1.41772315e-01, 1.05146676e-01,
          7.05487281e-02, 5.45966737e-02, 4.83265482e-02, 4.00302149e-02,
          7.06567317e-02, 7.47245252e-02, 7.47042745e-02, 1.20340087e-01,
          1.06618375e-01, 9.45293009e-02, 1.15727387e-01, 1.08213231e-01,
          1.20751880e-01, 8.11917782e-02, 6.68568537e-02, 3.58543172e-02,
          3.95691544e-02, 2.22412366e-02, 5.14582768e-02, 3.25137116e-02,
          4.16716486e-02, 2.59241294e-02, 1.19881993e-02, 3.55692692e-02,
          0., 2.66423635e-02, 3.55083533e-02, 1.03266284e-01,
          1.11583821e-01, 6.71629384e-02, 6.55899346e-02, 4.89867590e-02,
          5.03483899e-02, 5.17566614e-02, 3.49065550e-02, 4.20713462e-02,
          5.98044358e-02, 7.05917627e-02, 1.05550833e-01, 1.20553367e-01,
          7.90081099e-02, 6.08714372e-02, 9.90354493e-02, 1.23181045e-01,
          1.42543092e-01, 9.72041786e-02, 3.33533064e-02, 2.17177980e-02,
          2.38301549e-02, 1.77358072e-02, 6.73501845e-03, 0.,
          1.62256449e-01, 1.74799204e-01, 1.37250215e-01, 1.23996712e-01,
          1.05218410e-01, 1.08096302e-01, 9.95446220e-02, 7.28096887e-02,
          1.28888160e-01, 9.19731930e-02, 5.71471415e-02, 8.40575621e-02,
          6.14464357e-02, 9.50039327e-02, 1.07479528e-01, 1.05445877e-01,
          5.85353598e-02, 5.60798049e-02, 5.98898679e-02, 3.67932916e-02,
          6.64724484e-02, 5.52137643e-02, 7.90935829e-02, 1.16924606e-01,
          1.99870899e-01, 1.22440338e-01, 1.20373890e-01, 8.03816542e-02,
          7.25243911e-02, 6.05045408e-02, 8.04750547e-02, 9.06110555e-02,
          1.84183240e-01, 1.91337869e-01, 1.87457621e-01, 8.97118524e-02,
          7.10338727e-02, 5.00150099e-02, 4.70092408e-02, 1.09995373e-01,
          1.16136558e-01, 5.37960492e-02, 3.61146107e-02, 3.14638391e-02,
          2.48766318e-02, 8.00933223e-03, 1.00808339e-02, 1.49665764e-02,
          7.95961991e-02, 7.71520957e-02, 8.47393125e-02, 1.44440606e-01,
          3.54058407e-02, 7.44748935e-02, 4.58345823e-02, 6.74531907e-02,
          1.47682771e-01, 9.97783467e-02, 9.69475806e-02, 6.11369833e-02,
          5.27256802e-02, 5.37626371e-02, 8.09005424e-02, 9.69264507e-02 ]
      - [ 1.45066708e-01, 1.28148824e-01, 9.34124142e-02, 1.04094237e-01,
          8.16998780e-02, 7.29693174e-02, 8.28077123e-02, 9.60383862e-02,
          1.27971098e-01, 1.26826257e-01, 1.10395387e-01, 9.53180194e-02,
          8.89580771e-02, 8.79817158e-02, 7.55349621e-02, 7.99387693e-02,
          1.24287210e-01, 6.75658360e-02, 8.30570981e-02, 1.61149457e-01,
          1.26409292e-01, 1.29006177e-01, 1.02410629e-01, 9.33345631e-02,
          7.66984299e-02, 5.63495234e-02, 2.18411461e-02, 5.86552657e-02,
          5.73586337e-02, 6.00888506e-02, 8.32310840e-02, 6.90483823e-02,
          2.35314593e-02, 2.50087809e-02, 1.45848980e-02, 2.40603425e-02,
          3.33807357e-02, 1.36485435e-02, 7.02960566e-02, 1.14500359e-01,
          1.07186317e-01, 8.05532187e-02, 5.98194562e-02, 7.16915503e-02,
          8.13125148e-02, 1.56310380e-01, 2.21908078e-01, 1.55166283e-01,
          1.23364970e-01, 8.17839429e-02, 7.14308247e-02, 7.31445402e-02,
          6.18319251e-02, 4.35033478e-02, 1.04860283e-01, 8.99201930e-02,
          9.00278687e-02, 7.31546730e-02, 3.86881419e-02, 3.37933451e-02,
          3.22836787e-02, 1.72029249e-02, 4.82817553e-02, 2.82125529e-02,
          9.36060250e-02, 4.26661968e-02, 6.90887421e-02, 8.89781415e-02,
          8.87845531e-02, 1.35039970e-01, 1.23103388e-01, 1.10922553e-01,
          1.23621568e-01, 8.45554993e-02, 9.73982513e-02, 9.18021053e-02,
          8.03124830e-02, 8.47259387e-02, 1.19795933e-01, 8.81592557e-02,
          9.56579000e-02, 6.39512986e-02, 5.01605533e-02, 4.85969968e-02,
          2.23048888e-02, 4.70632762e-02, 7.59452432e-02, 1.16479613e-01,
          1.03864551e-01, 1.01633124e-01, 1.46929681e-01, 1.17115766e-01,
          8.69830996e-02, 5.65381274e-02, 5.32732457e-02, 7.17949942e-02,
          8.73815417e-02, 7.98002109e-02, 1.12011485e-01, 7.41962045e-02,
          5.67975491e-02, 9.16924998e-02, 1.16617419e-01, 1.31677523e-01,
          1.14797696e-01, 5.69491945e-02, 3.15204598e-02, 2.59509068e-02,
          1.53188882e-02, 2.64165439e-02, 3.21171135e-02, 1.08509101e-02,
          3.96904461e-02, 3.70727666e-02, 3.83502916e-02, 6.71566054e-02,
          5.32328375e-02, 7.76069015e-02, 1.16195090e-01, 1.34819508e-01,
          1.52110294e-01, 9.81126204e-02, 5.26947565e-02, 5.73570319e-02,
          6.26313239e-02, 5.15780337e-02, 6.34803623e-02, 7.09873512e-02 ]
      - [ 7.49022588e-02, 1.17293671e-01, 1.55572355e-01, 1.12499095e-01,
          9.30158943e-02, 9.49837640e-02, 9.08349976e-02, 9.16809514e-02,
          1.28012627e-01, 1.15850776e-01, 1.09984405e-01, 1.09871529e-01,
          1.25077397e-01, 6.65131658e-02, 5.57539053e-02, 7.53198192e-02,
          1.01193078e-01, 9.30086896e-02, 1.37404665e-01, 1.24204606e-01,
          1.06423296e-01, 8.48821998e-02, 1.07835606e-01, 1.18433729e-01,
          1.37474269e-01, 8.14502165e-02, 5.80723509e-02, 1.91652980e-02,
          4.56101075e-02, 2.55768504e-02, 4.54007983e-02, 5.73775545e-02,
          5.10930680e-02, 1.76574867e-02, 2.72418316e-02, 4.24814112e-02,
          1.71549395e-02, 5.14951497e-02, 4.62933630e-02, 1.04754828e-01,
          1.13975942e-01, 9.01396945e-02, 6.97191656e-02, 3.62050124e-02,
          5.42095974e-02, 8.86920691e-02, 9.80946422e-02, 6.75132573e-02,
          1.28317639e-01, 1.22126549e-01, 9.57666934e-02, 7.85135105e-02,
          6.12877011e-02, 7.88685679e-02, 1.40949413e-01, 1.13171883e-01,
          1.26683637e-01, 8.22342560e-02, 6.61901236e-02, 3.17511745e-02,
          3.35788280e-02, 2.87482496e-02, 3.37281078e-02, 4.48864177e-02,
          9.60652381e-02, 8.81446823e-02, 7.19746277e-02, 9.73604470e-02,
          1.01727396e-01, 1.22557446e-01, 1.34319156e-01, 1.04667395e-01,
          1.15496315e-01, 1.06008515e-01, 7.82809928e-02, 7.79830441e-02,
          6.16534427e-02, 9.22373608e-02, 1.29061222e-01, 1.08434461e-01,
          8.51049498e-02, 3.92431431e-02, 5.05124666e-02, 6.53118491e-02,
          3.27751786e-02, 3.77338976e-02, 7.10197017e-02, 1.36366859e-01,
          1.32327825e-01, 9.81379375e-02, 9.86900255e-02, 8.08731765e-02,
          9.67391506e-02, 8.58218521e-02, 9.51776952e-02, 5.57047948e-02,
          1.58863485e-01, 1.82304472e-01, 1.08172335e-01, 8.84607136e-02,
          8.29371065e-02, 5.45182489e-02, 6.59381822e-02, 8.45507309e-02,
          9.87069905e-02, 4.55080718e-02, 3.98238711e-02, 1.34492572e-02,
          2.39119399e-02, 2.99497675e-02, 3.86115052e-02, 2.64296997e-02,
          5.12349792e-02, 2.17646398e-02, 1.86347943e-02, 1.90180279e-02,
          1.53704146e-02, 2.76304055e-02, 6.56717420e-02, 9.00141150e-02,
          1.00604922e-01, 1.26029730e-01, 1.07874364e-01, 6.87356368e-02,
          7.41771534e-02, 7.34465867e-02, 1.29689932e-01, 1.17998190e-01 ]
      - [ 8.54928344e-02, 1.19992986e-01, 1.50695577e-01, 1.29383519e-01,
          9.85756963e-02, 9.45256352e-02, 9.08869505e-02, 9.70989317e-02,
          1.39934957e-01, 1.37468934e-01, 9.70033556e-02, 1.09316677e-01,
          8.00477415e-02, 7.79135078e-02, 1.07298873e-01, 1.04101457e-01,
          1.29128009e-01, 9.50537249e-02, 1.15137950e-01, 1.35311723e-01,
          8.74426514e-02, 1.06966965e-01, 1.38106361e-01, 1.92978218e-01,
          1.15472227e-01, 7.73383901e-02, 6.95042461e-02, 6.53904006e-02,
          4.03710157e-02, 4.57474291e-02, 4.68569286e-02, 4.03676145e-02,
          1.88099872e-02, 3.44587900e-02, 3.41250598e-02, 5.95926456e-02,
          5.61850853e-02, 6.45391345e-02, 5.29205352e-02, 1.42753541e-01,
          1.56534642e-01, 9.51755643e-02, 6.27860054e-02, 4.42070551e-02,
          5.20279482e-02, 6.16621040e-02, 1.09194264e-01, 1.57935098e-01,
          1.32003501e-01, 1.18893363e-01, 1.22097462e-01, 8.46921355e-02,
          7.67348632e-02, 1.24711536e-01, 1.31695107e-01, 1.26474872e-01,
          1.47396043e-01, 8.57776776e-02, 4.92631011e-02, 3.60887758e-02,
          3.49136330e-02, 4.73563485e-02, 2.54936665e-02, 1.42852534e-02,
          7.76052102e-02, 5.73444217e-02, 5.53052500e-02, 6.85413256e-02,
          9.37730148e-02, 1.08119033e-01, 1.58558816e-01, 1.10833786e-01,
          1.36101916e-01, 9.81673226e-02, 8.65661204e-02, 8.31554085e-02,
          8.98689926e-02, 4.35717925e-02, 6.75723180e-02, 6.84083551e-02,
          8.48054662e-02, 5.84366098e-02, 4.93744537e-02, 4.14898209e-02,
          5.63984029e-02, 2.86559165e-02, 8.43787938e-02, 1.17387600e-01,
          1.10752180e-01, 1.01850420e-01, 9.33319852e-02, 1.13272719e-01,
          9.91695970e-02, 8.75412375e-02, 5.70292249e-02, 4.76197749e-02,
          7.99270794e-02, 5.20249233e-02, 2.23991442e-02, 4.10253182e-02,
          4.07889336e-02, 5.02121188e-02, 6.02129400e-02, 8.35584030e-02,
          6.97550029e-02, 3.21363360e-02, 3.40182073e-02, 3.48045044e-02,
          3.82940248e-02, 3.44591998e-02, 2.55941991e-02, 1.01012001e-02,
          3.15107070e-02, 1.91947632e-02, 1.42445434e-02, 2.58559827e-02,
          3.46849822e-02, 5.42778075e-02, 8.12745839e-02, 1.13340586e-01,
          1.22263439e-01, 1.03909239e-01, 1.01629898e-01, 8.75923336e-02,
          8.04493651e-02, 8.45247582e-02, 8.35485384e-02, 4.98603508e-02 ]
      - [ 7.77652413e-02, 8.22372362e-02, 1.36709407e-01, 9.92423296e-02,
          7.26097226e-02, 7.51549527e-02, 6.29499480e-02, 6.49723932e-02,
          1.09724998e-01, 9.16804820e-02, 9.83927846e-02, 7.87074193e-02,
          1.36147797e-01, 1.60302043e-01, 1.65172786e-01, 2.20518515e-01,
          1.45451948e-01, 1.04245737e-01, 1.13885425e-01, 9.63814333e-02,
          7.42028803e-02, 7.93085918e-02, 8.45103860e-02, 1.17334470e-01,
          1.28735408e-01, 7.28644356e-02, 7.19369799e-02, 4.69791628e-02,
          6.66724369e-02, 5.05587608e-02, 5.03408611e-02, 7.04491436e-02,
          7.25521669e-02, 4.30347808e-02, 3.58530208e-02, 4.09783386e-02,
          4.49781008e-02, 3.15498635e-02, 3.58750001e-02, 5.65889664e-02,
          1.23273969e-01, 1.00416854e-01, 7.17345774e-02, 5.46686165e-02,
          7.20881522e-02, 1.38681248e-01, 2.03135699e-01, 2.33063176e-01,
          1.63796991e-01, 1.23408951e-01, 6.61951154e-02, 6.30093813e-02,
          4.16165404e-02, 1.18796013e-01, 1.48980379e-01, 1.13274857e-01,
          1.25057653e-01, 9.05478001e-02, 4.55023125e-02, 4.47721630e-02,
          1.98703539e-02, 3.20955887e-02, 3.21139358e-02, 1.94080584e-02,
          9.70672369e-02, 6.44632578e-02, 5.85178249e-02, 1.00850202e-01,
          9.11737531e-02, 8.66566449e-02, 1.12858713e-01, 1.10634945e-01,
          9.35935006e-02, 1.06237866e-01, 6.32055029e-02, 7.19149336e-02,
          8.33669379e-02, 4.53703366e-02, 5.12004234e-02, 5.56521416e-02,
          7.32384622e-02, 6.44753724e-02, 5.29782549e-02, 4.77347374e-02,
          3.59305143e-02, 7.85443336e-02, 7.25232810e-02, 1.20797448e-01,
          1.19228110e-01, 8.52458328e-02, 9.63475704e-02, 8.72841552e-02,
          9.00428593e-02, 7.40978196e-02, 5.85252419e-02, 5.13557047e-02,
          9.11947191e-02, 1.04632199e-01, 6.07413612e-02, 5.42290695e-02,
          3.47357765e-02, 4.98091616e-02, 7.29670674e-02, 7.32368156e-02,
          8.44511986e-02, 2.11251378e-02, 3.42458747e-02, 3.35728340e-02,
          4.19679470e-02, 2.62868386e-02, 1.76350214e-02, 1.39108989e-02,
          3.38771641e-02, 1.44174984e-02, 2.06663571e-02, 3.46439146e-02,
          3.03270109e-02, 4.71726991e-02, 7.60879666e-02, 8.49818140e-02,
          1.13886967e-01, 9.84893069e-02, 7.96881244e-02, 7.78135508e-02,
          7.61742219e-02, 9.45283026e-02, 9.17866975e-02, 8.32561180e-02 ]
      - [ 9.08752903e-02, 1.05737209e-01, 1.30804956e-01, 1.15909144e-01,
          6.88249767e-02, 7.50075653e-02, 9.03344750e-02, 6.56929314e-02,
          1.16887413e-01, 9.28641260e-02, 9.68747735e-02, 1.01985589e-01,
          1.39903367e-01, 1.30341828e-01, 1.30804017e-01, 1.53077841e-01,
          1.09070361e-01, 8.14584494e-02, 1.11053139e-01, 1.02673031e-01,
          6.54587597e-02, 6.02779128e-02, 1.03042506e-01, 1.32345438e-01,
          9.73308161e-02, 9.23830941e-02, 7.83403963e-02, 5.51094376e-02,
          4.36897986e-02, 6.17291667e-02, 6.39059618e-02, 6.65736124e-02,
          2.69311760e-02, 1.68429036e-02, 2.29101833e-02, 1.25865117e-02,
          4.06709202e-02, 3.84838022e-02, 4.84634861e-02, 5.80129661e-02,
          1.29861638e-01, 1.13117635e-01, 6.70992509e-02, 5.19986488e-02,
          7.49322772e-02, 9.80608240e-02, 1.87842593e-01, 2.39667609e-01,
          1.65417477e-01, 1.19780742e-01, 9.23671499e-02, 5.01675494e-02,
          5.37363850e-02, 6.74838275e-02, 1.03977099e-01, 1.25704855e-01,
          1.01725809e-01, 6.63115308e-02, 4.64836173e-02, 1.57675091e-02,
          3.88391614e-02, 2.95070615e-02, 0., 2.23625358e-02,
          1.09432943e-01, 8.44712928e-02, 8.20464939e-02, 1.03707448e-01,
          8.58761966e-02, 9.58466753e-02, 8.88569430e-02, 1.20526694e-01,
          1.13668665e-01, 8.99932981e-02, 7.82822520e-02, 7.48300105e-02,
          9.44514200e-02, 7.87094235e-02, 7.42665306e-02, 9.45264548e-02,
          8.92418101e-02, 7.24643320e-02, 7.22039118e-02, 3.45861167e-02,
          4.67601344e-02, 8.25586021e-02, 1.21580824e-01, 9.71166193e-02,
          9.89460275e-02, 6.14520013e-02, 8.47789198e-02, 7.33286962e-02,
          1.02720529e-01, 6.72419071e-02, 6.09984286e-02, 7.45102018e-02,
          1.48469165e-01, 1.64320767e-01, 9.98101681e-02, 7.41242915e-02,
          4.49046642e-02, 4.53337468e-02, 6.89399540e-02, 7.19768927e-02,
          1.05262741e-01, 5.89222722e-02, 3.39927524e-02, 1.37636987e-02,
          3.04641146e-02, 2.24019103e-02, 2.39476059e-02, 1.39959371e-02,
          2.81837545e-02, 1.79545041e-02, 8.80660582e-03, 1.70278791e-02,
          1.57011338e-02, 5.57145625e-02, 6.52776584e-02, 1.17325388e-01,
          1.25863492e-01, 9.55560654e-02, 7.54429549e-02, 5.91807067e-02,
          1.04166798e-01, 9.47297513e-02, 8.42816755e-02, 7.17198476e-02 ]
      - [ 1.04420446e-01, 1.26708403e-01, 8.32744315e-02, 1.09781846e-01,
          9.36798528e-02, 1.09969378e-01, 7.34212622e-02, 8.25418532e-02,
          1.50699496e-01, 9.77838188e-02, 1.04960129e-01, 1.13769881e-01,
          1.16049200e-01, 9.64883119e-02, 9.73466560e-02, 1.20781898e-01,
          1.10628128e-01, 1.26503900e-01, 7.83190504e-02, 9.36732739e-02,
          1.17029078e-01, 1.31043151e-01, 1.34117588e-01, 5.60778491e-02,
          9.79640931e-02, 4.26296182e-02, 5.81413358e-02, 3.81090082e-02,
          5.13884835e-02, 7.64822662e-02, 7.28428587e-02, 7.97523633e-02,
          2.90987436e-02, 2.85428744e-02, 2.82515325e-02, 1.94805991e-02,
          2.02913750e-02, 3.19918841e-02, 5.75399026e-02, 6.86026886e-02,
          1.24721289e-01, 5.47209606e-02, 6.56633452e-02, 4.80082594e-02,
          8.64582807e-02, 2.01241359e-01, 2.14004904e-01, 1.69581398e-01,
          1.43835440e-01, 1.27605110e-01, 6.97964504e-02, 5.67120612e-02,
          6.33695349e-02, 9.71466154e-02, 1.01376355e-01, 9.52184796e-02,
          8.83205906e-02, 4.30539399e-02, 4.99292761e-02, 1.43476371e-02,
          1.66302845e-02, 1.83527544e-02, 8.06826912e-03, 1.57442652e-02,
          8.78341272e-02, 7.34952241e-02, 8.99496749e-02, 9.51609910e-02,
          1.18793778e-01, 1.07076928e-01, 1.16654187e-01, 1.02402821e-01,
          1.41362220e-01, 9.98150483e-02, 8.75985026e-02, 1.14208192e-01,
          9.11565796e-02, 1.14777319e-01, 1.02202706e-01, 8.45979303e-02,
          8.38780925e-02, 3.67345549e-02, 3.39871719e-02, 4.13622782e-02,
          4.04220037e-02, 4.66854982e-02, 4.30480316e-02, 5.48752174e-02,
          1.07731916e-01, 1.09818183e-01, 9.26075280e-02, 8.03545415e-02,
          8.46456885e-02, 5.81675880e-02, 7.37140030e-02, 8.32577199e-02,
          8.25423151e-02, 4.38810922e-02, 4.28756885e-02, 5.86891547e-02,
          3.27362567e-02, 6.09438084e-02, 1.06991597e-01, 1.16245128e-01,
          7.59791657e-02, 4.73787896e-02, 2.67619919e-02, 2.86971312e-02,
          2.39743460e-02, 1.23276273e-02, 2.10558940e-02, 1.47763956e-02,
          3.63204293e-02, 8.06826912e-03, 8.85365065e-03, 3.90289128e-02,
          4.15165685e-02, 7.16634616e-02, 1.32234633e-01, 1.25035882e-01,
          1.52520418e-01, 1.30520031e-01, 9.44774598e-02, 8.80211890e-02,
          1.00901939e-01, 1.00615293e-01, 7.77728856e-02, 5.47816753e-02 ]
      - [ 6.44086003e-02, 9.53274891e-02, 1.47637203e-01, 1.22981958e-01,
          8.49609375e-02, 1.01306424e-01, 8.99933428e-02, 9.57681760e-02,
          1.25031024e-01, 1.11883841e-01, 9.35910419e-02, 1.07898384e-01,
          1.06120214e-01, 8.76038820e-02, 5.58671132e-02, 6.80578724e-02,
          1.08845800e-01, 9.78691056e-02, 1.15689121e-01, 1.32075340e-01,
          7.62204006e-02, 9.38650891e-02, 1.31297946e-01, 1.60588965e-01,
          1.51344299e-01, 8.88967067e-02, 6.75166547e-02, 5.70667908e-02,
          5.18670715e-02, 3.74391526e-02, 5.76889180e-02, 2.71521602e-02,
          2.99423542e-02, 1.53991757e-02, 3.14006060e-02, 4.22879197e-02,
          3.46949659e-02, 6.17374741e-02, 4.80607450e-02, 8.57846290e-02,
          1.81434512e-01, 1.07149549e-01, 9.30896178e-02, 5.35420328e-02,
          5.33291139e-02, 4.52796519e-02, 8.33437070e-02, 8.71211439e-02,
          1.09073803e-01, 1.04957864e-01, 1.12729877e-01, 1.10916458e-01,
          8.79751518e-02, 9.28313136e-02, 1.23337649e-01, 1.28382534e-01,
          1.50082216e-01, 8.72666240e-02, 7.83882439e-02, 4.19253930e-02,
          3.09006143e-02, 2.97764000e-02, 3.46903130e-02, 2.27482989e-02,
          8.55044499e-02, 5.73045909e-02, 5.36385737e-02, 6.97118714e-02,
          1.02266498e-01, 1.24778025e-01, 9.47135538e-02, 1.08843423e-01,
          1.36449218e-01, 9.37161446e-02, 2.74859555e-02, 5.97482920e-02,
          8.40968713e-02, 8.33804011e-02, 6.82106093e-02, 1.00884356e-01,
          9.10220370e-02, 4.77176607e-02, 4.80660796e-02, 3.86898816e-02,
          6.31708652e-02, 5.92955425e-02, 6.11223578e-02, 1.58189133e-01,
          1.44893274e-01, 1.14518628e-01, 1.04174361e-01, 9.47027206e-02,
          9.47069749e-02, 8.18155184e-02, 6.64686337e-02, 4.30814736e-02,
          1.38083905e-01, 1.86104357e-01, 1.18889928e-01, 6.79149255e-02,
          6.40789866e-02, 6.99963272e-02, 4.39263135e-02, 6.86248913e-02,
          8.05227458e-02, 4.10848446e-02, 4.52440344e-02, 2.82436796e-02,
          3.05281673e-02, 2.13836692e-02, 1.87021587e-02, 2.09096130e-02,
          5.51767647e-02, 1.00434594e-01, 5.73084056e-02, 3.79329398e-02,
          3.42563652e-02, 6.07509278e-02, 8.67808834e-02, 6.99145198e-02,
          9.75283757e-02, 8.79592374e-02, 1.04830414e-01, 7.48151019e-02,
          9.85810161e-02, 8.78900290e-02, 9.50116664e-02, 5.14077917e-02 ]
      - [ 7.78611004e-02, 1.78200528e-01, 1.16839401e-01, 6.61934242e-02,
          8.73244852e-02, 7.03908801e-02, 9.68040898e-02, 1.01676941e-01,
          1.29141659e-01, 1.18541561e-01, 1.07653908e-01, 1.01671971e-01,
          8.77122506e-02, 6.84223101e-02, 7.82439411e-02, 9.99653712e-02,
          1.40800446e-01, 1.21545099e-01, 9.79709998e-02, 1.04538187e-01,
          9.63195562e-02, 9.40386057e-02, 1.28866151e-01, 1.31985456e-01,
          1.34243757e-01, 7.83230290e-02, 4.68912758e-02, 2.92823352e-02,
          5.13341390e-02, 2.44585183e-02, 4.16928753e-02, 6.67691827e-02,
          4.11683805e-02, 1.79188754e-02, 1.50764305e-02, 2.73278337e-02,
          2.23609824e-02, 2.26639938e-02, 7.07888901e-02, 6.90969080e-02,
          1.21699415e-01, 8.09478387e-02, 7.85666332e-02, 5.87851815e-02,
          6.83978200e-02, 6.05331101e-02, 1.78547651e-01, 1.88557625e-01,
          1.46065190e-01, 1.24598950e-01, 8.67468566e-02, 9.16405395e-02,
          6.41081184e-02, 6.06211126e-02, 8.79888013e-02, 1.12699479e-01,
          1.17963657e-01, 6.85964450e-02, 4.04862240e-02, 4.18248139e-02,
          2.31679529e-02, 3.33355926e-02, 3.87052484e-02, 1.62118524e-02,
          7.91584924e-02, 7.50313699e-02, 8.17779005e-02, 8.20286125e-02,
          9.90279466e-02, 1.42164201e-01, 1.28809214e-01, 1.08740963e-01,
          1.49381012e-01, 7.89408386e-02, 5.19401059e-02, 7.59439841e-02,
          1.09600380e-01, 1.01600692e-01, 1.06201679e-01, 9.21656191e-02,
          9.04802531e-02, 2.03245487e-02, 5.36830425e-02, 6.83820248e-02,
          4.30822372e-02, 6.17903359e-02, 1.10082053e-01, 9.98552889e-02,
          9.94046330e-02, 6.66605309e-02, 7.92235062e-02, 8.99548531e-02,
          1.10731974e-01, 8.66144821e-02, 6.53913543e-02, 6.69510141e-02,
          1.19974360e-01, 1.18791491e-01, 7.26833791e-02, 9.05840024e-02,
          5.02870679e-02, 9.42464098e-02, 1.06943473e-01, 9.83448178e-02,
          7.68155009e-02, 3.46748941e-02, 2.91416738e-02, 2.55405530e-02,
          1.65872499e-02, 1.79493073e-02, 1.87542904e-02, 1.36043895e-02,
          3.64281274e-02, 5.54628158e-03, 2.26864181e-02, 5.28231077e-02,
          4.31536846e-02, 6.18066899e-02, 1.05700225e-01, 1.34034380e-01,
          1.36483520e-01, 1.03142448e-01, 7.64484406e-02, 5.89614585e-02,
          8.15555602e-02, 9.87728685e-02, 8.79362598e-02, 9.66927633e-02 ]
      - [ 1.01935521e-01, 1.36587530e-01, 1.22731246e-01, 1.20773554e-01,
          8.71570930e-02, 6.48951232e-02, 1.01360716e-01, 1.08589157e-01,
          1.08463034e-01, 1.25319228e-01, 1.17728934e-01, 1.04884811e-01,
          1.09318636e-01, 4.47927453e-02, 5.78653738e-02, 7.43809715e-02,
          9.06352028e-02, 8.05748329e-02, 1.23682722e-01, 1.18805677e-01,
          8.17505494e-02, 1.26230791e-01, 1.37466744e-01, 1.26571313e-01,
          1.17109708e-01, 6.60217628e-02, 6.72794133e-02, 4.42118421e-02,
          4.47874926e-02, 5.35340831e-02, 5.91178387e-02, 5.21453135e-02,
          4.03760895e-02, 1.93737466e-02, 1.36392871e-02, 9.83119011e-03,
          0., 3.05067059e-02, 6.33323640e-02, 9.02602598e-02,
          1.12887837e-01, 8.17751065e-02, 5.52766435e-02, 5.99492863e-02,
          4.60515693e-02, 5.96651919e-02, 8.67504179e-02, 1.22497812e-01,
          1.27484813e-01, 1.10160403e-01, 1.03435367e-01, 9.93049890e-02,
          6.14928789e-02, 8.78124833e-02, 1.14884250e-01, 1.13077633e-01,
          9.98976827e-02, 7.02646971e-02, 5.72474115e-02, 2.78089717e-02,
          2.59926226e-02, 2.97834687e-02, 2.64057834e-02, 2.81226765e-02,
          9.95260403e-02, 7.16883540e-02, 1.01783067e-01, 8.00598487e-02,
          1.28309608e-01, 1.07904695e-01, 1.05393574e-01, 1.21029414e-01,
          1.16196781e-01, 1.06876411e-01, 8.34773630e-02, 8.24339390e-02,
          1.01983532e-01, 9.16301012e-02, 1.02154449e-01, 1.01164378e-01,
          9.80239362e-02, 5.26181385e-02, 7.59500563e-02, 3.64939831e-02,
          5.03613800e-02, 6.20122328e-02, 7.19000921e-02, 1.33890778e-01,
          1.15276329e-01, 8.60597044e-02, 9.55169797e-02, 7.90735260e-02,
          1.15472339e-01, 7.79396817e-02, 5.06681241e-02, 7.46461377e-02,
          1.91552043e-01, 1.62709922e-01, 1.28770024e-01, 7.67042637e-02,
          7.70363957e-02, 6.75459951e-02, 7.08559006e-02, 1.10779598e-01,
          1.10925354e-01, 4.95468229e-02, 3.88305336e-02, 1.33498330e-02,
          2.09729206e-02, 1.31490268e-02, 1.83774307e-02, 3.16604935e-02,
          3.94811966e-02, 2.22940389e-02, 7.50716263e-03, 4.10855301e-02,
          3.68608199e-02, 2.17389707e-02, 4.94969636e-02, 1.03952982e-01,
          1.35213479e-01, 1.22422822e-01, 1.08525999e-01, 9.14464742e-02,
          8.32789168e-02, 6.93107471e-02, 1.04922384e-01, 1.16547078e-01 ]
      - [ 1.03995055e-01, 7.76487142e-02, 1.20276436e-01, 1.40254840e-01,
          8.55045766e-02, 1.03675596e-01, 9.50087681e-02, 7.43738934e-02,
          1.06527135e-01, 9.98253375e-02, 1.07442446e-01, 9.82285067e-02,
          1.09654941e-01, 1.02790982e-01, 1.09080620e-01, 1.05163231e-01,
          1.24373786e-01, 8.66581574e-02, 1.13425814e-01, 9.51377228e-02,
          5.68667240e-02, 1.57408804e-01, 1.43708020e-01, 1.11322589e-01,
          1.22258559e-01, 5.47349937e-02, 6.81874752e-02, 5.36381863e-02,
          7.33152926e-02, 5.93611039e-02, 6.95685446e-02, 6.25245124e-02,
          5.04630059e-02, 1.74001344e-02, 3.23594883e-02, 4.10691760e-02,
          0., 2.88594887e-02, 5.58076054e-02, 9.94960815e-02,
          1.19949289e-01, 9.29865986e-02, 5.53706884e-02, 5.19033894e-02,
          6.41285256e-02, 1.31680891e-01, 2.19960630e-01, 1.73803329e-01,
          1.65482149e-01, 1.16175719e-01, 8.29195827e-02, 5.70352450e-02,
          4.81011607e-02, 9.82794985e-02, 1.17825039e-01, 1.09178230e-01,
          1.09249569e-01, 6.06570095e-02, 3.88171934e-02, 1.87753551e-02,
          2.99460497e-02, 2.03583948e-02, 1.78828984e-02, 2.20483206e-02,
          1.07335396e-01, 1.00171231e-01, 1.04968891e-01, 9.73396078e-02,
          8.85514915e-02, 1.22685380e-01, 9.19622108e-02, 9.08749327e-02,
          1.35255888e-01, 1.35456219e-01, 7.94384629e-02, 1.16865255e-01,
          9.46853086e-02, 8.90074819e-02, 1.07934341e-01, 8.33786502e-02,
          9.80377570e-02, 6.57002404e-02, 4.85435575e-02, 7.13812634e-02,
          7.17470050e-02, 3.47796306e-02, 5.12655675e-02, 3.93594988e-02,
          9.90014672e-02, 9.38749984e-02, 6.05678558e-02, 9.08985138e-02,
          1.06642932e-01, 7.62149990e-02, 7.79139623e-02, 7.42706731e-02,
          8.04598555e-02, 6.21648580e-02, 7.35162795e-02, 4.96285558e-02,
          3.47034335e-02, 5.78878820e-02, 7.86584690e-02, 7.82536790e-02,
          7.46860281e-02, 4.43156399e-02, 4.02945206e-02, 2.91774478e-02,
          3.11883725e-02, 2.75472160e-02, 3.08016352e-02, 1.51514579e-02,
          3.19556147e-02, 1.94098894e-02, 1.99615192e-02, 3.61681245e-02,
          3.40043604e-02, 5.51423207e-02, 8.19469094e-02, 1.25420719e-01,
          1.25148788e-01, 1.37222365e-01, 8.28199908e-02, 5.91554493e-02,
          1.03458948e-01, 1.06184714e-01, 9.25289467e-02, 6.71779439e-02 ]
      - [ 8.11232179e-02, 7.49651790e-02, 1.38183579e-01, 1.16324395e-01,
          1.15496047e-01, 8.57652798e-02, 8.69189948e-02, 8.16405043e-02,
          1.25382915e-01, 1.25120535e-01, 1.12839326e-01, 1.05201140e-01,
          1.14418790e-01, 7.77851418e-02, 6.07770160e-02, 6.77727088e-02,
          9.38137397e-02, 1.07706621e-01, 1.01459570e-01, 1.03724115e-01,
          1.28027171e-01, 1.01700589e-01, 1.05769575e-01, 1.66676030e-01,
          1.49121135e-01, 7.35830143e-02, 6.82185218e-02, 6.68466464e-02,
          4.52593565e-02, 4.16620858e-02, 6.59279078e-02, 4.63272817e-02,
          3.79488096e-02, 2.17263289e-02, 2.64105890e-02, 3.89740430e-02,
          4.73746620e-02, 3.66553590e-02, 5.89609370e-02, 9.97871310e-02,
          1.40393317e-01, 1.12334564e-01, 7.22079277e-02, 4.09463197e-02,
          3.29208821e-02, 7.25954473e-02, 7.40900636e-02, 6.06271252e-02,
          1.00609444e-01, 1.24520034e-01, 1.02921270e-01, 1.08290166e-01,
          5.34955896e-02, 8.22677165e-02, 9.59720910e-02, 1.52734444e-01,
          1.17142655e-01, 9.35889333e-02, 6.43939078e-02, 4.44429591e-02,
          4.85731922e-02, 2.91606989e-02, 2.30543241e-02, 1.60405226e-02,
          7.45489001e-02, 6.48947656e-02, 5.62094375e-02, 6.56737611e-02,
          6.90443069e-02, 9.79082808e-02, 1.24900930e-01, 1.27949297e-01,
          1.23985454e-01, 8.17213878e-02, 6.09986261e-02, 6.17219284e-02,
          8.08327198e-02, 8.05449188e-02, 7.40687251e-02, 8.07223395e-02,
          9.93621126e-02, 8.51738453e-02, 4.59490120e-02, 4.53935303e-02,
          4.59600687e-02, 7.03095719e-02, 7.69615248e-02, 1.13718197e-01,
          1.53726235e-01, 1.31425425e-01, 1.17816672e-01, 6.79555908e-02,
          1.03058279e-01, 7.96004310e-02, 5.38809747e-02, 6.38657287e-02,
          1.47981837e-01, 2.08627507e-01, 1.14059664e-01, 7.27116391e-02,
          4.29617204e-02, 4.06297594e-02, 3.91635709e-02, 4.81209643e-02,
          9.64119658e-02, 5.98896965e-02, 2.06479598e-02, 2.52039731e-02,
          2.61086896e-02, 3.62782441e-02, 2.82566156e-02, 7.52300471e-02,
          1.31168395e-01, 1.18946008e-01, 7.71981478e-02, 9.65689793e-02,
          3.78085859e-02, 8.83620009e-02, 3.88535336e-02, 4.62513380e-02,
          1.01483852e-01, 9.78698134e-02, 8.54514763e-02, 6.22004494e-02,
          7.16049746e-02, 9.73395705e-02, 1.02662854e-01, 8.32805708e-02 ]
      - [ 8.36435407e-02, 1.25875324e-01, 1.23965032e-01, 1.07803039e-01,
          1.05146699e-01, 7.00505823e-02, 9.87464562e-02, 8.71357918e-02,
          1.26050830e-01, 9.60819274e-02, 1.09549046e-01, 1.13820463e-01,
          1.17479295e-01, 7.51494393e-02, 6.91001713e-02, 4.65704016e-02,
          9.40809846e-02, 9.09686685e-02, 1.02227360e-01, 1.04536071e-01,
          8.10476765e-02, 1.10983469e-01, 1.41068280e-01, 1.42646655e-01,
