%YAML:1.0
---
opencv_ml_svm:
   format: 3
   svmType: C_SVC
   kernel:
      type: RBF
      gamma: 5.3830000000000000e+00
   C: 2.6699999999999999e+00
   term_criteria: { epsilon:1.1920928955078125e-07, iterations:1000 }
   var_count: 128
   class_count: 2
   class_labels: !!opencv-matrix
      rows: 2
      cols: 1
      dt: i
      data: [ 0, 1 ]
   sv_total: 239
   support_vectors:
      - [ 7.91834071e-02, 7.49848410e-02, 8.10848922e-02, 1.21213287e-01,
          1.16395399e-01, 5.79764023e-02, 8.63443688e-02, 1.43132046e-01,
          1.35611922e-01, 1.07713148e-01, 9.47573334e-02, 7.02762827e-02,
          5.76129742e-02, 6.37119412e-02, 4.78663072e-02, 5.87515682e-02,
          8.82107764e-02, 4.54172231e-02, 1.06661618e-01, 1.39604941e-01,
          1.24451809e-01, 1.26981750e-01, 1.54738829e-01, 1.29690751e-01,
          1.29098326e-01, 8.67222622e-02, 5.33140674e-02, 4.66976501e-02,
          5.22293299e-02, 3.28688025e-02, 5.14374636e-02, 3.12893838e-02,
          2.79011484e-02, 2.00966131e-02, 3.39392349e-02, 3.90932485e-02,
          3.03051714e-02, 3.38843837e-02, 6.84077591e-02, 1.00423627e-01,
          1.22412980e-01, 7.96595216e-02, 6.94220439e-02, 5.17842844e-02,
          5.63896671e-02, 4.76085059e-02, 4.84741516e-02, 6.07751273e-02,
          7.30061084e-02, 6.35398179e-02, 7.40614161e-02, 6.12349138e-02,
          6.91623986e-02, 9.55681503e-02, 1.04871392e-01, 1.07229605e-01,
          1.27962604e-01, 9.46007296e-02, 6.13152124e-02, 2.53434461e-02,
          2.73382384e-02, 2.12432966e-02, 2.23291535e-02, 0.,
          1.11115687e-01, 8.87627676e-02, 9.97598246e-02, 1.01841904e-01,
          9.53978673e-02, 8.86049122e-02, 1.28766894e-01, 1.04364328e-01,
          1.50172889e-01, 9.17723849e-02, 6.85885847e-02, 7.17437863e-02,
          1.10397488e-01, 9.04842168e-02, 9.14765224e-02, 6.47078231e-02,
          8.04077163e-02, 5.45458086e-02, 8.70969892e-02, 7.85009339e-02,
          5.88235296e-02, 6.83365166e-02, 6.92567453e-02, 1.04569443e-01,
          1.64816082e-01, 1.40046790e-01, 1.11639678e-01, 1.30081132e-01,
          1.10003844e-01, 9.18064862e-02, 5.97073846e-02, 6.75207600e-02,
          1.86596096e-01, 1.78625181e-01, 1.29973203e-01, 1.14075355e-01,
          9.36476886e-02, 6.80121928e-02, 7.49947652e-02, 1.20990157e-01,
          7.45023340e-02, 5.24124801e-02, 6.15356714e-02, 4.51916270e-02,
          3.40207443e-02, 2.57443190e-02, 1.99833717e-02, 5.25861941e-02,
          1.02939323e-01, 6.92142621e-02, 1.07370429e-01, 8.10614303e-02,
          7.37651959e-02, 4.59587239e-02, 4.39251736e-02, 5.73636144e-02,
          1.22040227e-01, 1.16866946e-01, 8.30299482e-02, 6.00019395e-02,
          6.35501817e-02, 7.03753680e-02, 6.65639043e-02, 9.51318964e-02 ]
      - [ 9.76060331e-02, 1.62299216e-01, 1.15879968e-01, 7.52177015e-02,
          6.73992336e-02, 7.96445534e-02, 9.75414962e-02, 9.97362807e-02,
          1.33533061e-01, 1.16863549e-01, 8.29254687e-02, 1.09794788e-01,
          8.99838358e-02, 8.83009657e-02, 5.44921346e-02, 9.58833769e-02,
          1.26841754e-01, 1.22364081e-01, 1.38507232e-01, 1.02246225e-01,
          7.76128247e-02, 9.93242338e-02, 1.09047890e-01, 1.45352319e-01,
          1.37997299e-01, 7.33768642e-02, 4.99056168e-02, 3.78424563e-02,
          5.00287525e-02, 4.05700281e-02, 3.16913538e-02, 6.26669675e-02,
          2.18679719e-02, 2.82968618e-02, 1.61624886e-02, 1.81016922e-02,
          9.07050446e-03, 4.64400761e-02, 5.31251244e-02, 7.60957152e-02,
          1.17677473e-01, 1.05765127e-01, 7.65300021e-02, 5.86659908e-02,
          6.55663759e-02, 8.20394382e-02, 1.55590236e-01, 1.90771297e-01,
          1.54853374e-01, 1.07447743e-01, 7.04674721e-02, 8.29019323e-02,
          4.59643193e-02, 6.91470876e-02, 8.26824754e-02, 1.19289286e-01,
          1.12109087e-01, 9.32505429e-02, 5.35398908e-02, 2.11499166e-02,
          1.98326614e-02, 4.28560860e-02, 3.82703543e-02, 0.,
          8.59374851e-02, 5.83952926e-02, 6.08631149e-02, 9.30962488e-02,
          1.02465294e-01, 1.27213761e-01, 1.35222867e-01, 1.16263971e-01,
          1.40100121e-01, 8.31552073e-02, 6.69702664e-02, 9.51804370e-02,
          8.29533935e-02, 1.02671593e-01, 1.08712457e-01, 8.66223648e-02,
          9.22871977e-02, 4.50202972e-02, 3.88664864e-02, 3.21611017e-02,
          7.90807009e-02, 5.54207079e-02, 1.22912049e-01, 1.12649880e-01,
          9.99846756e-02, 7.25836977e-02, 5.23725003e-02, 1.06589131e-01,
          1.28824070e-01, 1.04463518e-01, 6.06176034e-02, 6.39821813e-02,
          1.39526129e-01, 1.16125114e-01, 8.62777978e-02, 9.22759697e-02,
          5.62441237e-02, 8.47701803e-02, 1.20478682e-01, 8.73899236e-02,
          7.55940974e-02, 2.84952652e-02, 4.06669043e-02, 0.,
          2.68367678e-02, 1.99585129e-02, 1.64985117e-02, 1.75633747e-02,
          3.83284837e-02, 2.21455693e-02, 3.56890224e-02, 5.35202660e-02,
          5.03854379e-02, 5.35560995e-02, 1.06717803e-01, 1.10620379e-01,
          1.53384984e-01, 8.67891908e-02, 8.43163654e-02, 4.57948744e-02,
          6.44510984e-02, 8.35103914e-02, 1.03047796e-01, 7.16099516e-02 ]
      - [ 7.22443089e-02, 9.01902914e-02, 1.35667086e-01, 1.33998439e-01,
          6.05161525e-02, 6.53409287e-02, 8.21440667e-02, 9.14766565e-02,
          1.22885741e-01, 1.39309272e-01, 6.39276281e-02, 7.35266805e-02,
          6.39220998e-02, 9.09940973e-02, 8.46861601e-02, 6.30256385e-02,
          1.19383447e-01, 9.68804583e-02, 1.39310285e-01, 1.38853252e-01,
          7.96563849e-02, 8.10332000e-02, 1.11207269e-01, 1.22267634e-01,
          1.44057646e-01, 1.13576300e-01, 6.63346425e-02, 4.61239181e-02,
          6.12682886e-02, 4.81371954e-02, 4.95292842e-02, 3.81953456e-02,
          4.66040485e-02, 2.45166514e-02, 2.36527938e-02, 3.42375189e-02,
          2.59672944e-02, 3.87184434e-02, 4.01267856e-02, 9.95211080e-02,
          1.21138677e-01, 9.14304107e-02, 8.95629749e-02, 4.62443829e-02,
          6.21564910e-02, 8.61856639e-02, 5.01777641e-02, 8.71798769e-02,
          1.17332347e-01, 9.48889926e-02, 7.44173676e-02, 6.52937815e-02,
          4.46277112e-02, 5.43854944e-02, 8.03607032e-02, 1.39942795e-01,
          1.25017270e-01, 7.61751756e-02, 8.37631971e-02, 4.42416482e-02,
          2.86626369e-02, 2.63642222e-02, 2.40749214e-02, 1.44090094e-02,
          7.40899667e-02, 1.02283426e-01, 7.62166455e-02, 9.46856439e-02,
          2.88321581e-02, 8.02089199e-02, 1.30516618e-01, 1.40035301e-01,
          1.25161827e-01, 6.38057813e-02, 6.52719066e-02, 2.19791178e-02,
          7.51239434e-02, 1.08051710e-01, 9.18411165e-02, 1.00874513e-01,
          8.80370438e-02, 6.10651635e-02, 3.59210856e-02, 6.02951162e-02,
          4.99903411e-02, 7.24913999e-02, 1.12269044e-01, 1.41533047e-01,
          1.21101186e-01, 1.10660531e-01, 8.63071904e-02, 9.60406810e-02,
          1.44906700e-01, 1.07310429e-01, 7.83503577e-02, 7.26985484e-02,
          1.77605256e-01, 2.37518460e-01, 1.07225604e-01, 7.93322846e-02,
          7.50955045e-02, 8.12470093e-02, 8.03322643e-02, 6.59003034e-02,
          8.22516233e-02, 3.14211994e-02, 2.20430717e-02, 1.48594622e-02,
          2.52276082e-02, 2.82670669e-02, 2.48460062e-02, 2.48440839e-02,
          8.11833441e-02, 1.65440187e-01, 1.12442143e-01, 8.67010504e-02,
          6.15385212e-02, 7.05161020e-02, 7.80665949e-02, 6.07987642e-02,
          9.01214033e-02, 1.02519557e-01, 5.44344634e-02, 4.29149792e-02,
          4.53089736e-02, 8.99551213e-02, 7.41732121e-02, 8.31245184e-02 ]
      - [ 7.82417953e-02, 1.04240522e-01, 8.70962292e-02, 8.81527811e-02,
          1.03273951e-01, 1.00419194e-01, 1.10279843e-01, 1.75634310e-01,
          1.41610011e-01, 1.20544314e-01, 9.91531760e-02, 7.20447302e-02,
          7.62298852e-02, 6.15942664e-02, 4.74449992e-02, 5.45131043e-02,
          1.01499841e-01, 7.86724314e-02, 8.88596997e-02, 1.22105993e-01,
          1.47957101e-01, 1.19315334e-01, 1.18555613e-01, 1.46844879e-01,
          1.11490980e-01, 1.03152029e-01, 1.14389032e-01, 6.80394024e-02,
          8.52899253e-02, 7.00306594e-02, 4.51935977e-02, 5.23314923e-02,
          1.37884784e-02, 2.76994146e-02, 2.24624611e-02, 3.07366475e-02,
          2.80849971e-02, 4.68775071e-02, 6.40002415e-02, 9.92607251e-02,
          1.16073117e-01, 6.97654784e-02, 6.11761287e-02, 4.15257886e-02,
          6.89681992e-02, 6.76787570e-02, 9.78627801e-02, 1.24007776e-01,
          1.34384632e-01, 8.81715789e-02, 9.40295905e-02, 9.62494686e-02,
          6.71773776e-02, 1.10913411e-01, 1.11811571e-01, 9.28119197e-02,
          7.32572228e-02, 6.96913227e-02, 4.33669724e-02, 2.71327440e-02,
          1.71462297e-02, 2.66306605e-02, 5.22763189e-03, 2.99059618e-02,
          7.75288269e-02, 7.91847110e-02, 6.07985221e-02, 5.45702279e-02,
          8.42074156e-02, 8.65238830e-02, 1.09749220e-01, 1.51487768e-01,
          1.41193181e-01, 1.38234749e-01, 8.68433788e-02, 9.56683606e-02,
          7.50949159e-02, 7.66237378e-02, 6.91198260e-02, 5.03886454e-02,
          8.65788683e-02, 6.36468753e-02, 6.58221915e-02, 7.66442195e-02,
          8.33070502e-02, 1.31720111e-01, 1.34637937e-01, 9.90732238e-02,
          9.28228572e-02, 8.02784488e-02, 1.10555574e-01, 1.14849560e-01,
          8.88485163e-02, 8.05333927e-02, 6.53349534e-02, 1.00052603e-01,
          1.35031044e-01, 1.37540877e-01, 1.21258102e-01, 7.93580934e-02,
          5.81212901e-02, 6.11668862e-02, 6.77759424e-02, 1.07896701e-01,
          9.90771353e-02, 6.23898804e-02, 4.79180589e-02, 1.75075848e-02,
          2.32618693e-02, 3.47402021e-02, 2.37735566e-02, 2.89150514e-02,
          9.54324529e-02, 1.00267902e-01, 1.07677048e-02, 2.01374386e-02,
          2.21412275e-02, 3.96481343e-02, 4.49188389e-02, 7.49140307e-02,
          1.26174569e-01, 1.23612665e-01, 8.82833377e-02, 6.55794069e-02,
          9.66741666e-02, 9.50821340e-02, 9.73479226e-02, 9.42777693e-02 ]
      - [ 8.96197930e-02, 1.39662907e-01, 1.49837032e-01, 1.01263106e-01,
          5.77746220e-02, 1.15379438e-01, 9.29546505e-02, 9.05490890e-02,
          1.03004612e-01, 1.37074828e-01, 1.26632661e-01, 1.15010649e-01,
          1.11074857e-01, 6.67023286e-02, 5.83062135e-02, 7.65282586e-02,
          1.05680257e-01, 1.07926965e-01, 1.51200309e-01, 1.14502363e-01,
          9.21554863e-02, 9.88092497e-02, 9.65593606e-02, 1.08798459e-01,
          1.31012022e-01, 6.66337758e-02, 5.27895242e-02, 2.99416687e-02,
          4.18589003e-02, 4.08912264e-02, 3.80613916e-02, 5.39842397e-02,
          2.59825867e-02, 1.78919304e-02, 2.84480900e-02, 2.15013847e-02,
          3.29207927e-02, 3.67594883e-02, 6.20191395e-02, 1.11116789e-01,
          1.17789492e-01, 5.82479350e-02, 5.32628745e-02, 3.11691742e-02,
          5.75797036e-02, 4.90813926e-02, 8.61420706e-02, 1.00598194e-01,
          1.23459868e-01, 1.34546041e-01, 1.10257536e-01, 9.37069729e-02,
          8.50847587e-02, 8.63458291e-02, 1.19316392e-01, 1.17443465e-01,
          1.21621013e-01, 6.51423261e-02, 5.03851995e-02, 2.62627974e-02,
          2.80679725e-02, 2.62110736e-02, 2.88013536e-02, 2.11637374e-02,
          9.82713699e-02, 7.12944791e-02, 7.54672289e-02, 8.70328918e-02,
          1.06580272e-01, 1.24679610e-01, 1.33115068e-01, 1.12566985e-01,
          1.40412375e-01, 8.40179026e-02, 5.92572838e-02, 8.54892880e-02,
          8.42912048e-02, 7.83482343e-02, 1.28324211e-01, 1.13377348e-01,
          8.99982303e-02, 6.34783953e-02, 5.08689508e-02, 4.68351878e-02,
          3.50274332e-02, 4.73286659e-02, 8.33903626e-02, 1.18625537e-01,
          1.28922790e-01, 6.88718110e-02, 7.85552338e-02, 8.17067176e-02,
          1.01841353e-01, 9.53228921e-02, 1.20098293e-01, 5.96112683e-02,
          1.73640490e-01, 2.08702371e-01, 8.63922983e-02, 8.10888335e-02,
          2.34085955e-02, 6.10407256e-02, 5.90407588e-02, 9.29603353e-02,
          1.13651432e-01, 4.97699566e-02, 4.38815840e-02, 2.01890487e-02,
          1.94575787e-02, 1.91574730e-02, 0., 2.64403522e-02,
          3.42174917e-02, 2.02208050e-02, 1.13526452e-02, 3.72692719e-02,
          1.35006458e-02, 3.79035249e-02, 6.09418228e-02, 8.92594382e-02,
          1.28857106e-01, 1.11755773e-01, 8.23682919e-02, 8.91918913e-02,
          1.01887122e-01, 7.98360780e-02, 1.13730311e-01, 1.06149033e-01 ]
      - [ 1.29256606e-01, 1.61235169e-01, 7.69447312e-02, 8.51285234e-02,
          4.77658436e-02, 6.34885579e-02, 9.21036676e-02, 1.05046593e-01,
          1.42186046e-01, 8.94986242e-02, 9.69965905e-02, 1.06395468e-01,
          1.23904020e-01, 1.20737873e-01, 1.69044241e-01, 1.68513060e-01,
          1.35752946e-01, 1.00323834e-01, 1.24104515e-01, 1.08076394e-01,
          8.92050341e-02, 1.04108818e-01, 1.31376281e-01, 8.33865777e-02,
          1.10597081e-01, 4.63125035e-02, 4.89178784e-02, 2.67089792e-02,
          3.17030549e-02, 3.23544592e-02, 5.52663654e-02, 6.29459247e-02,
          1.29747828e-02, 3.12059540e-02, 2.38002390e-02, 1.82223227e-02,
          3.09170429e-02, 4.68873754e-02, 5.90272918e-02, 1.14306599e-01,
          1.42639354e-01, 7.35636950e-02, 6.05348200e-02, 7.64719322e-02,
          1.44466668e-01, 1.95655227e-01, 1.82733446e-01, 1.57496110e-01,
          1.37191460e-01, 8.46438780e-02, 6.96446076e-02, 5.73166125e-02,
          6.28294423e-02, 8.07850659e-02, 1.08943157e-01, 1.05310604e-01,
          9.79864374e-02, 6.28519803e-02, 7.50463381e-02, 4.01565991e-02,
          4.05632295e-02, 1.43327443e-02, 4.04698662e-02, 2.52428688e-02,
          6.84989989e-02, 5.31120040e-02, 5.01243062e-02, 7.73503035e-02,
          9.34083313e-02, 1.45592764e-01, 1.54219985e-01, 1.58169076e-01,
          1.02402680e-01, 7.29842931e-02, 6.81889206e-02, 7.34825432e-02,
          9.71648470e-02, 7.98489079e-02, 7.40731508e-02, 4.90999967e-02,
          6.21789172e-02, 5.40616587e-02, 6.12180978e-02, 4.63280566e-02,
          3.54282744e-02, 5.57811409e-02, 3.16664390e-02, 9.98019502e-02,
          7.40339532e-02, 4.44844663e-02, 1.15686275e-01, 1.22489020e-01,
          9.74975824e-02, 6.20171092e-02, 6.58577979e-02, 4.52112481e-02,
          7.83579946e-02, 5.14224768e-02, 3.12289502e-02, 4.48842458e-02,
          5.47602661e-02, 1.10181794e-01, 1.18510813e-01, 9.16640610e-02,
          4.49030846e-02, 6.37380108e-02, 3.59692313e-02, 1.63048450e-02,
          3.18076462e-02, 4.35132869e-02, 5.19331582e-02, 4.17473018e-02,
          5.47938272e-02, 3.83534990e-02, 5.29328994e-02, 5.76421581e-02,
          7.34056756e-02, 8.16472620e-02, 1.28739461e-01, 1.31828338e-01,
          1.25252113e-01, 8.25811625e-02, 7.14377984e-02, 5.91824874e-02,
          4.60927077e-02, 5.42593859e-02, 5.30519299e-02, 5.11566214e-02 ]
      - [ 6.02232330e-02, 4.59512807e-02, 7.90775791e-02, 1.33101895e-01,
          1.34556517e-01, 8.49779099e-02, 9.50137153e-02, 1.01050720e-01,
          1.10944875e-01, 1.18958160e-01, 1.12039678e-01, 1.13764353e-01,
          1.25525400e-01, 9.64926556e-02, 1.21455289e-01, 1.14381388e-01,
          1.07726544e-01, 1.13204464e-01, 1.32578969e-01, 1.15619481e-01,
          9.41760689e-02, 1.10334657e-01, 1.58153817e-01, 1.73681602e-01,
          1.32450551e-01, 1.34041741e-01, 7.22347051e-02, 7.84165859e-02,
          6.84963614e-02, 6.81099966e-02, 3.56446952e-02, 5.20983189e-02,
          4.45488878e-02, 1.38888331e-02, 4.21835110e-02, 4.19715978e-02,
          5.13105877e-02, 8.07845592e-02, 6.81834146e-02, 1.01841658e-01,
          1.60459071e-01, 1.37587160e-01, 1.14311300e-01, 8.61259177e-02,
          5.57677783e-02, 1.10724643e-01, 1.06439061e-01, 8.91053602e-02,
          1.27878070e-01, 1.15253046e-01, 9.67551246e-02, 1.06958024e-01,
          8.89998749e-02, 8.35678503e-02, 1.42888665e-01, 1.34858802e-01,
          1.36647105e-01, 8.05761516e-02, 4.57446352e-02, 2.26453822e-02,
          4.12326381e-02, 1.60727352e-02, 2.86585223e-02, 5.34819216e-02,
          5.42216003e-02, 3.95619646e-02, 6.56882823e-02, 2.97146253e-02,
          3.70679349e-02, 8.14223215e-02, 1.05172053e-01, 1.57157779e-01,
          1.75098345e-01, 9.53784361e-02, 4.42142747e-02, 6.45093098e-02,
          4.85872552e-02, 3.62416431e-02, 5.85369579e-02, 4.76597361e-02,
          4.71115820e-02, 5.37848286e-02, 4.15545106e-02, 5.46970516e-02,
          5.81760406e-02, 6.89561740e-02, 8.22178274e-02, 1.28712997e-01,
          1.41025409e-01, 1.16960920e-01, 1.30501077e-01, 1.10039182e-01,
          1.43180609e-01, 9.60469693e-02, 3.94438207e-02, 4.02188152e-02,
          9.12825093e-02, 4.75988202e-02, 6.08212948e-02, 8.09280798e-02,
          8.50253105e-02, 6.37828559e-02, 4.44731377e-02, 2.61842217e-02,
          5.99394962e-02, 2.95819771e-02, 1.98392104e-02, 3.30397561e-02,
          8.95829871e-03, 1.90956648e-02, 3.43479849e-02, 3.88964340e-02,
          3.40107419e-02, 2.86499802e-02, 5.15125655e-02, 5.43658026e-02,
          4.59960327e-02, 9.12094563e-02, 8.73582885e-02, 5.85222170e-02,
          6.75467104e-02, 6.68678209e-02, 7.55539164e-02, 5.07439524e-02,
          7.59749264e-02, 7.21116737e-02, 8.89415219e-02, 8.51085857e-02 ]
      - [ 1.05473742e-01, 1.46022320e-01, 1.08099520e-01, 8.66724774e-02,
          6.34163171e-02, 6.84131160e-02, 8.79997835e-02, 9.41409245e-02,
          1.19800165e-01, 1.10591896e-01, 8.83534774e-02, 9.28208008e-02,
          9.61828902e-02, 1.06413126e-01, 9.54770967e-02, 1.27859145e-01,
          1.45354718e-01, 9.15468708e-02, 1.11477278e-01, 8.13413784e-02,
          8.85030702e-02, 1.21625304e-01, 1.01107985e-01, 1.17621846e-01,
          1.08551309e-01, 9.11299586e-02, 6.19227737e-02, 3.66503820e-02,
          5.51174693e-02, 6.03965037e-02, 4.49807048e-02, 5.95008880e-02,
          2.91842651e-02, 0., 8.51968676e-03, 2.85122320e-02,
          1.22015243e-02, 1.35606164e-02, 5.64869754e-02, 7.06880242e-02,
          1.19469434e-01, 7.50287324e-02, 4.44300473e-02, 5.90775385e-02,
          1.00032978e-01, 1.56909779e-01, 2.03600228e-01, 1.83913574e-01,
          1.59699589e-01, 1.20950997e-01, 7.11835474e-02, 5.26705571e-02,
          4.38981578e-02, 6.82415441e-02, 1.05824701e-01, 8.96789804e-02,
          9.26296562e-02, 3.47385928e-02, 5.66524975e-02, 1.98670384e-02,
          1.64526496e-02, 2.08718684e-02, 7.76393013e-03, 1.48734758e-02,
          8.57606679e-02, 6.37089908e-02, 7.43166879e-02, 7.32380301e-02,
          8.22687373e-02, 1.18123040e-01, 1.49816960e-01, 1.33596748e-01,
          1.07989870e-01, 6.48286715e-02, 6.84388205e-02, 8.85831490e-02,
          1.11248121e-01, 9.95772928e-02, 9.94120166e-02, 1.10457219e-01,
          8.97325650e-02, 4.65577319e-02, 4.84839715e-02, 8.10554549e-02,
          5.33435345e-02, 4.67541181e-02, 9.94364843e-02, 9.11551490e-02,
          6.15732409e-02, 6.02406785e-02, 1.09744534e-01, 8.45199302e-02,
          1.24635197e-01, 1.03771038e-01, 8.92181098e-02, 7.32519329e-02,
          1.62233591e-01, 1.42891273e-01, 7.80011415e-02, 6.48273677e-02,
          5.53894676e-02, 7.73252919e-02, 9.45844054e-02, 9.40148085e-02,
          9.82718021e-02, 5.89804053e-02, 2.98727788e-02, 2.57438887e-02,
          3.58503312e-02, 3.26499119e-02, 1.39424773e-02, 2.98450552e-02,
          4.90034297e-02, 4.02053632e-02, 4.28739563e-02, 3.53074148e-02,
          2.12108959e-02, 5.77412993e-02, 1.05769068e-01, 1.17397256e-01,
          1.57034442e-01, 9.82363895e-02, 5.04117981e-02, 5.93064353e-02,
          7.28799775e-02, 6.49940670e-02, 9.18754786e-02, 8.16679746e-02 ]
      - [ 9.87028182e-02, 1.10776126e-01, 1.71659589e-01, 1.15259618e-01,
          8.24593902e-02, 1.02407806e-01, 8.18433091e-02, 1.12981327e-01,
          1.50489450e-01, 1.15493976e-01, 1.02293983e-01, 9.05856416e-02,
          9.63784158e-02, 1.39085934e-01, 1.10500447e-01, 1.30233303e-01,
          1.52621627e-01, 1.32144898e-01, 8.69672522e-02, 7.61996508e-02,
          9.67328623e-02, 1.13115825e-01, 1.65756941e-01, 1.18298404e-01,
          1.22843228e-01, 6.98290616e-02, 6.03038557e-02, 4.04142402e-02,
          5.13522997e-02, 2.12400015e-02, 6.64576590e-02, 5.21644838e-02,
          6.36396334e-02, 5.11654876e-02, 4.87699956e-02, 5.22284247e-02,
          3.94963808e-02, 7.29430541e-02, 4.99347113e-02, 4.95853238e-02,
          7.13859573e-02, 2.98691317e-02, 7.39746839e-02, 6.09799549e-02,
          9.05534700e-02, 1.52110666e-01, 1.89649373e-01, 1.86785519e-01,
          1.99196801e-01, 1.18670970e-01, 1.42614663e-01, 9.49883908e-02,
          7.35200420e-02, 5.96038550e-02, 1.02028698e-01, 7.68431649e-02,
          7.01309890e-02, 4.22506034e-02, 7.04344362e-02, 6.99612945e-02,
          6.53861985e-02, 8.16094726e-02, 5.81404753e-02, 4.30283174e-02,
          9.18264091e-02, 7.72120506e-02, 7.37371966e-02, 7.79015720e-02,
          1.03979237e-01, 1.32169634e-01, 1.26502663e-01, 1.00627467e-01,
          1.58278257e-01, 1.03571482e-01, 6.09518550e-02, 7.68335834e-02,
          9.98699740e-02, 8.34723487e-02, 6.07520267e-02, 8.35627243e-02,
          7.88379908e-02, 3.91882248e-02, 5.25295883e-02, 5.54921590e-02,
          3.93202603e-02, 5.87279871e-02, 9.34592262e-02, 6.57954887e-02,
          8.66217092e-02, 4.59764265e-02, 4.73117419e-02, 7.12956041e-02,
          9.74306092e-02, 9.63366255e-02, 8.76220241e-02, 5.40636629e-02,
          1.13850690e-01, 1.00293614e-01, 7.56112859e-02, 6.06606491e-02,
          2.60891709e-02, 2.57817339e-02, 2.58957725e-02, 1.13481134e-02,
          4.71670777e-02, 1.88437998e-02, 1.04396204e-02, 1.22658061e-02,
          2.09037010e-02, 2.83015687e-02, 5.31426445e-02, 3.38400118e-02,
          6.06075898e-02, 5.91883957e-02, 6.24268129e-02, 6.46244287e-02,
          4.14985940e-02, 7.08612949e-02, 6.10199943e-02, 3.78041640e-02,
          7.20971972e-02, 6.18284494e-02, 7.58816227e-02, 7.03403428e-02,
          9.00726169e-02, 8.06710497e-02, 8.46361071e-02, 9.03518647e-02 ]
      - [ 6.80002943e-02, 1.57033578e-01, 1.21275693e-01, 1.20276548e-01,
          9.09868255e-02, 6.33929372e-02, 1.03521138e-01, 1.02261804e-01,
          1.04558088e-01, 1.48349956e-01, 8.99373591e-02, 9.57398787e-02,
          1.03404202e-01, 6.98553473e-02, 7.75016397e-02, 9.58278775e-02,
          1.31442413e-01, 1.02071837e-01, 9.72504541e-02, 1.54877037e-01,
          8.87746289e-02, 1.11979350e-01, 1.40958533e-01, 1.50692448e-01,
          1.27178952e-01, 7.93862939e-02, 6.65149018e-02, 3.97438295e-02,
          3.77461798e-02, 5.15865870e-02, 4.70501110e-02, 5.03714979e-02,
          1.99701935e-02, 2.42235437e-02, 2.33355872e-02, 5.78329116e-02,
          3.86843570e-02, 4.59325202e-02, 8.09862241e-02, 1.07151352e-01,
          1.50867477e-01, 9.93570015e-02, 6.65820614e-02, 4.51222733e-02,
          6.78901896e-02, 9.77085307e-02, 1.45981655e-01, 1.48850143e-01,
          1.53139025e-01, 1.16072536e-01, 8.98666903e-02, 7.64384121e-02,
          6.75558671e-02, 8.38803798e-02, 1.24075480e-01, 1.47954315e-01,
          1.31120563e-01, 7.18380138e-02, 4.51010503e-02, 4.10241857e-02,
          2.77887359e-02, 2.13210415e-02, 0., 3.18481326e-02,
          8.28058869e-02, 6.74623400e-02, 7.57979453e-02, 1.18179031e-01,
          1.03525579e-01, 8.76738504e-02, 9.11365747e-02, 1.01677805e-01,
          1.65236235e-01, 9.24282223e-02, 8.21857601e-02, 8.54748413e-02,
          8.58277082e-02, 8.03570226e-02, 1.01893969e-01, 8.61276761e-02,
          8.40179101e-02, 3.53584364e-02, 2.89040376e-02, 4.79661748e-02,
          6.79558814e-02, 3.97812165e-02, 9.07234475e-02, 8.84905383e-02,
          9.21690241e-02, 9.23353285e-02, 7.66887739e-02, 1.03270210e-01,
          9.92346331e-02, 6.58785850e-02, 8.06206614e-02, 5.51038980e-02,
          1.25841931e-01, 1.01356655e-01, 4.42218482e-02, 4.16956060e-02,
          2.39010490e-02, 5.31933494e-02, 9.62279439e-02, 9.19596255e-02,
          9.26790088e-02, 5.47533408e-02, 9.66361538e-03, 2.73876823e-02,
          2.40638815e-02, 1.53746344e-02, 2.50264257e-02, 0.,
          2.33795308e-02, 1.46063501e-02, 1.53738679e-02, 1.99339911e-02,
          3.24652344e-02, 6.80186376e-02, 1.00379676e-01, 1.18564315e-01,
          1.42452508e-01, 1.00354679e-01, 8.99436250e-02, 7.30441958e-02,
          9.54004005e-02, 8.37908983e-02, 1.01952322e-01, 8.58466029e-02 ]
      - [ 8.26037303e-02, 8.94223228e-02, 1.62578687e-01, 1.09787248e-01,
          9.61381346e-02, 7.45085105e-02, 7.59245455e-02, 9.66781229e-02,
          1.14719376e-01, 9.77061465e-02, 1.21861242e-01, 9.30766761e-02,
          1.20300442e-01, 9.75307003e-02, 9.15915817e-02, 7.77292699e-02,
          1.21022590e-01, 1.10515848e-01, 1.53367400e-01, 1.31405607e-01,
          7.20409527e-02, 1.08348861e-01, 1.27028316e-01, 1.49159893e-01,
          1.31870881e-01, 7.94831514e-02, 6.19238093e-02, 5.26287332e-02,
          4.51325364e-02, 5.47832549e-02, 3.37891020e-02, 5.86091578e-02,
          3.77977863e-02, 2.94129122e-02, 3.85036916e-02, 3.25571708e-02,
          4.09895889e-02, 3.01342420e-02, 5.74756600e-02, 1.15280055e-01,
          1.46578908e-01, 8.36895555e-02, 7.30195940e-02, 4.45684306e-02,
          4.50652055e-02, 6.45267516e-02, 1.05902821e-01, 1.74454138e-01,
          1.74351811e-01, 1.47499532e-01, 8.81170258e-02, 6.30333349e-02,
          8.34130347e-02, 6.94980472e-02, 8.61248150e-02, 1.31170228e-01,
          9.55678597e-02, 6.62112162e-02, 7.68827498e-02, 5.60630411e-02,
          0., 3.40108089e-02, 3.01167183e-02, 2.34227050e-02,
          7.04280436e-02, 5.76761439e-02, 4.79043797e-02, 7.52289966e-02,
          7.37769604e-02, 1.32906213e-01, 1.56094402e-01, 1.21827371e-01,
          1.09054118e-01, 5.13012484e-02, 6.42048568e-02, 5.97189181e-02,
          8.85848776e-02, 9.26924869e-02, 9.84436199e-02, 9.16578919e-02,
          8.20952430e-02, 4.17189822e-02, 4.47668023e-02, 4.31313962e-02,
          5.56843877e-02, 4.53147590e-02, 5.29500693e-02, 1.67420864e-01,
          1.46668822e-01, 1.04090147e-01, 8.38076770e-02, 9.29570720e-02,
          1.18718863e-01, 6.67470619e-02, 7.84316510e-02, 5.11527508e-02,
          1.15909480e-01, 1.10344119e-01, 8.94618332e-02, 6.72237203e-02,
          9.96356905e-02, 5.11521846e-02, 4.68858257e-02, 8.17069709e-02,
          1.12976745e-01, 3.96064445e-02, 3.50635424e-02, 2.63426472e-02,
          4.11412977e-02, 2.36883815e-02, 1.82649456e-02, 1.19822063e-02,
          3.44301164e-02, 3.01226508e-02, 3.81973386e-02, 5.90656139e-02,
          4.20277007e-02, 6.42157048e-02, 7.72267058e-02, 8.55447650e-02,
          9.78187546e-02, 1.11690931e-01, 8.80436599e-02, 6.26331046e-02,
          7.86720738e-02, 9.04993713e-02, 1.31128833e-01, 8.42857510e-02 ]
      - [ 9.75802019e-02, 1.43318787e-01, 1.49477646e-01, 9.03745741e-02,
          9.04171616e-02, 7.75070563e-02, 1.01640187e-01, 1.00801349e-01,
          1.20831788e-01, 1.09158948e-01, 1.18121214e-01, 1.21770784e-01,
          8.85367468e-02, 7.70479813e-02, 7.19064698e-02, 8.30999613e-02,
          1.13057762e-01, 1.26650244e-01, 8.34455788e-02, 1.10615782e-01,
          9.75780860e-02, 1.08003549e-01, 1.26956105e-01, 1.11524925e-01,
          1.21907637e-01, 6.98169619e-02, 6.13123849e-02, 3.30038257e-02,
          2.66673956e-02, 3.09778284e-02, 4.92316149e-02, 4.90645505e-02,
          4.22038473e-02, 5.29992655e-02, 4.96239327e-02, 2.17094757e-02,
          1.37178181e-02, 4.46193777e-02, 6.99323416e-02, 6.70747086e-02,
          1.26733035e-01, 9.76709798e-02, 6.32927194e-02, 5.97311109e-02,
          6.06536940e-02, 6.40641376e-02, 1.19045079e-01, 1.62504524e-01,
          1.31862640e-01, 1.19586125e-01, 1.35640323e-01, 8.13116208e-02,
          4.53386866e-02, 7.96306357e-02, 1.43302426e-01, 1.29216865e-01,
          1.11433141e-01, 9.45929885e-02, 3.90014388e-02, 1.32794473e-02,
          1.32273138e-02, 1.18310992e-02, 2.06537861e-02, 3.52865383e-02,
          7.06190392e-02, 7.11505190e-02, 8.23087618e-02, 8.76558796e-02,
          9.43717062e-02, 1.31270096e-01, 1.29368693e-01, 9.86557081e-02,
          1.30053774e-01, 1.05960488e-01, 7.65543133e-02, 8.95735398e-02,
          8.60971585e-02, 9.79630277e-02, 1.02440879e-01, 1.08306512e-01,
          1.08833760e-01, 5.75301982e-02, 2.95748990e-02, 5.42757697e-02,
          2.77284719e-02, 4.64895368e-02, 9.01511386e-02, 1.17416248e-01,
          1.01219639e-01, 7.38226846e-02, 6.45143613e-02, 7.62274936e-02,
          1.00122929e-01, 8.81989375e-02, 6.65217713e-02, 7.28090703e-02,
          1.48917541e-01, 1.80362850e-01, 9.31682736e-02, 9.24591273e-02,
          5.42019457e-02, 6.15950823e-02, 8.31739530e-02, 9.82497409e-02,
          7.76175037e-02, 3.29756550e-02, 2.59738527e-02, 2.91899070e-02,
          1.32214986e-02, 3.16799358e-02, 1.94478706e-02, 1.07393106e-02,
          2.26260033e-02, 1.45039586e-02, 1.74940713e-02, 2.17199177e-02,
          1.97741762e-02, 4.30297293e-02, 4.02015150e-02, 1.18671015e-01,
          1.51519224e-01, 1.22901410e-01, 8.66555870e-02, 8.07024464e-02,
          6.19591624e-02, 1.04824767e-01, 1.00333259e-01, 9.68859270e-02 ]
      - [ 1.46923602e-01, 1.61347121e-01, 8.41187164e-02, 6.88914955e-02,
          6.32095560e-02, 6.86633065e-02, 8.82510170e-02, 9.03451592e-02,
          1.44425601e-01, 9.97434333e-02, 9.29422975e-02, 9.68788415e-02,
          1.31323993e-01, 1.44469976e-01, 1.64677083e-01, 1.87783107e-01,
          1.29647240e-01, 1.17523037e-01, 1.28408268e-01, 1.12627186e-01,
          9.18862149e-02, 8.33630860e-02, 1.18246533e-01, 7.30769038e-02,
          8.38486403e-02, 5.43759950e-02, 3.13922837e-02, 1.85980257e-02,
          2.33202875e-02, 4.54015322e-02, 4.24766243e-02, 6.12944439e-02,
          2.71629822e-02, 2.01917924e-02, 3.28391865e-02, 3.40372585e-02,
          3.22150774e-02, 4.65928018e-02, 6.42164201e-02, 1.01978146e-01,
          1.45408615e-01, 8.52327496e-02, 6.57481849e-02, 6.96914494e-02,
          1.64339513e-01, 1.80416107e-01, 1.76382929e-01, 1.73960134e-01,
          1.19991891e-01, 8.59190300e-02, 7.28725418e-02, 5.68549596e-02,
          5.67152090e-02, 7.77784884e-02, 1.20678686e-01, 1.00212932e-01,
          1.01438627e-01, 7.98199028e-02, 6.23772405e-02, 4.84480709e-02,
          3.86925936e-02, 2.56307740e-02, 3.64072919e-02, 1.68114156e-02,
          6.57924041e-02, 5.05780838e-02, 5.69810271e-02, 6.60988092e-02,
          1.24181561e-01, 1.30836532e-01, 1.66701123e-01, 1.37433484e-01,
          9.92147624e-02, 7.60189146e-02, 7.97924474e-02, 8.15672651e-02,
          7.47332275e-02, 7.94402286e-02, 7.07515255e-02, 5.03789820e-02,
          5.89046739e-02, 3.84708531e-02, 6.20270446e-02, 5.57766147e-02,
          1.86386500e-02, 4.62077521e-02, 3.33061665e-02, 9.14860293e-02,
          7.93938637e-02, 5.26126288e-02, 1.09629452e-01, 1.22327156e-01,
          9.67618898e-02, 6.59722313e-02, 7.37924799e-02, 4.91576195e-02,
          7.56588057e-02, 5.84820956e-02, 2.75169984e-02, 4.92903367e-02,
          6.06886335e-02, 1.07797772e-01, 1.29513562e-01, 6.34408817e-02,
          5.63343465e-02, 5.48718683e-02, 2.78203469e-02, 2.77105346e-02,
          4.36219499e-02, 3.68449800e-02, 4.15465049e-02, 3.32631581e-02,
          5.20614795e-02, 4.36641313e-02, 4.65319082e-02, 5.85355274e-02,
          5.98116629e-02, 1.05989203e-01, 1.25648901e-01, 1.33501485e-01,
          1.19514450e-01, 6.00093231e-02, 8.26734826e-02, 6.44036904e-02,
          4.56041209e-02, 4.65234518e-02, 5.86443357e-02, 3.67345400e-02 ]
      - [ 5.53931519e-02, 7.25982785e-02, 1.03616804e-01, 8.18685293e-02,
          5.91000766e-02, 9.59800631e-02, 9.28409845e-02, 9.47327837e-02,
          1.44506320e-01, 1.60329565e-01, 1.11314423e-01, 8.01772401e-02,
          5.38119040e-02, 4.94547710e-02, 4.75740358e-02, 4.51114699e-02,
          7.87206292e-02, 7.65397772e-02, 9.13968459e-02, 8.31190199e-02,
          8.12239125e-02, 1.24659456e-01, 1.40899256e-01, 1.00045860e-01,
          1.36894822e-01, 6.21338971e-02, 5.75617328e-02, 4.26787399e-02,
          1.59393419e-02, 3.54516804e-02, 3.30464579e-02, 1.96176358e-02,
          5.89210279e-02, 4.24597673e-02, 5.11472896e-02, 1.90979932e-02,
          1.94375422e-02, 2.31070966e-02, 6.29190952e-02, 8.46749917e-02,
          1.17049627e-01, 5.85623048e-02, 5.88642135e-02, 6.36734366e-02,
          5.66477887e-02, 4.18307632e-02, 4.40036431e-02, 6.17222823e-02,
          7.55229741e-02, 9.18429345e-02, 9.18711051e-02, 9.01524574e-02,
          7.65603781e-02, 8.40584338e-02, 1.26994342e-01, 1.17821164e-01,
          1.28001824e-01, 7.18288720e-02, 5.85859083e-02, 2.32702754e-02,
          3.40897478e-02, 2.02613249e-02, 2.03995295e-02, 4.11292277e-02,
          1.34478316e-01, 1.30039185e-01, 1.25646353e-01, 1.31453589e-01,
          1.18898347e-01, 1.14803672e-01, 1.15812726e-01, 9.50137749e-02,
          1.27147630e-01, 9.20322537e-02, 7.21252486e-02, 1.37425289e-02,
          7.66340643e-02, 1.15313962e-01, 1.19933985e-01, 6.86507076e-02,
          6.95439279e-02, 5.15636466e-02, 5.00275828e-02, 4.41345461e-02,
          6.06646948e-02, 4.59298491e-02, 7.16100931e-02, 1.45226225e-01,
          1.90382570e-01, 1.19091779e-01, 9.02035981e-02, 6.64689690e-02,
          7.43040964e-02, 8.11533779e-02, 9.12055373e-02, 9.19633582e-02,
          1.63885102e-01, 2.17092231e-01, 1.81112498e-01, 9.45550427e-02,
          8.21112916e-02, 7.61634484e-02, 5.51206395e-02, 1.09217450e-01,
          7.57891238e-02, 4.17759307e-02, 3.01181674e-02, 2.38321088e-02,
          2.81400289e-02, 3.99223715e-02, 3.50179747e-02, 3.45567986e-02,
          6.60804212e-02, 8.71133879e-02, 1.55818358e-01, 1.04430512e-01,
          6.66403249e-02, 6.77000210e-02, 6.07725754e-02, 5.65478578e-02,
          1.24691300e-01, 6.80212006e-02, 9.79004502e-02, 9.04852077e-02,
          7.32287318e-02, 7.49334618e-02, 6.99317902e-02, 6.73171505e-02 ]
      - [ 8.38307664e-02, 1.42857566e-01, 1.44173056e-01, 1.09118365e-01,
          5.42248674e-02, 5.58922105e-02, 1.05743825e-01, 1.02061570e-01,
          1.37101322e-01, 1.08661003e-01, 8.03330764e-02, 6.70451745e-02,
          7.32763186e-02, 8.35663676e-02, 9.99263152e-02, 8.74475539e-02,
          1.44895718e-01, 1.20462276e-01, 1.17033176e-01, 1.25409424e-01,
          7.56285042e-02, 9.82911140e-02, 1.04481012e-01, 1.42256364e-01,
          1.15286522e-01, 7.25831538e-02, 4.98419330e-02, 5.35385944e-02,
          5.83140068e-02, 5.34097813e-02, 4.71220240e-02, 6.29597455e-02,
          3.43201123e-02, 4.01803032e-02, 3.36798616e-02, 2.15188451e-02,
          3.62732522e-02, 1.88774690e-02, 4.80022468e-02, 1.16873451e-01,
          1.41164586e-01, 1.00330994e-01, 9.35632065e-02, 7.88372830e-02,
          6.24298081e-02, 6.37762398e-02, 1.53303877e-01, 1.99517533e-01,
          1.41926631e-01, 7.17813894e-02, 7.12607503e-02, 5.63467219e-02,
          5.17631136e-02, 9.63123664e-02, 1.28345832e-01, 1.21215507e-01,
          1.20576933e-01, 7.56951049e-02, 4.49405797e-02, 3.41087021e-02,
          3.83144878e-02, 2.57103704e-02, 1.14048831e-02, 2.08811555e-02,
          9.24790427e-02, 5.14937676e-02, 9.20153856e-02, 5.16677499e-02,
          8.51120576e-02, 9.83055234e-02, 1.46286801e-01, 1.15144633e-01,
          1.48789287e-01, 5.06829508e-02, 6.72728047e-02, 7.16498867e-02,
          1.01497881e-01, 9.30684507e-02, 1.04595512e-01, 9.71216634e-02,
          9.64768901e-02, 6.68598339e-02, 4.67934720e-02, 6.92007244e-02,
          5.35157211e-02, 6.22962527e-02, 9.21653360e-02, 9.97545049e-02,
          1.03940651e-01, 6.69645593e-02, 9.80623066e-02, 1.10703766e-01,
          1.03275590e-01, 8.34560618e-02, 8.32713470e-02, 6.08554743e-02,
          1.38830423e-01, 1.36558384e-01, 7.88757280e-02, 8.78686458e-02,
          5.60636930e-02, 7.95090348e-02, 8.48297104e-02, 1.11436248e-01,
          9.65212286e-02, 4.77011949e-02, 3.40291858e-02, 3.25802267e-02,
          3.02113928e-02, 2.10526008e-02, 1.91509929e-02, 0.,
          2.66407952e-02, 1.49842063e-02, 1.78188570e-02, 2.35594958e-02,
          5.28018139e-02, 6.59286156e-02, 7.84406960e-02, 1.14131682e-01,
          1.33233249e-01, 1.03828155e-01, 9.61405635e-02, 4.46122773e-02,
          7.26521760e-02, 8.47644582e-02, 8.48236904e-02, 9.36780795e-02 ]
      - [ 1.27526313e-01, 1.62998155e-01, 7.85552561e-02, 7.73780718e-02,
          4.11383547e-02, 6.96805865e-02, 9.42342654e-02, 9.18319523e-02,
          1.48720354e-01, 1.01540953e-01, 8.52421746e-02, 1.00486808e-01,
          1.27059326e-01, 1.32456794e-01, 1.67723864e-01, 1.62857249e-01,
          1.27699286e-01, 1.12561941e-01, 1.18452139e-01, 9.96285528e-02,
          8.08609948e-02, 1.21216737e-01, 1.25896260e-01, 5.44440262e-02,
          1.09767541e-01, 6.00529648e-02, 3.37455533e-02, 4.48281169e-02,
          4.42012958e-02, 2.95475423e-02, 5.56825511e-02, 7.56070837e-02,
          4.06229012e-02, 2.58112215e-02, 0., 3.17618139e-02,
          3.19212712e-02, 3.41248587e-02, 8.08025971e-02, 9.09701139e-02,
          1.34735405e-01, 8.57731476e-02, 7.61495754e-02, 4.87163812e-02,
          1.63197950e-01, 1.90817013e-01, 1.84472382e-01, 1.56074926e-01,
          1.27927616e-01, 6.48202822e-02, 8.08685198e-02, 7.98126087e-02,
          5.90248890e-02, 8.17840174e-02, 1.23254359e-01, 9.35219079e-02,
          8.72620493e-02, 6.04327433e-02, 6.74892142e-02, 5.34200221e-02,
          4.31628637e-02, 3.16240862e-02, 1.87291354e-02, 2.47259904e-02,
          6.96204901e-02, 4.76994775e-02, 4.32228707e-02, 8.81950855e-02,
          9.57671702e-02, 1.51168987e-01, 1.44756794e-01, 1.46290004e-01,
          1.15994014e-01, 6.62349015e-02, 6.73555508e-02, 7.43643492e-02,
          1.04115292e-01, 7.99793750e-02, 8.38258415e-02, 5.12656756e-02,
          7.43855089e-02, 4.87544388e-02, 4.57991771e-02, 5.67833744e-02,
          2.23545935e-02, 5.51906675e-02, 6.56674951e-02, 7.95235336e-02,
          7.96765909e-02, 4.18646857e-02, 1.24267347e-01, 1.13509499e-01,
          9.86251757e-02, 7.02637658e-02, 6.66318238e-02, 3.53869535e-02,
          6.64591417e-02, 4.97427881e-02, 4.49076332e-02, 3.53970751e-02,
          6.68072701e-02, 1.13530271e-01, 1.18671671e-01, 8.92902911e-02,
          6.16232343e-02, 4.54189666e-02, 2.88437586e-02, 3.63947339e-02,
          4.30230908e-02, 4.48846109e-02, 2.87432149e-02, 3.47165316e-02,
          5.95187210e-02, 4.94071916e-02, 4.61625122e-02, 6.32226393e-02,
          6.00144267e-02, 9.36579481e-02, 1.26970902e-01, 1.33871570e-01,
          1.08184807e-01, 9.09647122e-02, 7.78941363e-02, 6.02871440e-02,
          4.93777245e-02, 5.37232757e-02, 5.69717847e-02, 6.05097041e-02 ]
      - [ 8.09926093e-02, 1.48261085e-01, 1.27088726e-01, 9.77989063e-02,
          7.30693489e-02, 8.77863690e-02, 6.79859370e-02, 8.76043215e-02,
          1.46607399e-01, 1.23125292e-01, 9.97222215e-02, 9.47551355e-02,
          9.19480100e-02, 7.76154473e-02, 6.47653788e-02, 5.97754307e-02,
          9.78954509e-02, 1.29153371e-01, 1.31648675e-01, 9.61950421e-02,
          8.15933496e-02, 1.08690508e-01, 1.01280384e-01, 1.32741138e-01,
          1.49247363e-01, 8.35119560e-02, 6.35931790e-02, 2.43580192e-02,
          5.89834601e-02, 1.85878687e-02, 4.21337560e-02, 5.31560592e-02,
          4.04753424e-02, 2.74616014e-02, 1.95504855e-02, 2.36008950e-02,
          4.19742987e-02, 6.03111871e-02, 8.20033923e-02, 8.19602236e-02,
          1.38173267e-01, 1.20839164e-01, 7.25788921e-02, 1.99653711e-02,
          4.72286306e-02, 6.90413415e-02, 1.12764291e-01, 1.20481558e-01,
          1.36638373e-01, 1.28636017e-01, 1.11081287e-01, 9.93936211e-02,
          7.66999945e-02, 8.52439255e-02, 8.49677324e-02, 1.31637096e-01,
          1.34513333e-01, 6.47890866e-02, 7.80330971e-02, 7.22540319e-02,
          2.40716580e-02, 3.49890552e-02, 3.28752659e-02, 1.70563422e-02,
          8.90333652e-02, 6.03399277e-02, 6.31292090e-02, 8.45302343e-02,
          8.29418376e-02, 1.16477467e-01, 1.41028270e-01, 1.51708245e-01,
          9.16710943e-02, 7.41484836e-02, 7.22219571e-02, 7.61766136e-02,
          8.10724869e-02, 9.42012072e-02, 9.05244276e-02, 1.03314392e-01,
          9.80910957e-02, 5.24814315e-02, 3.85012999e-02, 4.04536948e-02,
          5.83474077e-02, 6.80398494e-02, 1.06896415e-01, 1.20155342e-01,
          1.13735922e-01, 8.32104906e-02, 8.79923850e-02, 6.47250339e-02,
          9.91265327e-02, 1.18787132e-01, 6.11685887e-02, 7.15051442e-02,
          1.73211813e-01, 1.34899169e-01, 5.13466373e-02, 4.64664809e-02,
          4.60115671e-02, 6.66203350e-02, 1.12714343e-01, 1.06804915e-01,
          9.04482007e-02, 5.68368770e-02, 3.94062847e-02, 3.97903770e-02,
          4.09313105e-02, 8.31274781e-03, 1.10025313e-02, 1.71124656e-02,
          4.19891253e-02, 1.12418570e-02, 3.15003358e-02, 2.38527302e-02,
          5.23353256e-02, 9.23380554e-02, 1.08332418e-01, 9.27619264e-02,
          1.18341126e-01, 8.61411318e-02, 6.35273680e-02, 4.91100512e-02,
          9.60595235e-02, 1.17259607e-01, 9.92529765e-02, 1.34198874e-01 ]
      - [ 7.97624663e-02, 1.27768084e-01, 1.45280406e-01, 1.19507685e-01,
          8.44369680e-02, 9.14129540e-02, 1.13168947e-01, 1.21041574e-01,
          1.26142755e-01, 7.66229555e-02, 1.00768819e-01, 1.05410635e-01,
          1.30263850e-01, 1.06033556e-01, 1.10376552e-01, 1.03425108e-01,
          1.21785060e-01, 1.46429002e-01, 9.23411474e-02, 6.74921349e-02,
          9.34265554e-02, 1.21982984e-01, 1.52983129e-01, 1.39239088e-01,
          9.11196172e-02, 7.38168508e-02, 7.10133687e-02, 5.55947945e-02,
          3.75698023e-02, 3.85298021e-02, 4.51789834e-02, 7.20924959e-02,
          3.81986871e-02, 2.88993120e-02, 3.04862633e-02, 4.94335517e-02,
          5.25841452e-02, 6.53471202e-02, 8.04106668e-02, 1.27683371e-01,
          1.01612896e-01, 9.16081443e-02, 6.41425401e-02, 6.92977533e-02,
          7.10922256e-02, 1.02783732e-01, 1.94748402e-01, 1.92738160e-01,
          1.44387841e-01, 1.05160385e-01, 1.00076683e-01, 7.01593533e-02,
          1.09970629e-01, 8.60687718e-02, 1.10325821e-01, 1.09384887e-01,
          1.07793763e-01, 6.04134016e-02, 3.25249881e-02, 4.14398015e-02,
          2.95014009e-02, 2.82243062e-02, 3.84690762e-02, 2.85644699e-02,
          7.88071081e-02, 6.35390431e-02, 6.50222972e-02, 7.10165128e-02,
          9.08083692e-02, 1.04529418e-01, 1.49818078e-01, 1.21021651e-01,
          1.61548808e-01, 9.33866277e-02, 6.26747608e-02, 9.90471691e-02,
          9.20066759e-02, 9.97512341e-02, 7.27317482e-02, 7.18521699e-02,
          7.94110745e-02, 6.06679060e-02, 5.30064590e-02, 6.70664907e-02,
          4.56671193e-02, 7.16279298e-02, 4.60982285e-02, 5.24567068e-02,
          9.78235900e-02, 5.36479987e-02, 6.07634299e-02, 8.63125771e-02,
          1.16412573e-01, 9.06467289e-02, 7.77994096e-02, 6.76651597e-02,
          6.76992089e-02, 6.52107596e-02, 4.95641418e-02, 5.96523844e-02,
          4.87578437e-02, 6.23686947e-02, 6.34683445e-02, 8.00734684e-02,
          6.59460798e-02, 5.31924330e-02, 5.41667342e-02, 1.04433885e-02,
          3.34150940e-02, 3.06473076e-02, 3.83817591e-02, 0.,
          4.05094102e-02, 9.52612329e-03, 3.09356172e-02, 4.86777686e-02,
          4.77623455e-02, 8.56944770e-02, 1.17484443e-01, 1.26741856e-01,
          1.22790076e-01, 1.02904975e-01, 1.02365509e-01, 6.66007102e-02,
          8.26848447e-02, 7.58638307e-02, 8.92861262e-02, 3.44724655e-02 ]
      - [ 7.54575506e-02, 1.18624136e-01, 1.28821284e-01, 1.41877279e-01,
          6.64611533e-02, 1.01876140e-01, 1.28417715e-01, 1.12604998e-01,
          1.07631758e-01, 9.27145258e-02, 9.67790186e-02, 1.05601102e-01,
          1.22267917e-01, 9.44215581e-02, 6.34127781e-02, 9.41982344e-02,
          1.24711014e-01, 1.19930431e-01, 1.13914289e-01, 9.06895772e-02,
          7.83527046e-02, 1.35762349e-01, 1.60779446e-01, 1.77725807e-01,
          1.01891741e-01, 9.11854208e-02, 7.94690847e-02, 4.79076691e-02,
          4.66481671e-02, 5.33658080e-02, 3.98825817e-02, 7.47929513e-02,
          3.44575234e-02, 3.82547602e-02, 6.14857189e-02, 1.82557981e-02,
          2.04483569e-02, 7.24515021e-02, 8.75203833e-02, 1.26339674e-01,
          1.22505017e-01, 6.98666051e-02, 7.73654804e-02, 7.36163184e-02,
          6.65461347e-02, 1.11478470e-01, 1.79173604e-01, 1.85335800e-01,
          1.33784324e-01, 1.17438808e-01, 9.30238217e-02, 7.38576725e-02,
          1.07806854e-01, 7.40284547e-02, 1.03469685e-01, 1.07333645e-01,
          1.15168892e-01, 6.20422661e-02, 2.15541534e-02, 2.83334889e-02,
          4.84876856e-02, 2.43949611e-02, 2.90891826e-02, 2.69947015e-02,
          8.62839669e-02, 6.22348003e-02, 6.44731075e-02, 7.76048675e-02,
          9.16830599e-02, 1.19181708e-01, 1.19256206e-01, 1.27328441e-01,
          1.56961277e-01, 9.62048024e-02, 7.48810396e-02, 1.21525064e-01,
          4.38137613e-02, 9.60368365e-02, 8.04468617e-02, 6.30110502e-02,
          8.89604837e-02, 5.00995740e-02, 7.17508942e-02, 4.83999029e-02,
          4.52174582e-02, 8.87025520e-02, 8.18975791e-02, 5.53772226e-02,
          9.56886187e-02, 7.20190406e-02, 5.14050499e-02, 7.45795146e-02,
          1.34117946e-01, 7.49760494e-02, 7.09191114e-02, 6.62206635e-02,
          6.09892309e-02, 5.65010682e-02, 7.94555098e-02, 4.63533774e-02,
          3.88850607e-02, 5.20975068e-02, 8.04664344e-02, 7.59479254e-02,
          6.56510592e-02, 6.15332909e-02, 3.78685258e-02, 3.52046527e-02,
          3.62538807e-02, 2.58267354e-02, 2.46493891e-02, 2.25543343e-02,
          5.07127047e-02, 2.61870511e-02, 9.84845217e-03, 4.16448601e-02,
          4.92030196e-02, 8.16472918e-02, 1.18406177e-01, 1.13279171e-01,
          1.18779294e-01, 9.98327583e-02, 9.91389751e-02, 6.97703660e-02,
          8.23855698e-02, 8.81415606e-02, 6.81030750e-02, 4.96927723e-02 ]
      - [ 8.37801322e-02, 9.86073241e-02, 1.57875255e-01, 8.78116116e-02,
          1.05974697e-01, 9.84277353e-02, 9.60676372e-02, 8.65609348e-02,
          1.23830549e-01, 1.11421399e-01, 9.29467827e-02, 9.45143104e-02,
          1.14259422e-01, 1.45793363e-01, 1.05480902e-01, 1.07534461e-01,
          1.02277212e-01, 1.02971591e-01, 1.15006194e-01, 9.15513188e-02,
          8.66655931e-02, 8.22419152e-02, 1.27079189e-01, 1.13931455e-01,
          7.46894181e-02, 7.21841305e-02, 7.84474090e-02, 8.79145339e-02,
          5.40109985e-02, 7.01987371e-02, 6.59346655e-02, 4.62679639e-02,
          9.65394173e-03, 0., 2.07241271e-02, 2.64974628e-02,
          2.82892827e-02, 6.21852912e-02, 8.73357207e-02, 1.43200055e-01,
          1.25042856e-01, 7.80384764e-02, 6.91139549e-02, 6.41214699e-02,
          1.28903076e-01, 8.30212757e-02, 1.23330675e-01, 1.88686296e-01,
          1.55901611e-01, 1.27210692e-01, 9.42031667e-02, 8.70016441e-02,
          8.92733485e-02, 1.03282623e-01, 1.41431302e-01, 1.22327663e-01,
          9.27863792e-02, 4.53236103e-02, 8.42483994e-03, 0.,
          1.70923267e-02, 0., 0., 1.33892139e-02, 6.33177385e-02,
          3.33574377e-02, 3.65878120e-02, 4.78782356e-02, 6.30695149e-02,
          1.01903155e-01, 1.53294444e-01, 1.35253295e-01, 1.55626386e-01,
          7.77764171e-02, 6.19742572e-02, 6.65614679e-02, 8.38551968e-02,
          7.32980445e-02, 9.41297859e-02, 9.39221308e-02, 7.05332458e-02,
          4.69045304e-02, 6.10589758e-02, 6.43285513e-02, 6.57273233e-02,
          7.58811533e-02, 7.83539861e-02, 1.31633669e-01, 1.91107780e-01,
          1.26508683e-01, 1.29861832e-01, 1.53524607e-01, 9.67221782e-02,
          5.55566140e-02, 4.55947593e-02, 3.47716957e-02, 6.74243122e-02,
          6.01336174e-02, 5.23090512e-02, 5.19491360e-02, 5.98097630e-02,
          9.13263038e-02, 8.82176384e-02, 8.71300548e-02, 6.90339729e-02,
          5.68312556e-02, 6.03508726e-02, 2.37386599e-02, 3.71159390e-02,
          2.41656695e-02, 1.16592487e-02, 0., 3.08322161e-02,
          2.25218497e-02, 3.05990595e-02, 4.19028774e-02, 2.18531210e-02,
          8.49811956e-02, 9.87507552e-02, 9.82945636e-02, 1.42013386e-01,
          6.49240315e-02, 7.00682402e-02, 6.01926558e-02, 7.11469576e-02,
          5.91867380e-02, 5.76052479e-02, 5.30725457e-02 ]
      - [ 9.73219275e-02, 1.58456504e-01, 1.31757364e-01, 9.27285254e-02,
          8.33795071e-02, 8.63333195e-02, 9.26386714e-02, 1.03736140e-01,
          1.40786007e-01, 1.08394496e-01, 9.85542014e-02, 1.20975122e-01,
          9.85409245e-02, 8.98271799e-02, 8.01907927e-02, 9.65188295e-02,
          1.27507314e-01, 9.01064351e-02, 9.52733606e-02, 1.16855159e-01,
          9.30156112e-02, 1.13969304e-01, 9.34230089e-02, 1.30949438e-01,
          1.26155093e-01, 8.32701996e-02, 6.08984418e-02, 4.09817323e-02,
          3.33781280e-02, 4.15026285e-02, 2.72822548e-02, 6.64555654e-02,
          5.49204648e-02, 5.09880930e-02, 3.71581800e-02, 4.15330343e-02,
          1.52720539e-02, 5.40628955e-02, 5.70028797e-02, 8.19829553e-02,
          1.25223011e-01, 8.28871354e-02, 6.47203997e-02, 5.03561795e-02,
          6.29704744e-02, 9.59692970e-02, 1.40588969e-01, 1.35058105e-01,
          1.20644845e-01, 1.02072828e-01, 1.42928958e-01, 7.16892853e-02,
          6.92041144e-02, 7.31452852e-02, 1.23946935e-01, 1.40452445e-01,
          1.10670418e-01, 8.41089636e-02, 4.79209535e-02, 2.63107903e-02,
          1.10739311e-02, 1.54322153e-02, 2.78416090e-02, 3.06722317e-02,
          8.71663839e-02, 6.27827644e-02, 5.88108376e-02, 1.00265585e-01,
          8.75048414e-02, 1.15985267e-01, 1.41123980e-01, 1.36368498e-01,
          1.22350998e-01, 1.00724064e-01, 6.32957891e-02, 8.68070871e-02,
          9.42325592e-02, 9.40432698e-02, 1.12940200e-01, 1.04690664e-01,
          1.01396687e-01, 6.01253510e-02, 3.96391861e-02, 4.66150083e-02,
          6.43974468e-02, 5.40330634e-02, 9.86169353e-02, 1.39314979e-01,
          1.01590522e-01, 7.36791417e-02, 7.97651783e-02, 6.62260428e-02,
          8.38678852e-02, 9.53962579e-02, 1.01452954e-01, 6.03662431e-02,
          1.29020810e-01, 1.58456624e-01, 8.76948014e-02, 5.62644415e-02,
          6.99919984e-02, 5.75478710e-02, 8.88437033e-02, 9.03002471e-02,
          9.28479433e-02, 4.08921726e-02, 4.19298038e-02, 1.82116982e-02,
          3.57344262e-02, 3.10510229e-02, 1.97634194e-02, 0.,
          2.77918130e-02, 1.76569317e-02, 2.51353160e-02, 1.69407651e-02,
          2.48193052e-02, 3.34523842e-02, 3.99589203e-02, 8.59521031e-02,
          1.54057682e-01, 1.20166436e-01, 8.70448276e-02, 5.55263422e-02,
          9.75555778e-02, 9.84745771e-02, 1.02800965e-01, 8.08866173e-02 ]
      - [ 7.72721022e-02, 1.31522968e-01, 1.51000723e-01, 9.44438055e-02,
          8.14139023e-02, 7.34280869e-02, 6.92978948e-02, 1.03397429e-01,
          1.07566148e-01, 1.32048100e-01, 8.23167041e-02, 1.09921478e-01,
          1.01400830e-01, 8.77918527e-02, 7.91969523e-02, 8.61924589e-02,
          1.29093900e-01, 1.34998232e-01, 1.22127473e-01, 9.26417708e-02,
          8.15967768e-02, 8.17711875e-02, 1.05488971e-01, 1.47003382e-01,
          1.10870652e-01, 1.06206104e-01, 6.98024705e-02, 4.64043692e-02,
          5.18399999e-02, 3.36862728e-02, 3.60870101e-02, 4.69861850e-02,
          3.79175730e-02, 2.77279038e-02, 2.43251137e-02, 2.43103951e-02,
          1.20936111e-02, 4.62220684e-02, 5.32807298e-02, 9.08264965e-02,
          1.09816156e-01, 9.69854817e-02, 9.22929272e-02, 5.53444177e-02,
          4.89655882e-02, 6.69703484e-02, 1.01782784e-01, 1.60361603e-01,
          1.87140614e-01, 1.13199688e-01, 9.43621546e-02, 7.29069337e-02,
          3.97465266e-02, 6.87940419e-02, 7.65216872e-02, 1.22664273e-01,
          1.26868144e-01, 7.81535655e-02, 3.28307971e-02, 5.45697361e-02,
          3.67068499e-02, 4.59216237e-02, 3.29586901e-02, 1.61749702e-02,
          1.01023301e-01, 7.92728737e-02, 5.24346530e-02, 7.87492618e-02,
          9.77343768e-02, 1.18434817e-01, 1.42851114e-01, 1.31920576e-01,
          1.05045393e-01, 6.31403029e-02, 5.15668429e-02, 7.26655051e-02,
          8.28662068e-02, 9.15370882e-02, 1.13547683e-01, 8.88266340e-02,
          1.01006635e-01, 4.17337008e-02, 4.25024852e-02, 4.03208770e-02,
          6.50943667e-02, 4.46412936e-02, 1.15244240e-01, 1.10328555e-01,
          1.19310349e-01, 7.33380020e-02, 7.51183257e-02, 6.96898252e-02,
          8.47881138e-02, 1.14633881e-01, 9.93855521e-02, 6.64691851e-02,
          1.46939561e-01, 1.75970465e-01, 8.92600864e-02, 9.24234018e-02,
          9.16557238e-02, 5.46799898e-02, 7.43373781e-02, 9.95453969e-02,
          7.89876208e-02, 3.92561443e-02, 1.76335853e-02, 3.73116396e-02,
          0., 2.24136990e-02, 3.58972028e-02, 6.04113303e-02,
          1.06699169e-01, 1.60522703e-02, 2.82075964e-02, 4.50925678e-02,
          4.86908257e-02, 7.19345510e-02, 1.04340851e-01, 1.07230477e-01,
          1.43932164e-01, 7.74898082e-02, 6.43371269e-02, 6.51522279e-02,
          8.99079069e-02, 1.03301667e-01, 8.32322091e-02, 9.39072892e-02 ]
      - [ 6.27985448e-02, 5.28553128e-02, 1.04412980e-01, 1.25013858e-01,
          1.22862265e-01, 8.21081996e-02, 1.03588983e-01, 8.01698193e-02,
          1.16608977e-01, 9.82138589e-02, 1.08682536e-01, 1.21146761e-01,
          1.27797753e-01, 1.21170275e-01, 1.00827895e-01, 1.44678637e-01,
          1.27691671e-01, 1.12300202e-01, 1.17066957e-01, 1.37544140e-01,
          7.81111941e-02, 9.76897925e-02, 1.67065471e-01, 1.55758694e-01,
          1.34710178e-01, 1.20076440e-01, 8.12965408e-02, 7.33271912e-02,
          8.64463001e-02, 6.36214018e-02, 3.94188017e-02, 3.84278558e-02,
          3.32769491e-02, 2.51014791e-02, 3.47204544e-02, 5.26633002e-02,
          6.19916916e-02, 6.91748932e-02, 8.83830041e-02, 8.11228156e-02,
          1.55933619e-01, 1.44337147e-01, 1.06875308e-01, 6.37013987e-02,
          9.41214412e-02, 1.31024718e-01, 1.13283046e-01, 9.04873759e-02,
          1.32286727e-01, 1.13582276e-01, 1.15555182e-01, 1.08176276e-01,
          7.59071186e-02, 9.97531638e-02, 1.39779776e-01, 1.23974174e-01,
          1.39057204e-01, 8.04212913e-02, 4.02770303e-02, 3.01234201e-02,
          4.62096557e-02, 2.60093175e-02, 4.44682874e-02, 4.22181040e-02,
          5.86295426e-02, 3.83205749e-02, 4.65418957e-02, 5.30846529e-02,
          5.95029928e-02, 7.11580515e-02, 1.03856362e-01, 1.50223464e-01,
          1.69153497e-01, 1.02587931e-01, 3.66773531e-02, 5.59954904e-02,
          5.09305410e-02, 4.75871935e-02, 4.34183404e-02, 5.96135445e-02,
          6.35051504e-02, 5.28410859e-02, 3.28677334e-02, 6.03734516e-02,
          6.18724599e-02, 6.68625683e-02, 7.20482767e-02, 1.38189256e-01,
          1.28870666e-01, 1.28413081e-01, 9.19094533e-02, 1.28020838e-01,
          1.36550575e-01, 1.02024965e-01, 5.34661748e-02, 3.72589007e-02,
          7.39358515e-02, 5.12277111e-02, 6.63468093e-02, 9.34849456e-02,
          6.71502650e-02, 5.65523021e-02, 3.88950258e-02, 3.60378511e-02,
          4.84896302e-02, 2.78215278e-02, 2.97107305e-02, 2.89695300e-02,
          1.21225612e-02, 2.03170106e-02, 1.48701249e-02, 3.21371146e-02,
          4.39359322e-02, 3.13101038e-02, 3.68498191e-02, 4.90938835e-02,
          6.00127280e-02, 1.01789832e-01, 8.02189931e-02, 3.62564176e-02,
          6.39173761e-02, 5.63411862e-02, 5.90977855e-02, 6.67284131e-02,
          7.83654898e-02, 7.69552365e-02, 9.52750444e-02, 7.58630931e-02 ]
      - [ 7.84339607e-02, 1.29547298e-01, 1.47431597e-01, 1.03263684e-01,
          8.94970819e-02, 7.10620433e-02, 8.84939283e-02, 1.08079180e-01,
          1.72164485e-01, 1.15286186e-01, 1.23760730e-01, 8.58195871e-02,
          1.08196855e-01, 7.12656379e-02, 8.04123208e-02, 1.16031885e-01,
          1.16652049e-01, 1.32282585e-01, 1.17789067e-01, 1.01143345e-01,
          9.65028778e-02, 9.10171717e-02, 1.66182369e-01, 1.42179728e-01,
          1.72274709e-01, 8.30832273e-02, 5.58137223e-02, 5.05209938e-02,
          1.39992852e-02, 5.66786788e-02, 3.21893580e-02, 1.36542544e-02,
          3.33047323e-02, 2.02319790e-02, 2.61527598e-02, 1.94498356e-02,
          3.10298465e-02, 4.83558737e-02, 8.15064162e-02, 1.36654213e-01,
          1.47921681e-01, 1.16869874e-01, 6.10556267e-02, 6.19700588e-02,
          8.57164711e-02, 1.21437170e-01, 1.51076704e-01, 1.31377846e-01,
          1.46436140e-01, 1.15237378e-01, 8.14838409e-02, 8.17124397e-02,
          5.47536276e-02, 1.07504696e-01, 1.24611922e-01, 1.59532592e-01,
          1.29179746e-01, 7.99659267e-02, 4.58670333e-02, 3.24066505e-02,
          4.34036218e-02, 2.72600278e-02, 2.36203782e-02, 0.,
          8.72880220e-02, 2.24236622e-02, 3.75914089e-02, 4.41520922e-02,
          8.03917870e-02, 1.21392481e-01, 1.84968114e-01, 1.25158712e-01,
          1.35586664e-01, 8.27540159e-02, 6.70465976e-02, 9.39824432e-02,
          6.01898842e-02, 5.29982112e-02, 5.63868731e-02, 5.89451455e-02,
          6.37328178e-02, 3.44139151e-02, 3.21519561e-02, 3.57579663e-02,
          4.31990996e-02, 5.25229722e-02, 9.37485248e-02, 9.97327194e-02,
          7.43241161e-02, 8.34316239e-02, 8.52707103e-02, 9.02298689e-02,
          1.02678537e-01, 8.08719322e-02, 5.91641217e-02, 4.92127463e-02,
          7.70345479e-02, 3.63924727e-02, 4.54181954e-02, 4.43168245e-02,
          3.72245498e-02, 8.04366991e-02, 1.00264646e-01, 9.31372344e-02,
          6.43651411e-02, 5.23957051e-02, 3.83590423e-02, 2.37236936e-02,
          2.23357007e-02, 0., 1.61371250e-02, 0., 3.83567810e-02, 0.,
          2.08429899e-02, 2.79326960e-02, 4.39836793e-02, 8.23568627e-02,
          1.38102353e-01, 1.48627713e-01, 1.51250511e-01, 8.86590183e-02,
          7.31582344e-02, 5.10835387e-02, 7.63126016e-02, 7.91486576e-02,
          5.37207909e-02, 5.43043800e-02 ]
      - [ 1.01409957e-01, 1.52656898e-01, 1.12858586e-01, 8.74134973e-02,
          6.91114515e-02, 8.46345723e-02, 9.49694589e-02, 9.49922651e-02,
          1.14901938e-01, 1.12025276e-01, 1.07729636e-01, 1.15128860e-01,
          9.49500501e-02, 5.97181208e-02, 8.23072419e-02, 7.66285881e-02,
          1.08076923e-01, 9.95303094e-02, 8.32101181e-02, 7.87076354e-02,
          7.96429217e-02, 1.42457604e-01, 1.24246500e-01, 1.28987536e-01,
          8.80737826e-02, 6.74141720e-02, 6.55564442e-02, 6.08873777e-02,
          5.91978356e-02, 5.79370894e-02, 6.05418086e-02, 6.72270805e-02,
          2.38031819e-02, 3.45177874e-02, 4.85009477e-02, 3.19608413e-02,
          2.95630004e-02, 7.69502744e-02, 8.93553123e-02, 9.46665853e-02,
          1.16226859e-01, 6.28873408e-02, 4.90428954e-02, 3.32411453e-02,
          4.19021063e-02, 7.19194338e-02, 1.66106969e-01, 1.57777518e-01,
          1.15010604e-01, 1.29214421e-01, 1.20068438e-01, 7.82318264e-02,
          8.18091780e-02, 9.68972892e-02, 1.33368611e-01, 1.17751218e-01,
          8.86750221e-02, 4.94115613e-02, 2.84529421e-02, 0.,
          1.93730853e-02, 1.31240711e-02, 1.38161592e-02, 2.72543896e-02,
          9.25148129e-02, 8.11173096e-02, 6.97628185e-02, 8.97998363e-02,
          7.69861937e-02, 8.11185911e-02, 1.32750645e-01, 1.19630776e-01,
          1.39887258e-01, 1.05854489e-01, 7.26891756e-02, 9.62571725e-02,
          8.70979875e-02, 1.08948022e-01, 8.42201263e-02, 1.04999982e-01,
          1.02873251e-01, 6.38051555e-02, 7.53587261e-02, 7.10619614e-02,
          6.50556013e-02, 5.61442934e-02, 1.00999199e-01, 1.13197781e-01,
          1.14619963e-01, 6.96667060e-02, 7.06165507e-02, 1.01267263e-01,
          1.22518219e-01, 1.13491274e-01, 5.93904182e-02, 1.00249559e-01,
          1.43904820e-01, 1.34162143e-01, 8.38599950e-02, 5.44252954e-02,
          5.84495440e-02, 8.65702555e-02, 1.05215982e-01, 1.05133511e-01,
          9.94280875e-02, 6.20239712e-02, 3.22888494e-02, 2.53183767e-02,
          2.62242462e-02, 2.06088424e-02, 7.59838102e-03, 0.,
          2.93411259e-02, 2.21678820e-02, 2.40234062e-02, 2.78624333e-02,
          2.21852921e-02, 1.99665967e-02, 8.24882463e-02, 1.32556245e-01,
          1.45004839e-01, 1.30346566e-01, 7.80278593e-02, 5.46638444e-02,
          7.08458275e-02, 9.49243903e-02, 9.95419919e-02, 9.03978497e-02 ]
      - [ 9.78152081e-02, 1.62957117e-01, 1.28657416e-01, 1.06448099e-01,
          6.52641430e-02, 7.35055804e-02, 1.10526778e-01, 1.15179300e-01,
          1.33277982e-01, 1.17616273e-01, 1.00976512e-01, 1.20245419e-01,
          1.00659721e-01, 8.94642621e-02, 8.36464763e-02, 9.26406458e-02,
          1.33784696e-01, 1.06567457e-01, 1.07704751e-01, 1.06728733e-01,
          9.16128308e-02, 1.14346541e-01, 9.62560847e-02, 1.02970697e-01,
          1.25476524e-01, 8.49535465e-02, 4.01586182e-02, 3.74877937e-02,
          6.33279160e-02, 2.86189411e-02, 4.44842726e-02, 5.21279089e-02,
          4.73881699e-02, 3.67059559e-02, 3.98621671e-02, 2.89565884e-02,
          4.22548987e-02, 5.60455099e-02, 6.23203218e-02, 7.52035305e-02,
          1.08886443e-01, 7.38890320e-02, 6.30777627e-02, 7.49294758e-02,
          7.62619153e-02, 6.81606829e-02, 1.46677047e-01, 1.34496719e-01,
          1.26157016e-01, 1.26101926e-01, 1.16934188e-01, 9.15964842e-02,
          6.70957342e-02, 9.45774913e-02, 1.14464574e-01, 1.29410923e-01,
          1.06861487e-01, 7.91740865e-02, 4.96494062e-02, 2.11099051e-02,
          2.70685162e-02, 2.81417929e-02, 2.65690461e-02, 3.48190591e-02,
          9.04277414e-02, 7.48566911e-02, 9.47204158e-02, 9.19172391e-02,
          1.03149623e-01, 1.23284549e-01, 1.20079286e-01, 1.44912958e-01,
          1.14405625e-01, 9.94292945e-02, 8.10948983e-02, 7.14272261e-02,
          9.61943865e-02, 1.09183118e-01, 1.14236072e-01, 1.06735721e-01,
          8.28057826e-02, 5.69968373e-02, 4.06088904e-02, 4.83299010e-02,
          3.54102813e-02, 7.77642354e-02, 8.71236026e-02, 1.24280788e-01,
          9.74640325e-02, 6.41633123e-02, 8.86747763e-02, 8.38622674e-02,
          9.32613909e-02, 1.07226536e-01, 7.52519742e-02, 6.29808977e-02,
          1.68210611e-01, 1.56986311e-01, 8.85915756e-02, 6.70017079e-02,
          5.89978844e-02, 5.84196784e-02, 8.99662077e-02, 7.61134699e-02,
          9.95424166e-02, 3.56595553e-02, 2.61293743e-02, 1.06954230e-02,
          2.09893789e-02, 1.99042894e-02, 7.96575844e-03, 0.,
          1.30870715e-02, 1.57566462e-02, 2.31247377e-02, 2.13246942e-02,
          1.60301700e-02, 3.40439193e-02, 3.59292552e-02, 7.49173239e-02,
          1.34145126e-01, 1.07747510e-01, 1.07089013e-01, 9.56653655e-02,
          7.77887553e-02, 8.43577012e-02, 8.33722502e-02, 9.28107798e-02 ]
      - [ 1.55078322e-01, 1.55234993e-01, 9.29583535e-02, 5.19182757e-02,
          5.21413088e-02, 7.56581575e-02, 9.04507115e-02, 1.00967325e-01,
          1.35742351e-01, 1.05491757e-01, 9.69141424e-02, 8.58760923e-02,
          1.21183410e-01, 1.48271814e-01, 1.59695446e-01, 1.82312295e-01,
          1.34215534e-01, 1.15131378e-01, 1.24404021e-01, 1.08918928e-01,
          8.98793787e-02, 1.06527574e-01, 1.18131213e-01, 8.81407708e-02,
          1.02999181e-01, 5.30620664e-02, 2.40946412e-02, 3.92877497e-02,
          1.13651007e-02, 4.53975722e-02, 5.65489195e-02, 7.15941414e-02,
          4.06213365e-02, 4.13388461e-02, 2.63256934e-02, 2.19689719e-02,
          3.09779700e-02, 4.61265743e-02, 7.59759471e-02, 8.97615999e-02,
          1.28352046e-01, 7.31570646e-02, 7.64294714e-02, 7.64326900e-02,
          1.66369006e-01, 1.68928117e-01, 1.70756206e-01, 1.75101295e-01,
          1.31495699e-01, 7.43519291e-02, 7.88526982e-02, 7.50181004e-02,
          5.72344735e-02, 6.73788786e-02, 1.23427317e-01, 9.54530463e-02,
          8.82726759e-02, 6.77404776e-02, 7.93355778e-02, 5.05735539e-02,
          2.25158185e-02, 3.81736904e-02, 2.95571722e-02, 1.87449753e-02,
          6.14437275e-02, 3.13429348e-02, 5.99451624e-02, 7.46264458e-02,
          9.55259204e-02, 1.50766239e-01, 1.65330857e-01, 1.36247069e-01,
          1.03079312e-01, 5.85841984e-02, 8.65836442e-02, 7.95673728e-02,
          8.19952711e-02, 8.52982849e-02, 7.64211714e-02, 5.62393554e-02,
          6.21772222e-02, 5.02879433e-02, 4.99051400e-02, 4.76978980e-02,
          3.77457626e-02, 4.31269147e-02, 4.59537357e-02, 9.52267945e-02,
          7.04154000e-02, 5.82337417e-02, 1.24918714e-01, 1.11277767e-01,
          8.96293893e-02, 7.52124339e-02, 6.50804564e-02, 3.78754400e-02,
          6.38408288e-02, 4.55946922e-02, 5.42101189e-02, 3.52496728e-02,
          6.75071925e-02, 1.02630526e-01, 1.27342775e-01, 7.66930431e-02,
          6.48474023e-02, 5.65501228e-02, 3.19287293e-02, 2.82570943e-02,
          3.11358161e-02, 3.24022286e-02, 4.26131226e-02, 3.51645350e-02,
          5.16430736e-02, 5.90425543e-02, 5.41886874e-02, 5.29348888e-02,
          6.09758347e-02, 1.06629752e-01, 1.15600154e-01, 1.28576681e-01,
          1.13896906e-01, 8.28611404e-02, 7.46791065e-02, 5.48491068e-02,
          6.85961023e-02, 3.73473726e-02, 5.91520183e-02, 5.74803427e-02 ]
      - [ 8.84698778e-02, 1.45998552e-01, 1.35437936e-01, 1.03645019e-01,
          7.26344138e-02, 8.62858295e-02, 8.72470364e-02, 1.15294263e-01,
          1.74998090e-01, 1.23582035e-01, 9.71278772e-02, 9.39346999e-02,
          9.81855989e-02, 1.10818259e-01, 8.47823918e-02, 1.01913661e-01,
          1.22020952e-01, 1.42616227e-01, 1.11983865e-01, 9.91252437e-02,
          8.84613395e-02, 1.18431114e-01, 1.19744778e-01, 1.65616751e-01,
          1.52185962e-01, 7.32273385e-02, 5.38803115e-02, 5.27644791e-02,
          3.65468264e-02, 3.70311737e-02, 0., 3.25785317e-02,
          4.43112925e-02, 3.42926942e-02, 1.92198642e-02, 2.42484398e-02,
          2.80019473e-02, 4.60333861e-02, 5.74397333e-02, 1.15812272e-01,
          1.78413942e-01, 1.05277464e-01, 6.90237358e-02, 4.21579778e-02,
          6.65036216e-02, 1.04566410e-01, 1.34023666e-01, 1.70273855e-01,
          1.51292682e-01, 1.01547018e-01, 1.05910078e-01, 8.59476924e-02,
          8.31036195e-02, 9.55664441e-02, 1.44144550e-01, 1.57997876e-01,
          1.21800296e-01, 6.49710521e-02, 1.14793023e-02, 2.82047223e-02,
          4.31586541e-02, 2.97286641e-02, 2.79891770e-02, 1.72422305e-02,
          7.97735378e-02, 4.56638187e-02, 4.92910407e-02, 4.30890843e-02,
          6.59251809e-02, 1.30239591e-01, 1.84404820e-01, 1.23927243e-01,
          1.45532370e-01, 6.94998354e-02, 7.40669519e-02, 8.73194635e-02,
          8.12434256e-02, 3.60442176e-02, 6.98789358e-02, 6.35381564e-02,
          7.57072866e-02, 2.90137287e-02, 3.16084847e-02, 5.68382777e-02,
          5.10379449e-02, 4.92734388e-02, 1.00843266e-01, 8.52429643e-02,
          7.14997947e-02, 8.80881175e-02, 1.00423627e-01, 8.29341859e-02,
          9.99655277e-02, 8.91937613e-02, 5.66060916e-02, 4.92833145e-02,
          7.25132674e-02, 3.99250351e-02, 3.14727984e-02, 7.27640390e-02,
          6.56733513e-02, 4.20490541e-02, 7.82639980e-02, 8.35773945e-02,
          6.14519045e-02, 3.86446156e-02, 3.91526259e-02, 2.72269174e-02,
          3.66269983e-02, 2.34499834e-02, 1.47450548e-02, 1.44344587e-02,
          3.52020301e-02, 1.29577750e-02, 1.78071130e-02, 2.81810295e-02,
          3.59909870e-02, 7.77744800e-02, 1.17466435e-01, 1.21259287e-01,
          1.35690957e-01, 1.19920127e-01, 9.18521434e-02, 5.50078563e-02,
          7.91456252e-02, 6.57655448e-02, 6.54433221e-02, 8.19095820e-02 ]
      - [ 8.33555385e-02, 1.37774080e-01, 1.43547013e-01, 1.15912266e-01,
          1.13775417e-01, 7.17587918e-02, 1.05246142e-01, 9.01082605e-02,
          1.44013822e-01, 1.43896639e-01, 9.56483781e-02, 1.14280663e-01,
          7.85531104e-02, 7.24713951e-02, 8.27987343e-02, 1.10767908e-01,
          1.37636170e-01, 1.27881721e-01, 1.24404043e-01, 9.13190544e-02,
          9.88422036e-02, 1.05063170e-01, 1.30757317e-01, 1.61122218e-01,
          1.32538572e-01, 8.05042312e-02, 5.07905520e-02, 4.25020494e-02,
          4.28106897e-02, 2.64683049e-02, 6.93280548e-02, 5.93730025e-02,
          2.52496675e-02, 2.18750741e-02, 3.67334411e-02, 4.85974737e-02,
          3.86040844e-02, 6.80219308e-02, 5.36698326e-02, 1.15273394e-01,
          1.90805897e-01, 8.22631568e-02, 5.98913357e-02, 4.75765727e-02,
          6.13868982e-02, 6.24845438e-02, 1.26721546e-01, 1.57877564e-01,
          1.48646012e-01, 9.98023525e-02, 1.04056269e-01, 1.17629513e-01,
          8.04518983e-02, 1.26615569e-01, 1.43221080e-01, 1.21369712e-01,
          1.30021334e-01, 7.48628974e-02, 7.49665126e-02, 2.60665081e-02,
          4.63885702e-02, 3.64110954e-02, 1.62301529e-02, 2.56414190e-02,
          7.48852119e-02, 4.81362790e-02, 3.77987884e-02, 6.13762513e-02,
          7.94822499e-02, 9.97979641e-02, 1.74384683e-01, 1.24801673e-01,
          1.33369491e-01, 9.99024361e-02, 7.42455423e-02, 5.47859073e-02,
          9.44202021e-02, 7.44276866e-02, 8.56357589e-02, 8.96717608e-02,
          8.54878798e-02, 4.77798656e-02, 4.37691137e-02, 5.44638857e-02,
          5.79823069e-02, 5.42270690e-02, 7.47791156e-02, 1.27593264e-01,
          9.52378809e-02, 8.38310495e-02, 8.46186653e-02, 1.04707673e-01,
          1.10466406e-01, 8.78121257e-02, 5.98953962e-02, 4.34829183e-02,
          6.46495223e-02, 3.68529446e-02, 3.13474387e-02, 4.93758656e-02,
          3.87372002e-02, 5.63420504e-02, 6.97804242e-02, 9.56674218e-02,
          5.11156283e-02, 3.83022018e-02, 4.75956909e-02, 2.42318027e-02,
          3.73844802e-02, 2.08161045e-02, 3.04638855e-02, 1.00799669e-02,
          2.76435632e-02, 1.15833730e-02, 1.39195137e-02, 3.46266814e-02,
          1.97895430e-02, 5.49537279e-02, 9.82629061e-02, 1.04980938e-01,
          1.28784165e-01, 1.12689294e-01, 8.76008570e-02, 8.45985264e-02,
          9.73105580e-02, 7.75114074e-02, 6.70703128e-02, 4.59914133e-02 ]
      - [ 1.05357543e-01, 1.14357464e-01, 1.49259925e-01, 9.98948514e-02,
          7.44771585e-02, 9.51073915e-02, 1.03959382e-01, 7.43824616e-02,
          1.49540842e-01, 1.33059397e-01, 9.89457667e-02, 9.99382138e-02,
          1.05173714e-01, 7.38664716e-02, 5.27551956e-02, 5.37879542e-02,
          9.87102613e-02, 1.02462575e-01, 1.29939333e-01, 1.07679516e-01,
          1.01201832e-01, 1.11591533e-01, 1.05613992e-01, 1.27788588e-01,
          1.49815992e-01, 7.76290372e-02, 7.19355121e-02, 4.70468365e-02,
          5.69668375e-02, 2.30894461e-02, 3.03710941e-02, 4.58489321e-02,
          4.65895236e-02, 5.13463840e-02, 4.72964756e-02, 4.10563760e-02,
          2.28762124e-02, 2.76743639e-02, 8.97972584e-02, 9.09902006e-02,
          1.08416870e-01, 9.28187221e-02, 6.27711564e-02, 6.08286299e-02,
          7.60536417e-02, 1.16971448e-01, 6.36252090e-02, 8.23467001e-02,
          1.15651615e-01, 1.10255033e-01, 8.68655816e-02, 8.99901912e-02,
          5.17576523e-02, 1.19355932e-01, 1.19436406e-01, 1.18510477e-01,
          1.20991409e-01, 8.61865357e-02, 7.50911832e-02, 4.64567840e-02,
          4.11061235e-02, 3.90051790e-02, 4.47763465e-02, 5.82127050e-02,
          8.94971043e-02, 5.26344739e-02, 7.45549724e-02, 8.00014213e-02,
          1.00409769e-01, 1.17212072e-01, 1.38782829e-01, 1.13516718e-01,
          1.37151480e-01, 1.03452481e-01, 6.57849610e-02, 7.08838627e-02,
          8.27873945e-02, 6.35493770e-02, 1.07400373e-01, 1.02756590e-01,
          9.80688930e-02, 6.20400012e-02, 3.86831388e-02, 4.41035479e-02,
          5.46440259e-02, 6.73515722e-02, 9.53463018e-02, 1.41533151e-01,
          1.43766269e-01, 9.06821340e-02, 9.27074328e-02, 8.45422596e-02,
          9.99697819e-02, 8.67783055e-02, 9.10949036e-02, 5.80007508e-02,
          1.53238937e-01, 1.80499718e-01, 1.34628087e-01, 1.08138137e-01,
          5.60134165e-02, 6.96126074e-02, 6.20984621e-02, 8.39994997e-02,
          7.58832172e-02, 2.30954010e-02, 2.04861034e-02, 1.55298263e-02,
          2.93156654e-02, 3.08142230e-02, 3.37600484e-02, 3.97921801e-02,
          5.00290878e-02, 2.95067020e-02, 3.42946425e-02, 2.61595994e-02,
          2.29046047e-02, 2.59468798e-02, 7.26578981e-02, 8.94204602e-02,
          8.53317976e-02, 8.99784341e-02, 1.14935689e-01, 7.72849470e-02,
          9.12475958e-02, 7.77486116e-02, 9.20338258e-02, 9.04639289e-02 ]
      - [ 8.60589221e-02, 1.56135678e-01, 1.20623082e-01, 1.14402384e-01,
          8.82719904e-02, 8.88014808e-02, 8.78518373e-02, 8.89610052e-02,
          1.17846616e-01, 1.29855350e-01, 1.05067432e-01, 9.10649449e-02,
          1.05562955e-01, 9.53317061e-02, 9.22318622e-02, 8.90836343e-02,
          1.44114166e-01, 1.09802403e-01, 1.17327854e-01, 1.35379031e-01,
          6.96414486e-02, 1.05445258e-01, 1.26955226e-01, 1.51729152e-01,
          1.09895408e-01, 6.86636418e-02, 4.78305630e-02, 6.02574460e-02,
          5.51808663e-02, 2.95767672e-02, 5.94908111e-02, 3.94053198e-02,
          3.20995189e-02, 1.31524755e-02, 2.74649616e-02, 4.41747867e-02,
          4.02182639e-02, 3.46225090e-02, 8.00006092e-02, 1.16388954e-01,
          1.43762574e-01, 1.00315012e-01, 5.94264828e-02, 4.02745754e-02,
          3.41505520e-02, 7.54679069e-02, 1.67231202e-01, 1.69557229e-01,
          1.51483789e-01, 1.48603275e-01, 7.35396966e-02, 7.91048855e-02,
          5.55197373e-02, 7.24741369e-02, 1.18627608e-01, 1.44198641e-01,
          1.39199331e-01, 3.97998057e-02, 5.48124462e-02, 3.54571603e-02,
          1.60757229e-02, 2.04904489e-02, 2.66375542e-02, 1.25277108e-02,
          8.87139514e-02, 7.26389959e-02, 9.45291445e-02, 1.05417095e-01,
          8.91202912e-02, 1.03989281e-01, 1.01638094e-01, 9.89660472e-02,
          1.55576915e-01, 9.72459018e-02, 7.02410340e-02, 9.21481699e-02,
          8.45646411e-02, 7.88230598e-02, 1.04505479e-01, 8.90560374e-02,
          8.99038836e-02, 3.83734182e-02, 3.82500775e-02, 4.50918376e-02,
          5.92246912e-02, 4.92283255e-02, 9.06258896e-02, 6.88780025e-02,
          9.80125964e-02, 8.24095011e-02, 7.21924677e-02, 8.60278755e-02,
          1.15203656e-01, 7.09474981e-02, 7.43863061e-02, 6.67721555e-02,
          1.34721845e-01, 1.02254733e-01, 5.10070473e-02, 4.77770381e-02,
          3.90241556e-02, 6.90268278e-02, 7.38934800e-02, 8.33530650e-02,
          1.11966729e-01, 3.11921034e-02, 2.72219144e-02, 1.48351546e-02,
          3.45793366e-02, 8.32098350e-03, 2.42480710e-02, 1.63567550e-02,
          2.61162724e-02, 1.29284617e-02, 1.21076824e-02, 2.83353534e-02,
          2.67184414e-02, 6.88190162e-02, 9.61079821e-02, 1.07913695e-01,
          1.23740949e-01, 1.27848148e-01, 8.56943727e-02, 7.70626739e-02,
          8.77360404e-02, 1.00569516e-01, 1.14999950e-01, 6.67496771e-02 ]
      - [ 8.08872432e-02, 7.50415847e-02, 1.83208302e-01, 1.08763784e-01,
          1.00306898e-01, 8.39519426e-02, 8.81677568e-02, 7.83718303e-02,
          1.26733288e-01, 9.98069569e-02, 1.02063864e-01, 1.03756331e-01,
          1.15914121e-01, 1.45348296e-01, 1.59768716e-01, 1.71454385e-01,
          1.49838075e-01, 1.16566174e-01, 1.13695107e-01, 7.85699487e-02,
          7.85684958e-02, 1.36299431e-01, 1.49775103e-01, 1.06828049e-01,
          9.33574513e-02, 5.89589439e-02, 3.87852043e-02, 6.04779497e-02,
          4.41951044e-02, 5.38545847e-02, 4.36846837e-02, 0.,
          2.47927662e-02, 1.77164264e-02, 3.86371687e-02, 4.12548222e-02,
          2.73469202e-02, 6.28358647e-02, 8.39724541e-02, 1.14059165e-01,
          1.31286711e-01, 1.24728583e-01, 8.29625428e-02, 7.41548091e-02,
          9.52029079e-02, 1.24048844e-01, 1.51916772e-01, 1.95380718e-01,
          1.54415518e-01, 1.26018122e-01, 7.10930824e-02, 7.54566565e-02,
          6.42458722e-02, 1.31866619e-01, 1.17587559e-01, 1.36746347e-01,
          1.25854000e-01, 6.08994626e-02, 3.25390995e-02, 2.52200291e-02,
          2.65375283e-02, 2.10584309e-02, 3.70414443e-02, 3.96660082e-02,
          7.20846355e-02, 2.42054816e-02, 4.18214500e-02, 5.43672182e-02,
          6.96332455e-02, 1.14265427e-01, 1.61483422e-01, 1.41942322e-01,
          1.42191157e-01, 5.31343408e-02, 5.45486137e-02, 4.90814447e-02,
          8.04258883e-02, 6.27246127e-02, 5.78415506e-02, 6.99097961e-02,
          8.96326751e-02, 4.92073186e-02, 3.49390693e-02, 5.06622232e-02,
          5.73385321e-02, 4.39956561e-02, 7.69820884e-02, 6.75527230e-02,
          7.24035949e-02, 6.18951060e-02, 9.69118848e-02, 9.71768051e-02,
          1.09479353e-01, 9.01979730e-02, 6.13537021e-02, 3.30962054e-02,
          8.65726471e-02, 6.29097670e-02, 5.42657450e-02, 7.62482435e-02,
          5.12024015e-02, 6.52235374e-02, 7.41170570e-02, 6.44668713e-02,
          6.32074997e-02, 5.09889200e-02, 4.26187776e-02, 4.02338915e-02,
          3.77510116e-02, 3.31516191e-02, 2.26167925e-02, 3.56531590e-02,
          3.95894758e-02, 3.31364460e-02, 1.89951193e-02, 3.60156670e-02,
          4.70632836e-02, 9.43724960e-02, 1.14263006e-01, 1.33595809e-01,
          1.16016135e-01, 8.65519643e-02, 5.90303540e-02, 5.25344834e-02,
          6.16300404e-02, 5.84919713e-02, 8.98380801e-02, 5.31393327e-02 ]
      - [ 1.51846096e-01, 1.59416974e-01, 6.71860203e-02, 9.46025401e-02,
          4.42408770e-02, 7.97817633e-02, 7.41917267e-02, 9.21063274e-02,
          1.50222152e-01, 1.06305502e-01, 1.04644671e-01, 9.14982930e-02,
          1.19722001e-01, 1.42162383e-01, 1.42531633e-01, 1.66741133e-01,
          1.44844428e-01, 1.15074076e-01, 1.13941930e-01, 1.13383591e-01,
          7.75927082e-02, 1.16411246e-01, 1.25887409e-01, 1.06155209e-01,
          1.01150654e-01, 4.01884057e-02, 3.49525362e-02, 3.96210738e-02,
          2.44545136e-02, 6.56209141e-02, 4.39958237e-02, 5.80264628e-02,
          3.07040792e-02, 3.01788487e-02, 1.68273672e-02, 3.17280218e-02,
          2.74999291e-02, 3.02653462e-02, 8.26345459e-02, 1.04263611e-01,
          1.32596835e-01, 8.79344344e-02, 5.43970391e-02, 7.79017434e-02,
          1.64808020e-01, 1.83168575e-01, 1.59352005e-01, 1.65189147e-01,
          1.35873482e-01, 8.54469538e-02, 8.19079876e-02, 6.64548427e-02,
          6.26410693e-02, 7.35430121e-02, 1.22213237e-01, 1.14398360e-01,
          9.28264335e-02, 8.98533911e-02, 6.71482608e-02, 3.44617702e-02,
          4.16496173e-02, 3.49709205e-02, 3.29466090e-02, 2.88839750e-02,
          7.27431998e-02, 6.03770204e-02, 4.37423699e-02, 7.77383894e-02,
          9.90675613e-02, 1.45035788e-01, 1.66974843e-01, 1.29541337e-01,
          1.01759829e-01, 8.36597607e-02, 6.99634179e-02, 6.96575344e-02,
          8.56390521e-02, 7.14799985e-02, 7.05194697e-02, 6.04027882e-02,
          5.62591255e-02, 3.37106027e-02, 5.44002429e-02, 5.98325506e-02,
          4.02092189e-02, 4.20041122e-02, 2.90032048e-02, 7.73008987e-02,
          8.72781426e-02, 6.39955029e-02, 1.05771407e-01, 1.20153368e-01,
          1.10335313e-01, 7.00561106e-02, 5.88186011e-02, 2.86618639e-02,
          6.78383335e-02, 5.35172969e-02, 5.68322800e-02, 4.53986414e-02,
          6.60347566e-02, 1.07259549e-01, 1.13766812e-01, 8.60889331e-02,
          4.29737456e-02, 5.13757691e-02, 3.51817906e-02, 3.98459509e-02,
          3.61834392e-02, 3.15586366e-02, 3.73279005e-02, 3.97247523e-02,
          6.02121279e-02, 3.98693606e-02, 4.72515039e-02, 6.33119717e-02,
          6.03444688e-02, 1.03401303e-01, 1.18038639e-01, 1.21149495e-01,
          1.16941459e-01, 8.40185136e-02, 8.19433033e-02, 6.08526319e-02,
          5.52301705e-02, 4.81408089e-02, 3.66800465e-02, 4.91094030e-02 ]
      - [ 6.72104061e-02, 8.79050121e-02, 1.45890102e-01, 1.00850523e-01,
          9.16292891e-02, 5.56411855e-02, 1.01010554e-01, 9.73851755e-02,
          1.43901169e-01, 1.30360797e-01, 1.30842999e-01, 9.60999057e-02,
          6.93142414e-02, 4.10063453e-02, 5.55706955e-02, 4.09225635e-02,
          9.52548534e-02, 7.02596083e-02, 9.88094434e-02, 1.49347365e-01,
          1.25707000e-01, 1.10659890e-01, 9.48527530e-02, 1.49080679e-01,
          1.41560361e-01, 1.20147578e-01, 8.20464641e-02, 4.25157547e-02,
          3.22584882e-02, 3.47292610e-02, 4.94151637e-02, 2.02732049e-02,
          4.05836254e-02, 2.98102908e-02, 2.62290444e-02, 2.87995003e-02,
          2.42262185e-02, 3.28996070e-02, 6.43941909e-02, 1.21187240e-01,
          1.04250133e-01, 8.51313397e-02, 5.61227538e-02, 4.46783677e-02,
          6.46972060e-02, 5.04783168e-02, 8.73421654e-02, 6.19279742e-02,
          9.15860832e-02, 5.78982458e-02, 6.89295307e-02, 8.16793069e-02,
          7.69245699e-02, 7.73186758e-02, 8.30749869e-02, 9.67860594e-02,
          1.34902462e-01, 1.05077565e-01, 6.84811547e-02, 4.35771868e-02,
          3.94254215e-02, 3.54222208e-02, 3.50273810e-02, 1.72007717e-02,
          1.20151713e-01, 1.12468705e-01, 9.29757804e-02, 1.11035839e-01,
          1.06082454e-01, 1.05813943e-01, 9.40280780e-02, 1.24068886e-01,
          1.48372039e-01, 7.96560347e-02, 7.16267526e-02, 9.97355506e-02,
          8.82474333e-02, 9.76955295e-02, 8.73434693e-02, 9.01423395e-02,
          7.23072514e-02, 1.51267964e-02, 5.90672195e-02, 7.88438544e-02,
          8.17410126e-02, 8.31098035e-02, 1.25527963e-01, 1.62178949e-01,
          1.36611506e-01, 1.15542173e-01, 8.78466144e-02, 8.90058056e-02,
          1.28665462e-01, 1.06475808e-01, 8.59192386e-02, 8.22970718e-02,
          1.47220045e-01, 1.56736255e-01, 1.61535770e-01, 1.02297142e-01,
          7.38536716e-02, 6.12279624e-02, 8.24721009e-02, 1.21061161e-01,
          1.11123942e-01, 5.42475134e-02, 4.28290479e-02, 1.39833465e-02,
          4.60613780e-02, 2.50156000e-02, 3.57935615e-02, 1.93274170e-02,
          4.35307659e-02, 2.43930444e-02, 1.87005475e-02, 3.43094580e-02,
          0., 4.05636802e-02, 4.16982770e-02, 6.48670569e-02,
          9.87579525e-02, 8.17497373e-02, 5.37348315e-02, 5.70668243e-02,
          5.53319678e-02, 8.41870680e-02, 1.00354657e-01, 1.32230818e-01 ]
      - [ 5.18590137e-02, 7.19730109e-02, 9.43588316e-02, 7.67191425e-02,
          6.75963908e-02, 9.04173478e-02, 9.63624492e-02, 8.07181448e-02,
          1.53047413e-01, 1.31233707e-01, 1.19032077e-01, 1.02222048e-01,
          5.93388826e-02, 5.11619747e-02, 4.74527888e-02, 3.13548334e-02,
          7.90077001e-02, 6.81351498e-02, 1.08102337e-01, 8.85463506e-02,
          9.73871052e-02, 1.26943812e-01, 1.27233535e-01, 1.02636881e-01,
          1.41610771e-01, 5.88352606e-02, 5.01664951e-02, 4.19003330e-02,
          2.73304451e-02, 1.67687256e-02, 2.67255530e-02, 3.55183110e-02,
          5.00604734e-02, 3.98042388e-02, 4.15466055e-02, 4.49032485e-02,
          2.38434374e-02, 2.93731038e-02, 3.39702405e-02, 9.13816541e-02,
          1.14889376e-01, 7.11903796e-02, 6.59376085e-02, 6.00843504e-02,
          4.87259589e-02, 3.44686545e-02, 5.18167987e-02, 4.94348072e-02,
          7.34546483e-02, 9.04130712e-02, 8.96407217e-02, 8.62669274e-02,
          8.85055587e-02, 9.32918265e-02, 1.13692164e-01, 1.18789151e-01,
          1.34997249e-01, 7.85763264e-02, 6.22436963e-02, 3.22791003e-02,
          2.17007194e-02, 2.00338233e-02, 2.56173890e-02, 4.00245413e-02,
          1.44837245e-01, 1.21805720e-01, 1.46471828e-01, 1.24097839e-01,
          1.11243218e-01, 1.03110924e-01, 1.28889352e-01, 8.91605690e-02,
          1.16193570e-01, 9.47138444e-02, 7.48976469e-02, 3.32964845e-02,
          5.81869557e-02, 1.01220556e-01, 1.41304493e-01, 6.98287189e-02,
          5.83553873e-02, 4.71970700e-02, 5.36220260e-02, 5.86720221e-02,
          5.17835766e-02, 4.87598069e-02, 6.41633198e-02, 1.41306058e-01,
          1.84383526e-01, 1.33922338e-01, 9.43893641e-02, 7.86035210e-02,
          6.42686933e-02, 8.87409672e-02, 8.30042735e-02, 1.08087718e-01,
          1.74609646e-01, 2.24843830e-01, 1.51445359e-01, 9.28180143e-02,
          7.12831169e-02, 6.66683838e-02, 7.35104308e-02, 1.10513873e-01,
          8.05184618e-02, 3.32177021e-02, 2.29476020e-02, 2.22520828e-02,
          4.36808392e-02, 2.19714995e-02, 2.19016373e-02, 4.42618169e-02,
          7.01435059e-02, 1.07283100e-01, 1.42370954e-01, 1.03160240e-01,
          5.76049685e-02, 5.46303988e-02, 5.79357371e-02, 9.33372900e-02,
          1.28009647e-01, 5.74113652e-02, 9.53561217e-02, 9.15019810e-02,
          7.00547695e-02, 5.76589480e-02, 7.25600049e-02, 7.58603811e-02 ]
      - [ 9.09965262e-02, 1.33246541e-01, 1.53403461e-01, 1.12538725e-01,
          6.15352094e-02, 8.87754560e-02, 7.26410523e-02, 8.08503032e-02,
          1.24991030e-01, 1.16468631e-01, 1.15539297e-01, 9.40875486e-02,
          1.24297634e-01, 4.72306162e-02, 9.91544724e-02, 9.37976390e-02,
          1.15234077e-01, 1.15212202e-01, 1.23190373e-01, 9.59322974e-02,
          7.69187734e-02, 1.08983226e-01, 1.58887312e-01, 1.36696085e-01,
          1.23652451e-01, 8.85263085e-02, 6.96674511e-02, 4.99312058e-02,
          5.95789999e-02, 2.75851451e-02, 4.53102775e-02, 3.58191989e-02,
          1.76793952e-02, 3.35538015e-02, 4.22502607e-02, 3.74765135e-02,
          4.85529639e-02, 3.36005613e-02, 5.03217243e-02, 1.22733586e-01,
          1.21457197e-01, 8.28879029e-02, 7.66178295e-02, 5.74065894e-02,
          5.32615781e-02, 7.52641857e-02, 1.33936793e-01, 1.99064136e-01,
          1.51082277e-01, 1.08955897e-01, 1.03020296e-01, 8.04914907e-02,
          5.60274497e-02, 1.02315359e-01, 1.18319988e-01, 1.00535259e-01,
          1.21468276e-01, 6.39414191e-02, 4.64887433e-02, 4.00503613e-02,
          2.44695321e-02, 3.25213037e-02, 0., 2.80008912e-02,
          9.01939645e-02, 6.99977204e-02, 6.77057207e-02, 8.42973813e-02,
          9.28993821e-02, 1.03146002e-01, 1.30688086e-01, 1.34916410e-01,
          1.23366550e-01, 6.42611161e-02, 7.52499700e-02, 5.76389804e-02,
          1.04482308e-01, 9.38311368e-02, 9.13924277e-02, 1.10489711e-01,
          7.07879886e-02, 5.96660636e-02, 3.88728417e-02, 4.57779691e-02,
          5.72562218e-02, 7.04848096e-02, 1.00192726e-01, 1.09685898e-01,
          9.80839953e-02, 8.40256512e-02, 6.44908100e-02, 8.69520083e-02,
          1.04867369e-01, 9.28425565e-02, 8.11624974e-02, 7.46864825e-02,
          1.25946432e-01, 1.27271578e-01, 7.43382648e-02, 8.45942423e-02,
          7.79251382e-02, 5.23208156e-02, 4.65666875e-02, 8.99974704e-02,
          1.12759657e-01, 4.45423834e-02, 3.31523120e-02, 2.73604766e-02,
          3.42597067e-02, 2.22181808e-02, 7.62505457e-03, 1.90126114e-02,
          3.78815532e-02, 1.10824648e-02, 2.75133159e-02, 2.42201518e-02,
          4.81302366e-02, 5.32382689e-02, 6.05599657e-02, 1.16523042e-01,
          1.16552159e-01, 1.25994891e-01, 1.05887361e-01, 7.85801932e-02,
          8.51824731e-02, 1.05745532e-01, 8.87668654e-02, 8.49062353e-02 ]
      - [ 9.88243073e-02, 1.57840863e-01, 1.26427501e-01, 9.57432762e-02,
          8.68696496e-02, 8.68248567e-02, 8.46939683e-02, 1.26840800e-01,
          1.32827416e-01, 1.07987918e-01, 8.87367129e-02, 1.26367465e-01,
          9.93001312e-02, 9.41903144e-02, 8.72663707e-02, 9.78921279e-02,
          1.15097128e-01, 1.05506137e-01, 9.14991051e-02, 1.12943560e-01,
          1.12964779e-01, 9.26955715e-02, 1.12358108e-01, 1.26977146e-01,
          1.40135244e-01, 9.35808197e-02, 4.52654585e-02, 5.05491383e-02,
          4.47590910e-02, 3.60162780e-02, 5.06652221e-02, 5.78959361e-02,
          4.39675637e-02, 3.39428633e-02, 3.10262162e-02, 5.16106263e-02,
          4.59868722e-02, 3.81180905e-02, 7.21231923e-02, 8.36644992e-02,
          9.87301245e-02, 8.34562927e-02, 4.99553978e-02, 6.52252361e-02,
          8.43175203e-02, 9.31224674e-02, 1.32541507e-01, 1.22127965e-01,
          1.24518812e-01, 1.15720890e-01, 1.16571367e-01, 9.87834707e-02,
          7.62687400e-02, 8.91369581e-02, 1.09631836e-01, 1.28125280e-01,
          9.55458358e-02, 7.62078390e-02, 4.81294356e-02, 3.16335037e-02,
          3.01376861e-02, 2.60564107e-02, 4.28945757e-02, 1.99915934e-02,
          9.79378149e-02, 8.14215243e-02, 8.14019740e-02, 9.81418714e-02,
          7.95061365e-02, 1.17791720e-01, 1.49993241e-01, 1.04153804e-01,
          1.37845173e-01, 8.98714513e-02, 7.44028464e-02, 9.26082358e-02,
          8.32725540e-02, 8.61111656e-02, 1.15876026e-01, 1.16822712e-01,
          8.53133127e-02, 4.96654101e-02, 3.16184498e-02, 3.91084217e-02,
          7.41672739e-02, 3.67189907e-02, 1.28989384e-01, 1.07735157e-01,
          1.15532063e-01, 8.48336667e-02, 7.19726309e-02, 5.82097471e-02,
          1.09437250e-01, 1.27286866e-01, 6.48313761e-02, 6.71368167e-02,
          1.67526364e-01, 1.46257222e-01, 1.07129604e-01, 6.39232248e-02,
          6.82874620e-02, 5.43394722e-02, 9.23715383e-02, 8.09317604e-02,
          8.21132511e-02, 4.47193868e-02, 3.35230753e-02, 1.84388421e-02,
          1.35102179e-02, 1.00860754e-02, 0., 1.26223164e-02,
          1.44290924e-02, 7.90516101e-03, 1.98493078e-02, 2.85288505e-02,
          0., 2.01909058e-02, 3.58550437e-02, 6.06643222e-02,
          1.16713978e-01, 1.22536287e-01, 1.09982274e-01, 5.95068000e-02,
          9.23635513e-02, 9.72873569e-02, 7.46930093e-02, 9.54673514e-02 ]
      - [ 1.00617468e-01, 1.29469723e-01, 1.45708397e-01, 1.04447030e-01,
          8.25508162e-02, 8.85082707e-02, 9.17265192e-02, 8.90307203e-02,
          1.12472646e-01, 1.22661673e-01, 1.26640439e-01, 1.16184838e-01,
          1.09890856e-01, 6.29683286e-02, 5.16778715e-02, 6.51877224e-02,
          1.17579356e-01, 1.09677643e-01, 1.18127346e-01, 1.15792990e-01,
          1.01194121e-01, 1.00815818e-01, 1.21876672e-01, 1.03530690e-01,
          1.41195491e-01, 7.86032081e-02, 6.41929433e-02, 3.33326347e-02,
          3.83794121e-02, 4.21491563e-02, 4.82227169e-02, 4.45986278e-02,
          2.92605963e-02, 1.04047935e-02, 2.00029593e-02, 4.62648347e-02,
          2.49279309e-02, 5.10878228e-02, 6.40098453e-02, 1.19567126e-01,
          1.04985811e-01, 5.79281673e-02, 5.15894219e-02, 3.53266671e-02,
          5.75664639e-02, 3.94410044e-02, 8.19447935e-02, 9.99925062e-02,
          1.50575727e-01, 9.33796018e-02, 1.08541101e-01, 1.11332327e-01,
          8.64709467e-02, 9.45134684e-02, 1.03646353e-01, 1.03960976e-01,
          1.13308951e-01, 7.44334459e-02, 4.46961932e-02, 4.18410897e-02,
          3.24250050e-02, 3.15082110e-02, 2.48890258e-02, 2.00788956e-02,
          9.24294591e-02, 6.93103895e-02, 8.13765079e-02, 7.73357376e-02,
          1.09191850e-01, 1.01643443e-01, 1.28958672e-01, 1.19760804e-01,
          1.36123464e-01, 8.16435367e-02, 5.41123301e-02, 8.19321945e-02,
          7.91985467e-02, 9.90694091e-02, 1.10009253e-01, 1.13739826e-01,
          9.47270542e-02, 6.37938604e-02, 4.19157632e-02, 6.16974235e-02,
          3.57435867e-02, 3.65646966e-02, 8.30962211e-02, 1.33285031e-01,
          1.32005841e-01, 9.42568332e-02, 7.51258954e-02, 7.27247968e-02,
          1.10923037e-01, 9.07509401e-02, 1.06447451e-01, 6.72385991e-02,
          1.76112369e-01, 2.12958500e-01, 8.41477290e-02, 5.51646426e-02,
          6.23450615e-02, 6.12741783e-02, 5.14375158e-02, 8.73439386e-02,
          1.24137543e-01, 8.53402466e-02, 3.18677835e-02, 2.49972194e-02,
          3.40536945e-02, 1.30327214e-02, 2.33926941e-02, 2.83097774e-02,
          4.58530001e-02, 3.88586260e-02, 3.82656343e-02, 4.00428325e-02,
          3.68170664e-02, 4.37131748e-02, 4.40735780e-02, 7.55664557e-02,
          1.39150783e-01, 9.66607407e-02, 1.05882823e-01, 9.58446413e-02,
          1.08299665e-01, 8.58792290e-02, 8.83340165e-02, 9.09431130e-02 ]
      - [ 7.05101863e-02, 6.66495413e-02, 9.59002227e-02, 9.94675010e-02,
          7.20822439e-02, 9.38044488e-02, 7.78261498e-02, 1.12222016e-01,
          1.15603842e-01, 1.14532106e-01, 1.24880388e-01, 9.52873379e-02,
          6.61306009e-02, 4.20572944e-02, 4.82523888e-02, 3.93801890e-02,
          8.35449696e-02, 7.47873709e-02, 1.02234803e-01, 1.05617933e-01,
          9.26976353e-02, 1.07503831e-01, 1.16320737e-01, 1.44752204e-01,
          1.24945864e-01, 5.47364019e-02, 4.69517186e-02, 3.28037143e-02,
          3.77896018e-02, 3.67413200e-02, 3.47929746e-02, 3.57555225e-02,
          3.62885036e-02, 4.64041121e-02, 3.34367193e-02, 3.84048447e-02,
          3.20767760e-02, 2.67162900e-02, 4.10182625e-02, 9.66474041e-02,
          1.09296232e-01, 8.70466307e-02, 6.92381933e-02, 6.42911792e-02,
          6.42499179e-02, 3.56813110e-02, 5.47345541e-02, 5.13280220e-02,
          7.63733312e-02, 7.77932629e-02, 1.10559955e-01, 7.80431926e-02,
          7.39646181e-02, 7.72974566e-02, 1.04920998e-01, 1.11033037e-01,
          1.52046204e-01, 1.02913044e-01, 5.31442650e-02, 2.04827972e-02,
          2.35877093e-02, 1.13361422e-02, 2.10159570e-02, 1.30922273e-02,
          1.41816840e-01, 1.28196895e-01, 1.68460980e-01, 1.24581121e-01,
          1.06740594e-01, 8.52975249e-02, 8.42766836e-02, 1.19337507e-01,
          1.32745817e-01, 8.19042921e-02, 7.72798359e-02, 4.49996404e-02,
          7.79579058e-02, 1.22813396e-01, 8.38956982e-02, 7.53529444e-02,
          6.41172454e-02, 4.96676788e-02, 3.66761126e-02, 7.76625350e-02,
          7.48231784e-02, 5.98601513e-02, 5.24926968e-02, 1.30566269e-01,
          1.84082091e-01, 1.44992024e-01, 6.79470375e-02, 9.32685211e-02,
          7.90349096e-02, 9.84755531e-02, 7.73012787e-02, 7.46584684e-02,
          1.67039722e-01, 2.21964851e-01, 1.70448706e-01, 1.06463261e-01,
          8.13642293e-02, 7.56177083e-02, 6.81160837e-02, 1.02641404e-01,
          7.60533214e-02, 3.29846144e-02, 3.96638028e-02, 1.18695553e-02,
          2.90674027e-02, 0., 2.69620419e-02, 0., 6.13580942e-02,
          7.05744699e-02, 1.34184241e-01, 1.38839394e-01, 7.83581808e-02,
          3.07130776e-02, 4.93518747e-02, 7.58218989e-02, 1.26084447e-01,
          1.01432323e-01, 7.67263174e-02, 6.42259121e-02, 7.34438822e-02,
          6.93922192e-02, 7.18700364e-02, 8.21137056e-02 ]
      - [ 9.77971926e-02, 1.54324681e-01, 1.28038704e-01, 9.38515142e-02,
          2.74108462e-02, 5.63910082e-02, 9.92123932e-02, 1.08987302e-01,
          1.56935513e-01, 7.94067606e-02, 7.59527013e-02, 6.78727105e-02,
          8.37763175e-02, 9.95961651e-02, 1.03804126e-01, 1.03036374e-01,
          1.25800565e-01, 1.24507517e-01, 1.28196090e-01, 8.27834383e-02,
          9.96166319e-02, 1.28345951e-01, 1.34029314e-01, 1.26593634e-01,
          9.23718214e-02, 6.56993762e-02, 6.65958971e-02, 4.46323417e-02,
          4.62401547e-02, 5.46348393e-02, 3.49153355e-02, 7.11684003e-02,
          3.35763395e-02, 1.96042396e-02, 2.08451878e-02, 1.02790855e-02,
          1.36668039e-02, 4.18213792e-02, 4.57839519e-02, 8.45556930e-02,
          1.36837646e-01, 7.30652735e-02, 6.06319457e-02, 5.95905222e-02,
          6.95184022e-02, 1.07927993e-01, 2.10152969e-01, 2.22039297e-01,
          1.33142099e-01, 8.20143670e-02, 6.53887764e-02, 4.96591516e-02,
          3.42575833e-02, 6.67455047e-02, 9.78569910e-02, 1.08561538e-01,
          8.92081708e-02, 6.58134148e-02, 5.21157719e-02, 1.63434278e-02,
          3.17783132e-02, 9.80924722e-03, 2.57720426e-02, 1.18489284e-02,
          7.96582699e-02, 7.98841193e-02, 5.49967773e-02, 8.02748129e-02,
          8.24063197e-02, 1.17975757e-01, 1.48898095e-01, 1.14383176e-01,
          1.31981418e-01, 6.18319549e-02, 6.27733916e-02, 7.48984888e-02,
          1.17561989e-01, 9.12771150e-02, 1.15276672e-01, 9.52409580e-02,
          7.69843832e-02, 6.86279088e-02, 5.17924763e-02, 4.84148264e-02,
          4.66805026e-02, 5.17622195e-02, 8.91875550e-02, 8.14409107e-02,
          1.01311632e-01, 9.14224684e-02, 9.70953107e-02, 1.15785591e-01,
          1.24571204e-01, 1.02018215e-01, 8.57517347e-02, 6.60167560e-02,
          1.17651835e-01, 1.09184369e-01, 1.03027634e-01, 1.04356274e-01,
          6.04071245e-02, 9.75130722e-02, 1.07736014e-01, 7.43947178e-02,
          9.94115323e-02, 4.73749787e-02, 5.72085716e-02, 1.36668039e-02,
          3.96308750e-02, 2.14375611e-02, 3.28183360e-02, 2.85903644e-02,
          3.25470679e-02, 3.16160396e-02, 3.86979543e-02, 5.73947243e-02,
          3.38107347e-02, 4.91303951e-02, 1.22166216e-01, 1.33310214e-01,
          1.38613686e-01, 8.92701671e-02, 5.29149771e-02, 4.19231281e-02,
          5.43626286e-02, 7.92139471e-02, 8.28034803e-02, 7.01959580e-02 ]
      - [ 9.78184715e-02, 1.47222430e-01, 9.69918519e-02, 9.75415632e-02,
          6.64386451e-02, 5.94985634e-02, 1.04293995e-01, 8.90479833e-02,
          1.34932578e-01, 9.11305323e-02, 1.07485235e-01, 6.09120876e-02,
          1.05115049e-01, 1.04955129e-01, 1.09429307e-01, 1.07841350e-01,
          1.46588281e-01, 9.89903212e-02, 1.19933419e-01, 1.01427905e-01,
          7.57508278e-02, 8.62339884e-02, 1.05990008e-01, 1.09976128e-01,
          8.63835216e-02, 9.03088897e-02, 5.08089401e-02, 5.53844497e-02,
          4.07462008e-02, 3.08867451e-02, 7.23584369e-02, 5.48244156e-02,
          2.21774485e-02, 1.50404358e-02, 0., 2.12710071e-02,
          2.69499775e-02, 2.45268028e-02, 6.33631423e-02, 9.92895514e-02,
          1.15540706e-01, 6.90926164e-02, 4.40012738e-02, 3.46396677e-02,
          1.15891270e-01, 1.72122836e-01, 1.62529498e-01, 2.11627036e-01,
          1.65056869e-01, 1.02925591e-01, 6.95211142e-02, 7.06671849e-02,
          4.58767489e-02, 7.50967637e-02, 9.58337113e-02, 1.02812700e-01,
          9.28285271e-02, 6.18563145e-02, 4.44341339e-02, 2.53475364e-02,
          2.59079374e-02, 1.52332000e-02, 1.39468852e-02, 1.67377312e-02,
          1.07753448e-01, 5.39179668e-02, 6.15128838e-02, 7.84627795e-02,
          8.61726627e-02, 1.23005673e-01, 1.47569731e-01, 1.33250877e-01,
          1.19507849e-01, 2.91030947e-02, 7.28557557e-02, 9.39972177e-02,
          1.07709989e-01, 1.01361573e-01, 1.05543084e-01, 1.04511097e-01,
          1.00165792e-01, 5.92023209e-02, 5.19650578e-02, 3.95877026e-02,
          4.30633724e-02, 7.94548020e-02, 7.41244033e-02, 7.55565390e-02,
          7.74353594e-02, 4.72926982e-02, 1.11176051e-01, 1.15316235e-01,
          1.09665252e-01, 1.05703287e-01, 8.23480338e-02, 6.35669604e-02,
          1.48094729e-01, 1.27489597e-01, 1.02879927e-01, 6.30290806e-02,
          6.57636002e-02, 7.91467279e-02, 8.22950155e-02, 1.01467244e-01,
          9.00536627e-02, 5.99333830e-02, 3.76596227e-02, 4.16264497e-02,
          1.91481709e-02, 2.11655535e-02, 1.50336828e-02, 2.59674247e-02,
          5.01152985e-02, 4.40444462e-02, 4.12379839e-02, 2.95865592e-02,
          4.19825539e-02, 5.10623343e-02, 1.08465180e-01, 1.35168195e-01,
          1.48153484e-01, 9.20339376e-02, 5.96797056e-02, 5.90399243e-02,
          7.27113038e-02, 5.56335039e-02, 9.94995758e-02, 9.25159901e-02 ]
      - [ 9.11851525e-02, 1.46726668e-01, 1.12534933e-01, 8.02800134e-02,
          6.57182112e-02, 7.31303692e-02, 9.43964645e-02, 8.22183639e-02,
          1.20023832e-01, 1.13963082e-01, 1.00429200e-01, 7.26502091e-02,
          1.03067003e-01, 9.47547480e-02, 1.08899370e-01, 1.12683065e-01,
          1.51975945e-01, 1.10534757e-01, 1.03085220e-01, 9.61500555e-02,
          6.24096319e-02, 1.21985689e-01, 9.37495753e-02, 1.17299460e-01,
          1.01345293e-01, 8.11303258e-02, 5.66827357e-02, 4.98903878e-02,
          4.45738286e-02, 4.26475070e-02, 4.42340598e-02, 7.41537288e-02,
          2.28767637e-02, 1.26260966e-02, 1.06172394e-02, 1.43354554e-02,
          1.89638063e-02, 1.42566944e-02, 4.13251258e-02, 7.10042492e-02,
          1.26769617e-01, 7.15138912e-02, 5.77354059e-02, 6.08699583e-02,
          7.77944252e-02, 1.64948910e-01, 2.10132807e-01, 1.80484831e-01,
          1.70858160e-01, 1.06946170e-01, 5.88282458e-02, 6.22354634e-02,
          5.02655134e-02, 6.18416481e-02, 9.74366441e-02, 1.12862200e-01,
          8.58469307e-02, 6.97651356e-02, 1.77853629e-02, 2.28600074e-02,
          2.25014519e-02, 2.17331797e-02, 5.52874943e-03, 9.35578812e-03,
          9.25969034e-02, 6.51293546e-02, 6.47856444e-02, 7.14973509e-02,
          9.47957113e-02, 1.23133481e-01, 1.47178307e-01, 1.29701316e-01,
          1.06411040e-01, 6.18844517e-02, 6.96663782e-02, 1.01011872e-01,
          1.10384852e-01, 1.01055771e-01, 1.07716992e-01, 1.07062027e-01,
          8.09143186e-02, 6.46472648e-02, 4.60107364e-02, 6.50462285e-02,
          4.43175659e-02, 5.96873537e-02, 7.94633105e-02, 9.57452133e-02,
          7.30382726e-02, 6.33789301e-02, 1.02379970e-01, 9.07179415e-02,
          1.16139002e-01, 9.75507423e-02, 8.65711048e-02, 8.26760903e-02,
          1.59168810e-01, 1.44407794e-01, 8.38666633e-02, 7.49786198e-02,
          4.67845388e-02, 6.15302138e-02, 9.98180881e-02, 1.12812802e-01,
          7.61124045e-02, 5.97638562e-02, 2.74321381e-02, 3.08440495e-02,
          3.68728116e-02, 2.82986425e-02, 1.76641941e-02, 2.90307589e-02,
          4.39147837e-02, 3.59476320e-02, 3.35515551e-02, 1.38340201e-02,
          4.17768657e-02, 4.81087081e-02, 1.19511999e-01, 1.28935248e-01,
          1.47200018e-01, 1.01356983e-01, 5.80304638e-02, 5.05127907e-02,
          5.14323115e-02, 5.69673441e-02, 1.08686611e-01, 1.01745963e-01 ]
      - [ 9.03589278e-02, 1.15123935e-01, 1.53684095e-01, 1.21155530e-01,
          9.10955667e-02, 7.86142051e-02, 8.85530189e-02, 7.70456269e-02,
          1.14344567e-01, 9.41148624e-02, 1.14279322e-01, 1.07960477e-01,
          1.15936950e-01, 8.45290869e-02, 8.99600312e-02, 1.07662447e-01,
          1.27631858e-01, 8.94624069e-02, 1.29089653e-01, 6.83725104e-02,
          7.12422132e-02, 1.25421688e-01, 1.19054519e-01, 1.46461710e-01,
          1.20955497e-01, 6.46391734e-02, 7.04747066e-02, 7.90307596e-02,
